tree
version=v2
num_class=1
num_tree_per_iteration=1
label_index=0
max_feature_idx=39
objective=binary sigmoid:1
feature_names=Column_0 Column_1 Column_2 Column_3 Column_4 Column_5 Column_6 Column_7 Column_8 Column_9 Column_10 Column_11 Column_12 Column_13 Column_14 Column_15 Column_16 Column_17 Column_18 Column_19 Column_20 Column_21 Column_22 Column_23 Column_24 Column_25 Column_26 Column_27 Column_28 Column_29 Column_30 Column_31 Column_32 Column_33 Column_34 Column_35 Column_36 Column_37 Column_38 Column_39
feature_infos=[-1.9255400000000005:54.126759999999997] [-0.90688999999999997:1.10266] [-1.26634:2.1080099999999997] [-3.4578500000000001:0.28920000000000001] [-0.68453999999999993:1.4608299999999999] [-1.8406:6.4936199999999999] [-81.658500000000004:31.643259999999998] [-10.74577:66.949190000000002] [-2.62642:51.31176] [-2.15232:48.73489] [-10.70912:111.07871999999999] [-1.9531400000000001:43.035109999999996] [-1.18363:34.243790000000004] [-1.109:38.688190000000013] [-2.4685999999999999:177.90548000000001] [-1.4685600000000001:132.99035000000001] [-0.99763999999999997:41.613] [-1.5372700000000001:49.408000000000001] [-2.9287099999999997:63.813749999999999] [-49.951599999999999:0.57851000000000008] [-0.74114999999999998:43.276870000000002] [-0.77954000000000001:92.989580000000004] [-0.79864000000000002:41.051850000000002] [-66.324819999999988:0.47620000000000001] [-0.55916999999999994:12.483969999999999] [-0.77398:51.78689] [-0.50890000000000002:36.857459999999996] [-21.583879999999997:14.152560000000001] [-0.85997000000000012:28.50262] [-1.1321299999999999:76.815629999999999] [0:2523726] [0:1618860.8714501997] [0:2523726] [0:2644602] [1:2280] [1:2280] [1:2280] [1:3792] [1:3792] [1:3792]
tree_sizes=1683 1678 1696 1693 1691 1685 1698 1689 1687 1682 1693 1706 1690 1701 1697 1689 1683 1696 1684 1694 1699 1691 1704 1695 1688 1701 1688 1692 1690 1684 1694 1688 1704 1688 1709 1696 1700 1707 1696 1703 1700 1704 1702 1694 1699 1705 1701 1704 1682 1704 1704 1685 1700 1697 1702 1708 1698 1690 1696 1697 1696 1698 1683 1697 1701 1680 1699 1692 1705 1704 1719 1714 1723 1704 1710 1713 1713 1698 1709 1712 1700 1706 1705 1708 1706 1702 1699 1720 1708 1706 1721 1699 1721 1719 1724 1718 1714 1712 1718 1696 1721 1710 1710 1712 1712 1706 1713 1702 1695 1697 1697 1701 1699 1696 1704 1699 1694 1683 1690 1714 1709 1708 1702 1702 1709 1721 1707 1708 1720 1702 1699 1711 1715 1706 1711 1722 1721 1709 1708 1721 1698 1708 1694 1707 1721 1725 1711 1707 1706 1719 1733 1730 1729 1728 1720 1720 1715 1717 1697 1712 1725 1734 1738 1735 1737 1715 1712 1711 1727 1715 1704 1711 1719 1723 1716 1723 1699 1712 1718 1700 1736 1700 1743 1693 1720 1719 1718 1694 1725 1723 1730 1727 1727 1722 1716 1694 1701 1711 1706 1715 1718 1726 1711 1707 1710 1715 1738 1712 1713 1716 1717 1717 1709 1732 1726 1729 1729 1713 1726 1716 1710 1718 1708 1701 1713 1704 1706 1724 1717 1711 1720 1727 1724 1720 1721 1732 1725 1724 1730 1721 1742 1726 1736 1753 1732 1709 1737 1727 1739 1712 1712 1715 1728 1726 1728 1713 1718 1729 1711 1715 1727 1706 1698 1704 1704 1730 1726 1728 1728 1721 1725 1704 1706 1708 1711 1703 1734 1709 1697 1724 1712 1709 1728 1723 1713 1720 1722 1726 1726 1723 1734 1723 1712 1735 1725 1720 1735 1710 1715 1710 1706 1712 1704 1722 1693 1687 1730 1706 1706 1710 1716 1713 1701 1715 1731 1704 1708 1705 1674 1715 1708 1711 1721 1721 1723 1725 1707 1692 1726 1710 1724 1709 1703 1701 1693 1698 1701 1706 1703 1689 1720 1723 1728 1719 1717 1699 1700 1712 1705 1708 1716 1703 1722 1706 1709 1702 1702 1719 1683 1690 1724 1685 1705 1722 1715 1721 1737 1722 1729 1729 1708 1718 1700 1708 1695 1713 1705 1720 1715 1707 1714 1708 1730 1717 1715 1694 1708 1704 1718 1724 1728 1692 1716 1708 1734 1696 1689 1696 1701 1707 1707 1708 1715 1728 1707 1703 1697 1694 1711 1707 1710 1708 1691 1708 1717 1727 1715 1722 1712 1706 1716 1719 1691 1735 1719 1715 1706 1712 1718 1693 1687 1704 1713 1709 1721 1668 1682 1669 1683 1684 1707 1706 1704 1707 1696 1682 1705 1700 1711 1695 1710 1679 1694 1707 1703 1683 1697 1694 1693 1695 1699 1717 1712 1701 1720 1701 1695 1710 1708 1716 1694 1681 1685 1677 1698 1707 1697 1689 1698 1691 1683 1686 1690 1679 1698 1687 1711 1679 1696 1697 1707 1676 1674 1709 1699 1698 1703 1670 1682 1714 1699 1685 1682 1707 1680 1702 1690 1679 1699 1698 1691 1713 1691 1696 1706 1695 1675 1683 1695 1688 1690 1691 1701 1694 1692 1702 1693 1702 1698 1692 1668 1662 1670 1683 1680 1706 1706 1695 1729 1695 1701 1678 1666 1703 1702 1703 1714 1702 1697 1701 1676 1696 1694 1661 1668 1683 1705 1688 1681 1717 1688 1688 1687 1683 1689 1687 1673 1683 1659 1668 1675 1672 1684 1691 1690 1679 1689 1695 1705 1687 1689 1712 1681 1686 1704 1690 1680 1679 1671 1685 1697 1697 1670 1668 1673 1703 1710 1679 1722 1717 1669 1669 1698 1689 1674 1695 1702 1704 1691 1698 1686 1681 1678 1683 1693 1686 1680 1673 1654 1706 1690 1668 1672 1704 1675 1693 1680 1702 1696 1696 1677 1683 1690 1712 1690 1669 1675 1686 1690 1680 1687 1695 1698 1699 1676 1684

Tree=0
num_leaves=20
num_cat=0
split_feature=37 33 6 30 28 7 7 33 28 34 0 34 27 24 7 2 29 7 31
split_gain=466.678 143.155 121.526 84.037 37.9359 19.9345 19.1115 18.9122 21.0625 14.9468 13.7107 12.4256 11.6009 12.074 10.2301 9.62117 11.244 9.63911 9.5549
threshold=164.50000000000003 25919.000000000004 0.88031500000000018 5641.1348863704507 -0.44830499999999995 -0.18760499999999997 0.28044000000000002 184243.50000000003 0.75586500000000012 14.500000000000002 -0.27770499999999992 63.500000000000007 -0.38577499999999992 -0.53720499999999993 -0.06780499999999999 -0.46715000000000001 0.28142500000000004 -0.080309999999999979 27690.422295178334
decision_type=10 10 2 10 2 2 2 10 2 10 2 10 2 2 2 2 2 2 10
left_child=1 -1 5 4 -2 11 9 -6 12 -4 -5 -3 13 -9 -7 16 17 -11 -12
right_child=3 2 6 10 7 14 -8 8 -10 15 18 -13 -14 -15 -16 -17 -18 -19 -20
leaf_value=-0.019565989082750077 -0.0069918699186991874 -0.018459307010475424 -0.013281653746770025 -0.014857142857142859 0.0072549019607843135 -0.016160797756310376 -0.01561128526645768 -0.010476190476190471 0.012941176470588235 -0.0090909090909090905 0.0025000000000000001 -0.015471698113207548 -0.0086868686868686873 0.0078260869565217397 -0.017969741337237676 -0.010436590436590436 -0.012727272727272728 0.0044067796610169482 -0.010103092783505154
leaf_count=29861 246 12410 774 280 204 3209 638 21 34 33 32 583 99 46 2049 481 44 59 97
internal_value=0 -1.86853 -1.73886 -0.526912 -0.08 -1.79048 -1.27452 0.29703 -0.14 -1.14306 -1.23716 -1.83253 -0.433735 0.208955 -1.68657 -0.910859 -0.441176 -0.0434783 -0.697674
internal_count=51200 50141 20280 1059 650 18251 2029 404 200 1391 409 12993 166 67 5258 617 136 92 129
shrinkage=0.01


Tree=1
num_leaves=20
num_cat=0
split_feature=37 30 6 30 28 7 7 5 34 6 0 23 34 2 30 5 7 37 30
split_gain=457.481 140.22 120.154 82.3695 37.1815 20.2384 19.0862 16.9662 14.4629 14.3463 13.4398 13.2471 12.3019 10.9779 10.9231 10.6588 10.5702 10.4947 9.65764
threshold=164.50000000000003 310.37268518518528 0.88031500000000018 5641.1348863704507 -0.44830499999999995 -0.18760499999999997 0.38210500000000008 -0.96685499999999991 66.500000000000014 2.2251450000000008 -0.27770499999999992 -0.002545 63.500000000000007 -0.46715000000000001 19362.640170940173 0.10853000000000002 -0.06780499999999999 48.500000000000007 4042.1611940298512
decision_type=10 10 2 10 2 2 2 2 10 2 2 2 10 2 10 2 2 10 10
left_child=1 -1 5 4 -2 12 9 -6 -9 14 -5 -10 -3 15 -4 17 -7 -11 -13
right_child=3 2 6 10 7 16 -8 8 11 13 -12 18 -14 -15 -16 -17 -18 -19 -20
leaf_value=-0.0193778177100251 -0.0069220358662170937 -0.018290081754034692 -0.010278466422800432 -0.014709386572188659 -0.0092547966048569658 -0.015978997104228669 -0.015794008320064355 -0.010360922408946828 0.00080807848021078655 -0.012827098456961958 -0.006907112830560406 0.012838875040844118 -0.015317901256131273 -0.010313053530179639 -0.014423846104833382 0.0046158863960591434 -0.01780999518233662 0.0036996344100257085 0.0038662704482492695
leaf_count=29693 246 12523 433 280 41 3233 553 25 144 51 129 107 583 322 616 44 2068 22 87
internal_value=0 -1.85001 -1.72255 -0.521657 -0.0792012 -1.77361 -1.26214 0.294065 0.431809 -1.14423 -1.22485 0.540382 -1.81579 -0.840658 -1.27127 -0.31597 -1.66933 -0.784639 0.881508
internal_count=51200 50141 20448 1059 650 18407 2041 404 363 1488 409 338 13106 439 1049 117 5301 73 194
shrinkage=0.01


Tree=2
num_leaves=20
num_cat=0
split_feature=37 33 6 30 28 37 7 33 28 34 30 0 7 27 1 14 2 23 17
split_gain=448.648 137.757 116.879 80.7443 36.4429 19.3491 18.4144 18.3503 20.5711 14.5539 14.4853 13.1787 12.4808 11.2832 11.086 9.59453 9.36642 9.74495 9.32285
threshold=164.50000000000003 25919.000000000004 0.88031500000000018 5641.1348863704507 -0.44830499999999995 61.500000000000007 0.28044000000000002 184243.50000000003 0.75586500000000012 14.500000000000002 8950.5810218978131 -0.27770499999999992 -0.18760499999999997 -0.38577499999999992 1.0000000180025095e-35 1.7313300000000003 -0.28955499999999995 0.11712500000000002 -0.42053999999999997
decision_type=10 10 2 10 2 10 2 10 2 10 10 2 2 2 2 2 2 2 2
left_child=1 -1 5 4 -2 12 9 -6 13 -4 14 -5 -3 -9 -7 -8 17 -13 -11
right_child=3 2 6 11 7 10 15 8 -10 18 -12 16 -14 -15 -16 -17 -18 -19 -20
leaf_value=-0.019183982218886057 -0.0068530652856189376 -0.018204239106043133 -0.013029861805233021 -0.014564681588402149 0.0071319108504807466 -0.015825251004189921 -0.016097578170424759 0.0020418816299571647 0.012779812488895953 -0.0043735607058585351 -0.016912001587011796 -0.01216255210440193 -0.016927983168910917 -0.008586169753074923 -0.011026872374328634 -0.0076939949556719739 -0.013189680156540595 0.0029862395170926416 -0.010243691716252818
leaf_count=29861 246 10931 774 280 204 448 578 67 34 140 2273 26 4261 99 338 60 54 49 477
internal_value=0 -1.83199 -1.70476 -0.516476 -0.0784117 -1.7554 -1.24936 0.291133 -0.139365 -1.12031 -1.61026 -1.21275 -1.78463 -0.429655 -1.37618 -1.53073 -0.683829 -0.226531 -0.891173
internal_count=51200 50141 20280 1059 650 18251 2029 404 200 1391 3059 409 15192 166 786 638 129 75 617
shrinkage=0.01


Tree=3
num_leaves=20
num_cat=0
split_feature=37 33 6 30 28 37 33 28 30 34 17 8 6 12 27 24 1 5 34
split_gain=440.152 135.289 114.723 79.1603 35.7198 18.9922 17.9862 20.164 14.2135 13.2166 13.4777 16.2786 12.2852 11.7665 11.0595 11.7987 10.8756 9.72554 8.7972
threshold=164.50000000000003 25919.000000000004 0.88031500000000018 5641.1348863704507 -0.44830499999999995 61.500000000000007 184243.50000000003 0.75586500000000012 8950.5810218978131 20.500000000000004 -0.42053999999999997 0.33226500000000009 0.20790500000000003 2.0028700000000002 -0.38577499999999992 -0.53720499999999993 1.0000000180025095e-35 -0.16031999999999999 182.50000000000003
decision_type=10 10 2 10 2 10 10 2 10 10 2 2 2 2 2 2 2 2 10
left_child=1 -1 5 4 -2 12 -6 14 16 -4 17 -12 -3 -5 15 -8 -7 -11 -16
right_child=3 2 9 13 6 8 7 -9 -10 10 11 -13 -14 -15 18 -17 -18 -19 -20
leaf_value=-0.019001023724184617 -0.0067849389210001701 -0.017896954259988173 -0.013572474567757684 -0.01307875960597347 0.0070609933073226671 -0.015672220514200762 -0.010400304825492595 0.012653851672459433 -0.016749033878295495 -0.0080755380782881851 -0.014437224589648521 -0.0079071143517424024 -0.016217124067366879 -0.0012504091649440754 -0.011594558463774662 0.0076924564991981206 -0.010918976760720052 0.0044316394368403185 0.002989452080673945
leaf_count=29861 246 13184 1306 372 204 448 21 34 2273 72 324 289 2008 37 78 46 338 38 21
internal_value=0 -1.81445 -1.68835 -0.511371 -0.0776321 -1.73853 0.288238 -0.137979 -1.59471 -1.23712 -1.02014 -1.13584 -1.76749 -1.20087 -0.425375 0.202147 -1.36281 -0.375478 -0.850084
internal_count=51200 50141 20280 1059 650 18251 404 200 3059 2029 723 613 15192 409 166 67 786 110 99
shrinkage=0.01


Tree=4
num_leaves=20
num_cat=0
split_feature=37 33 6 30 28 7 7 33 28 6 0 34 30 27 24 2 37 5 7
split_gain=431.981 132.967 112.671 77.6122 35.012 18.7634 18.0099 17.6296 19.7663 13.1904 12.9285 11.6287 11.1107 10.8408 11.5647 10.642 10.2022 10.9229 9.85296
threshold=164.50000000000003 25919.000000000004 0.88031500000000018 5641.1348863704507 -0.44830499999999995 -0.18760499999999997 0.38210500000000008 184243.50000000003 0.75586500000000012 2.2251450000000008 -0.27770499999999992 63.500000000000007 19362.640170940173 -0.38577499999999992 -0.53720499999999993 -0.46715000000000001 75.500000000000014 1.0000000180025095e-35 -0.06780499999999999
decision_type=10 10 2 10 2 2 2 10 2 2 2 10 10 2 2 2 10 2 2
left_child=1 -1 5 4 -2 11 9 -6 13 12 -5 -3 -4 14 -9 16 17 -11 -7
right_child=3 2 6 10 7 18 -8 8 -10 15 -12 -13 -14 -15 -16 -17 -18 -19 -20
leaf_value=-0.018823155135654555 -0.0067176425960030787 -0.017758779081850484 -0.0098455012716857342 -0.014306659050655889 0.0069909541928109735 -0.015519988296365852 -0.015342376042709289 -0.010296990909918402 0.012530127372667579 -0.0115534878201108 -0.006652634195817915 -0.014867149130349208 -0.014041760691763308 -0.008416800746685122 0.0076160395327533959 -0.01005088322738072 0.0092924844408796871 0.0023925562639068067 -0.017296300580942149
leaf_count=29861 246 12410 428 280 204 3209 550 21 34 55 129 583 616 99 46 320 22 38 2049
internal_value=0 -1.79737 -1.67233 -0.506337 -0.0768629 -1.72208 -1.22509 0.285384 -0.136615 -1.11017 -1.18917 -1.7629 -1.23213 -0.421162 0.200139 -0.817498 -0.295586 -0.585417 -1.62122
internal_count=51200 50141 20280 1059 650 18251 2029 404 200 1479 409 12993 1044 166 67 435 115 93 5258
shrinkage=0.01


Tree=5
num_leaves=20
num_cat=0
split_feature=37 30 6 37 30 0 7 33 5 7 7 14 12 34 34 6 37 10 14
split_gain=449.134 119.948 98.2634 57.8861 31.1441 27.2155 24.3508 19.5481 16.2225 15.3004 14.7952 12.6472 10.9289 10.6992 10.47 9.26962 9.18315 8.95761 13.6376
threshold=164.50000000000003 1.0769230769230769 0.88031500000000018 387.50000000000006 6351.305670913488 -0.43340499999999998 -0.18760499999999997 179109.50000000003 -0.83242999999999989 0.10151500000000001 -0.081494999999999984 1.7313300000000003 -0.18682999999999997 66.500000000000014 26.500000000000004 2.2251450000000008 86.500000000000014 0.46205500000000005 0.52786500000000014
decision_type=10 10 2 10 10 2 2 10 2 2 2 2 2 10 10 2 10 2 2
left_child=1 -1 6 4 5 15 14 -5 -7 -4 16 -11 -9 -10 -3 -2 -8 -15 -19
right_child=3 2 9 7 -6 8 10 12 13 11 -12 -13 -14 17 -16 -17 -18 18 -20
leaf_value=-0.018753414783319999 -0.010181522840377639 -0.017890642308646083 -0.011384385467297815 0.012719252441142708 -0.011790495455860696 -0.0085845061590904478 -0.015600221349781812 -0.011173165635618978 -0.008559467991735634 -0.01537736313612331 -0.017289542118798323 -0.0071717966044414555 0.0066630293922150972 0.0052639780872642053 -0.016538669020341221 0.0040068070753100102 -0.012018160097685724 -0.01491573938890574 0.0041084288662231452
leaf_count=26715 234 12385 1277 90 310 79 3095 28 36 909 2526 82 27 190 2818 20 316 25 38
internal_value=0 -1.78364 -1.67903 -0.477904 -0.660872 -0.402761 -1.72153 0.697775 -0.0551221 -1.28321 -1.61282 -1.46982 -0.241734 0.164472 -1.764 -0.906425 -1.52683 0.309656 -0.344027
internal_count=51200 50123 23408 1077 932 622 21140 145 368 2268 5937 991 55 289 15203 254 3411 253 63
shrinkage=0.01


Tree=6
num_leaves=20
num_cat=0
split_feature=37 33 6 37 0 6 31 6 33 8 14 37 34 11 14 3 19 14 3
split_gain=441.136 117.995 96.6545 56.7448 28.1466 23.7077 20.6366 19.6865 19.1624 13.6853 13.6733 11.7742 10.6607 9.15688 9.08957 8.70571 8.54949 8.67903 8.18149
threshold=164.50000000000003 1.5000000000000002 0.88031500000000018 387.50000000000006 -0.32960499999999998 1.0000000180025095e-35 27690.422295178334 2.2251450000000008 179109.50000000003 -0.39827499999999993 -0.10855499999999997 259.50000000000006 26.500000000000004 0.38199000000000011 -0.25415499999999996 1.0000000180025095e-35 0.46263500000000007 1.7313300000000003 1.0000000180025095e-35
decision_type=10 10 2 10 2 2 10 2 10 2 2 10 10 2 2 2 2 2 2
left_child=1 -1 5 4 7 12 13 11 -5 -4 -7 -2 -3 -6 -10 -8 17 -11 -15
right_child=3 2 9 8 6 10 15 -9 14 16 -12 -13 -14 18 -16 -17 -18 -19 -20
leaf_value=-0.018584235728742501 -0.012617279323245443 -0.017729288934436468 -0.015852922695142109 0.012593966891212576 0.0049932215040369571 -0.01670459898509832 0.0018997599613188925 0.0058967668745887438 -0.012353672448482553 -0.013021860776408965 -0.01469935727494383 -0.0059989602416110899 -0.016366435183450174 0.0070729476166061997 0.0042461347966010268 -0.0099855340694725309 -0.008653927636062703 -0.008113522757912793 -0.0059809217881588318
leaf_count=26710 342 12400 446 90 125 3787 30 31 22 1391 2131 157 2827 25 33 139 270 161 83
internal_value=0 -1.76741 -1.66364 -0.473215 -0.654394 -1.7058 -0.255226 -0.95727 0.690888 -1.27097 -1.59825 -1.05341 -1.74762 0.130718 -0.23934 -0.787587 -1.19406 -1.25126 -0.295922
internal_count=51200 50123 23413 1077 932 21145 402 530 145 2268 5918 499 15227 233 55 169 1822 1552 108
shrinkage=0.01


Tree=7
num_leaves=20
num_cat=0
split_feature=37 30 6 37 30 5 7 33 21 7 7 3 19 12 34 8 37 24 27
split_gain=433.44 116.283 95.0814 55.6274 30.1974 25.4055 23.5825 18.786 15.8418 14.9561 14.5359 11.1765 13.248 10.5714 10.1373 9.40149 9.02551 8.7292 16.8163
threshold=164.50000000000003 1.0769230769230769 0.88031500000000018 387.50000000000006 6351.305670913488 -0.83242999999999989 -0.18760499999999997 179109.50000000003 1.0000000180025095e-35 0.10151500000000001 -0.081494999999999984 1.0000000180025095e-35 -0.010259999999999998 -0.18682999999999997 26.500000000000004 5.105125000000001 86.500000000000014 -0.52586499999999992 0.37905500000000009
decision_type=10 10 2 10 10 2 2 10 2 2 2 2 2 2 10 2 10 2 2
left_child=1 -1 6 4 5 -2 14 -5 -7 -4 16 12 -10 -9 -3 -11 -8 -13 -19
right_child=3 2 9 7 -6 8 10 13 11 15 -12 17 -14 -15 -16 -17 -18 18 -20
leaf_value=-0.01841974516231485 -0.010401085973376301 -0.017568869209974202 -0.011157784492960119 0.012470894496011319 -0.011584811538620468 -0.0090707404461726603 -0.015309376687504284 -0.010983450421463184 -0.002024203453959832 -0.014736611153454067 -0.016985130560621543 -0.0066239921817256376 0.015598410644528269 0.0065603663402290079 -0.016237392282380084 -0.0017872459550182229 -0.011755870342333155 0.0049620109450729472 -0.0072540953151682417
leaf_count=26715 175 12385 1277 90 310 87 3095 28 31 968 2526 86 38 27 2818 23 316 138 67
internal_value=0 -1.75158 -1.6485 -0.468582 -0.64799 -0.393852 -1.69036 0.684105 -0.14088 -1.25896 -1.58329 0.0442519 0.768125 -0.236973 -1.7322 -1.44358 -1.498 -0.127401 0.0970097
internal_count=51200 50123 23408 1077 932 622 21140 145 447 2268 5937 360 69 55 15203 991 3411 291 205
shrinkage=0.01


Tree=8
num_leaves=20
num_cat=0
split_feature=37 30 6 37 30 0 7 33 5 7 7 14 34 12 34 37 6 17 9
split_gain=426.008 114.612 93.605 54.5349 29.6267 26.059 23.2278 18.4186 15.5168 14.6993 14.3036 12.2088 10.3943 10.3634 9.98665 8.87294 8.80784 8.71517 7.96546
threshold=164.50000000000003 1.0769230769230769 0.88031500000000018 387.50000000000006 6351.305670913488 -0.43340499999999998 -0.18760499999999997 179109.50000000003 -0.83242999999999989 0.10151500000000001 -0.081494999999999984 1.7313300000000003 66.500000000000014 -0.18682999999999997 26.500000000000004 86.500000000000014 2.2251450000000008 -0.41489999999999994 1.4086100000000001
decision_type=10 10 2 10 10 2 2 10 2 2 2 2 10 2 10 10 2 2 2
left_child=1 -1 6 4 5 16 14 -5 17 -4 15 -11 -10 -9 -3 -8 -2 -7 -6
right_child=3 2 9 7 18 8 10 13 12 11 -12 -13 -14 -15 -16 -17 -18 -19 -20
leaf_value=-0.0182595741296365 -0.0099194380654383848 -0.017414005344869459 -0.011051779151040145 0.01234996629463187 -0.012710444705848884 -0.00071156276309100011 -0.015170566960655637 -0.010876658222659976 -0.0084100037212758837 -0.014970922037705465 -0.016833844403821147 -0.0069041373087047209 0.0030806674061678758 0.0064950650859405381 -0.016091756589621278 -0.011646018814796984 0.0039118779096081243 -0.014134019529671908 -0.0031375863220796637
leaf_count=26715 234 12385 1277 90 270 34 3095 28 36 909 2526 82 253 27 2818 316 20 45 40
internal_value=0 -1.73615 -1.63377 -0.464019 -0.641681 -0.389969 -1.67533 0.677435 -0.0497855 -1.24715 -1.56902 -1.43026 0.16497 -0.234643 -1.71688 -1.48438 -0.882979 -0.83567 -1.14748
internal_count=51200 50123 23408 1077 932 622 21140 145 368 2268 5937 991 289 55 15203 3411 254 79 310
shrinkage=0.01


Tree=9
num_leaves=20
num_cat=0
split_feature=37 30 6 37 30 0 7 33 7 7 35 14 35 37 14 6 9 10 24
split_gain=418.84 113.04 92.1975 53.4658 29.0709 25.5496 22.8927 18.06 14.4531 14.0831 13.3596 11.996 9.84473 8.7268 8.63713 8.63581 7.81805 7.84633 7.58899
threshold=164.50000000000003 1.0769230769230769 0.88031500000000018 387.50000000000006 6351.305670913488 -0.43340499999999998 -0.18760499999999997 179109.50000000003 0.10151500000000001 -0.081494999999999984 60.500000000000007 1.7313300000000003 26.500000000000004 86.500000000000014 -0.25415499999999996 2.2251450000000008 1.4086100000000001 -0.36305499999999996 1.1991350000000003
decision_type=10 10 2 10 10 2 2 10 2 2 10 2 10 10 2 2 2 2 2
left_child=1 -1 6 4 5 15 12 -5 -4 13 -7 -10 -3 -8 -9 -2 17 -6 -15
right_child=3 2 8 7 16 10 9 14 11 -11 -12 -13 -14 18 -16 -17 -18 -19 -20
leaf_value=-0.018103616455628788 -0.0098230200022230135 -0.017262953844223078 -0.010947401928773142 0.012231114531482066 -0.0050572224768798317 -0.010976354648054196 -0.015034626415863275 -0.012038446390296598 -0.014835027771293792 -0.016686117040250668 0.00089327785913632853 -0.006837348717357257 -0.015949353358321091 -0.01250638603752344 0.0041479867766105252 0.0038728422459369995 -0.0031066436834159472 -0.01413891911359651 -0.0015770611206823537
leaf_count=26715 234 12385 1277 90 46 43 3095 22 909 2526 325 82 2818 288 33 20 40 224 28
internal_value=0 -1.7211 -1.61937 -0.459516 -0.635452 -0.386129 -1.66066 0.670871 -1.23554 -1.55506 -0.049292 -1.41721 -1.70193 -1.47104 -0.232345 -0.874378 -1.13667 -1.25915 -1.15379
internal_count=51200 50123 23408 1077 932 622 21140 145 2268 5937 368 991 15203 3411 55 254 310 270 316
shrinkage=0.01


Tree=10
num_leaves=20
num_cat=0
split_feature=37 33 6 31 28 6 37 6 35 7 1 35 14 12 11 12 35 23 7
split_gain=438.271 119.001 88.5624 60.0244 28.5766 23.7508 22.3679 15.852 14.7924 14.5524 13.9358 13.4889 11.1412 10.7022 10.0281 11.3672 9.66947 9.56149 9.53233
threshold=167.50000000000003 2121171.0000000005 0.88031500000000018 25546.700322457469 -0.44830499999999995 1.8889400000000005 64.500000000000014 1.0000000180025095e-35 156.50000000000003 0.10151500000000001 1.0000000180025095e-35 14.500000000000002 3.6730800000000001 -0.25218999999999997 0.61846000000000012 -0.088779999999999984 308.50000000000006 0.4108150000000001 -0.14627499999999996
decision_type=10 8 2 10 2 2 10 2 10 2 2 10 2 2 2 2 8 2 2
left_child=1 2 6 4 16 -5 7 -1 10 11 14 -4 -11 -9 15 -6 17 -2 -10
right_child=3 -3 9 5 8 -7 -8 13 18 12 -12 -13 -14 -15 -16 -17 -18 -19 -20
leaf_value=-0.017016329246134283 -0.00093381211263688648 -0.017955597787712531 -0.012505274781698574 -0.010593368589322647 -0.0054175015152944025 0.0075523272456092354 -0.014738715981601504 -0.0165145756912627 0.0036477404318877083 -0.014395120417801593 0.0049488905220110317 -0.0082651552863040288 -0.0021963399560143838 -0.014655368381745833 -0.013953424045479248 0.012075082318833702 0.0068352755013779791 -0.010913387566202028 0.013429740779128077
leaf_count=13318 58 26705 731 426 58 31 2839 2835 88 961 119 512 31 2226 34 20 21 114 73
internal_value=0 -1.70382 -1.59954 -0.392075 0.0322391 -0.936094 -1.63963 -1.66527 0.342557 -1.22012 0.0181023 -1.07576 -1.4013 -1.56967 -0.488474 -0.0931965 -0.59812 -0.75467 0.808275
internal_count=51200 50158 23453 1042 585 457 21218 18379 392 2235 231 1243 992 5061 112 78 193 172 161
shrinkage=0.01


Tree=11
num_leaves=20
num_cat=0
split_feature=37 33 7 30 8 3 28 27 37 14 37 5 0 37 23 34 5 30 28
split_gain=431.129 117.505 68.8679 52.7393 28.0599 24.9376 18.9921 22.5399 18.7331 13.7064 13.5897 11.3123 12.7215 9.80959 9.64565 9.43815 10.1793 8.79113 8.15921
threshold=167.50000000000003 2121171.0000000005 -0.18760499999999997 5641.1348863704507 -0.39827499999999993 1.0000000180025095e-35 -0.19393999999999997 1.0000000180025095e-35 63.500000000000007 0.039920000000000004 43.500000000000007 0.51180000000000014 0.059645000000000011 230.50000000000003 0.068785000000000013 326.50000000000006 1.0000000180025095e-35 4304.0245535714294 -0.46439000000000002
decision_type=10 8 2 10 2 2 2 2 10 2 10 2 2 10 2 10 2 10 2
left_child=1 2 10 5 -4 13 15 -8 -6 -10 -1 12 -5 -2 -11 16 -7 -9 -18
right_child=3 -3 4 11 8 6 7 17 9 14 -12 -13 -14 -15 -16 -17 18 -19 -20
leaf_value=-0.016986907964464754 -0.0040836490459757362 -0.017807551760383088 -0.016046892913362754 -0.012828288927845962 -0.014120652622692359 -0.0076809416705551671 0.010504777825766323 0.0014553607018005124 -0.013187248208120995 -0.011246577696242375 -0.015555036436565544 -0.0022372113647040636 -0.0010097224803805472 0.011491343372271002 -0.0054163156870068738 0.0065905282260428112 -0.0064617029566057561 -0.010696811119268479 0.0062867562684499933
leaf_count=11743 20 26705 2730 280 4481 254 87 59 576 246 3464 67 42 85 213 27 37 40 44
internal_value=0 -1.68951 -1.58581 -0.388275 -1.43815 -0.0410432 -0.212232 0.307468 -1.35583 -1.11261 -1.66605 -0.972556 -1.12846 0.852369 -0.854066 -0.479305 -0.571036 -0.345643 0.0465342
internal_count=51200 50158 23453 1042 8246 653 548 186 5516 1035 15207 389 322 105 459 362 335 99 81
shrinkage=0.01


Tree=12
num_leaves=20
num_cat=0
split_feature=37 33 6 31 28 6 37 6 7 34 1 34 6 0 12 8 12 0 34
split_gain=424.218 116.109 86.885 57.9434 27.592 23.2129 21.8137 15.3293 14.3104 14.3051 13.597 13.1899 10.9975 11.5416 10.4295 10.1022 10.6656 9.49276 9.35317
threshold=167.50000000000003 2121171.0000000005 0.88031500000000018 25546.700322457469 -0.44830499999999995 1.8889400000000005 64.500000000000014 1.0000000180025095e-35 0.10151500000000001 156.50000000000003 1.0000000180025095e-35 14.500000000000002 2.2251450000000008 -0.25175499999999995 -0.25218999999999997 1.7446400000000002 0.30340000000000006 -0.12200499999999999 308.50000000000006
decision_type=10 8 2 10 2 2 10 2 2 10 2 10 2 2 2 2 2 2 8
left_child=1 2 6 4 18 -5 7 -1 11 10 15 -4 -10 -14 -9 16 -6 -8 -2
right_child=3 -3 8 5 9 -7 17 14 12 -11 -12 -13 13 -15 -16 -17 -18 -19 -20
leaf_value=-0.016733661231293447 -0.0074125612718964071 -0.017663266162127794 -0.012260113781703375 -0.01041346129898507 -0.0057250285792733733 0.0075274595893207331 -0.015120355734967726 -0.016242734089005818 -0.015672146430434429 0.00795430572467044 0.0048922645139958714 -0.0080641360466073651 -0.014141881705347151 -0.0075887223115778035 -0.014404870083638246 -0.017711541422183993 0.010509241159670024 -0.012365538172933463 0.0067326055036991848
leaf_count=13318 172 26705 731 426 71 31 2182 2835 546 161 119 512 261 185 2226 20 21 657 21
internal_value=0 -1.67553 -1.57238 -0.384526 0.0323627 -0.919386 -1.61218 -1.63754 -1.19624 0.337313 0.0182483 -1.053 -1.37613 -1.14234 -1.54341 -0.482193 -0.201977 -1.44828 -0.587209
internal_count=51200 50158 23453 1042 585 457 21218 18379 2235 392 231 1243 992 446 5061 112 92 2839 193
shrinkage=0.01


Tree=13
num_leaves=20
num_cat=0
split_feature=37 33 6 31 28 6 37 6 7 34 1 34 6 0 12 8 27 30 1
split_gain=417.547 114.789 85.7277 56.8325 27.0486 22.7672 21.5311 15.1527 14.0861 14.0256 13.3272 12.9655 10.8222 11.3453 10.2832 9.90597 10.8374 9.45226 10.0879
threshold=167.50000000000003 2121171.0000000005 0.88031500000000018 25546.700322457469 -0.44830499999999995 1.8889400000000005 64.500000000000014 1.0000000180025095e-35 0.10151500000000001 156.50000000000003 1.0000000180025095e-35 14.500000000000002 2.2251450000000008 -0.25175499999999995 -0.28487499999999993 1.7446400000000002 -0.17384499999999997 8950.5810218978131 1.0000000180025095e-35
decision_type=10 8 2 10 2 2 10 2 2 10 2 10 2 2 2 2 2 10 2
left_child=1 2 6 4 -2 -5 7 -1 11 10 15 -4 -10 -14 -9 16 -6 18 -8
right_child=3 -3 8 5 9 -7 17 14 12 -11 -12 -13 13 -15 -16 -17 -18 -19 -20
leaf_value=-0.016596999376936723 -0.0058148673834599578 -0.017522601841016588 -0.012149326125510552 -0.010315949020084406 0.0047205921002363401 0.0074511112408855865 -0.014418287289276415 -0.01613994085787953 -0.015537602998264035 0.0078768728257948232 0.0048433554040679715 -0.0079877190687772468 -0.0140177529027153 -0.0075176797816238622 -0.014320841047124997 -0.017540594211347838 -0.0090192717889039115 -0.015065561921648705 -0.0097520354803579297
leaf_count=13318 193 26705 731 426 47 31 445 2736 546 161 119 512 261 185 2325 20 45 2071 323
internal_value=0 -1.66188 -1.55924 -0.380818 0.0320447 -0.910729 -1.59882 -1.62404 -1.18545 0.333987 0.0180665 -1.04329 -1.36405 -1.13204 -1.53039 -0.477423 -0.199968 -1.43587 -1.24543
internal_count=51200 50158 23453 1042 585 457 21218 18379 2235 392 231 1243 992 446 5061 112 92 2839 768
shrinkage=0.01


Tree=14
num_leaves=20
num_cat=0
split_feature=37 33 7 31 8 28 37 34 14 37 1 30 8 27 23 7 29 4 17
split_gain=411.095 113.548 66.5131 55.7463 27.1472 26.5157 18.2655 13.752 13.4916 13.1424 13.063 10.3571 9.71554 10.6232 9.44681 9.31401 9.29613 9.25425 9.24235
threshold=167.50000000000003 2121171.0000000005 -0.18760499999999997 25546.700322457469 -0.39827499999999993 -0.44830499999999995 63.500000000000007 156.50000000000003 0.039920000000000004 43.500000000000007 1.0000000180025095e-35 7728.008487325279 1.7446400000000002 -0.17384499999999997 0.068785000000000013 -0.14627499999999996 1.0891750000000002 1.0000000180025095e-35 -0.36101499999999992
decision_type=10 8 2 10 2 2 10 10 2 10 2 10 2 2 2 2 2 2 2
left_child=1 2 9 5 -4 -2 -6 10 -8 -1 12 16 13 -7 -10 18 -5 -12 -9
right_child=3 -3 4 11 6 7 8 15 14 -11 17 -13 -14 -15 -16 -17 -18 -19 -20
leaf_value=-0.016576787754425303 -0.0057579857673736006 -0.017385426512897029 -0.015652214565120712 -0.0080219960039014625 -0.013755550715106318 0.0046733748628577281 -0.012842449505090194 0.015376235165904422 -0.010907873669837547 -0.015165150986039161 0.0075997505287364363 -0.013713417313464761 -0.017373928834857645 -0.0089305727067633608 -0.0051298268543868283 0.013090213806834654 0.0051943853537532135 -0.0063074107771630382 -0.00010382635304501682
leaf_count=11743 193 26705 2730 300 4481 47 576 20 246 3464 95 134 20 45 213 73 23 24 68
internal_value=0 -1.64854 -1.54638 -0.377155 -1.401 0.0317301 -1.31989 0.330704 -1.07936 -1.62548 0.0178868 -0.902194 -0.472723 -0.197984 -0.822515 0.780042 -0.708009 0.479499 0.341562
internal_count=51200 50158 23453 1042 8246 585 5516 392 1035 15207 231 457 112 92 459 161 323 119 88
shrinkage=0.01


Tree=15
num_leaves=20
num_cat=0
split_feature=37 33 6 30 3 0 7 14 7 6 7 23 28 34 14 2 37 30 33
split_gain=379.319 110.936 95.5125 53.6634 29.3046 21.5885 20.0604 18.225 17.6237 15.3478 13.5414 10.9983 21.6412 10.6766 9.97507 9.62759 9.47981 9.05549 9.04354
threshold=164.50000000000003 25919.000000000004 0.88031500000000018 6351.305670913488 1.0000000180025095e-35 0.059645000000000011 -0.18760499999999997 0.49497000000000002 0.28044000000000002 2.2251450000000008 -0.081494999999999984 -0.002545 -0.24187999999999996 17.500000000000004 1.9223900000000003 -0.46715000000000001 204.50000000000003 8558.006660794892 648756.00000000012
decision_type=10 10 2 10 2 2 2 2 2 2 2 2 2 10 2 2 10 10 10
left_child=1 -1 6 4 16 7 13 11 9 18 -8 -6 -13 -3 -10 -11 -2 -15 -4
right_child=3 2 8 -5 5 -7 10 -9 14 15 -12 12 -14 17 -16 -17 -18 -19 -20
leaf_value=-0.017166056930407531 -0.0048826012966844403 -0.016519894182759527 -0.0089726810192621628 -0.011656070819816119 -0.011249742477670377 0.0064378945389088693 -0.013776653558920816 0.0031679577197821318 -0.014635498898894038 -0.001174145144555865 -0.015844829224957949 -0.0065514374469023123 0.0077422066293057791 -0.012851208275254863 -0.0055391791631605883 -0.0083359383463130522 0.0095253328037736128 -0.015644743716738324 -0.012830776055320172
leaf_count=29850 22 8816 432 289 131 80 3047 98 583 102 2221 282 50 541 53 292 109 3636 566
internal_value=0 -1.63823 -1.52333 -0.427409 -0.152341 -0.328729 -1.56957 -0.467592 -1.10983 -0.983458 -1.46477 -0.633691 -0.439765 -1.61217 -1.38741 -0.648048 0.710543 -1.52824 -1.116
internal_count=51200 50139 20289 1061 772 641 18261 561 2028 1392 5268 463 332 12993 636 394 131 4177 998
shrinkage=0.01


Tree=16
num_leaves=20
num_cat=0
split_feature=37 33 6 31 0 7 6 7 34 6 3 14 37 34 34 31 14 2 29
split_gain=373.735 109.845 94.3057 53.8223 20.7238 19.8469 17.9996 17.3578 15.954 15.0828 13.9639 13.4714 13.3215 10.6944 10.5548 10.4671 9.81748 9.44953 9.89466
threshold=164.50000000000003 25919.000000000004 0.88031500000000018 25546.700322457469 -0.56315499999999996 -0.18760499999999997 2.2251450000000008 0.28044000000000002 66.500000000000014 2.2251450000000008 1.0000000180025095e-35 -0.207535 502.50000000000006 313.50000000000006 17.500000000000004 94187.515694964983 1.9223900000000003 -0.46715000000000001 0.28142500000000004
decision_type=10 10 2 10 2 2 2 2 10 2 2 2 10 8 10 10 2 2 2
left_child=1 -1 5 4 13 14 -5 9 -6 15 -10 -7 -12 -2 -3 -4 -9 18 -11
right_child=3 2 7 6 8 11 -8 16 10 17 12 -13 -14 -15 -16 -17 -18 -19 -20
leaf_value=-0.01703570903952872 -0.0098931033096216672 -0.016391176183561635 -0.0086727687680974407 -0.010391943413757529 -0.013250900074624707 -0.015483928164277228 0.0061695159762634602 -0.014513123445987437 0.009103747290361985 0.0029646707385462419 -0.00075580284598564251 -0.013440970597470812 0.011830046520018265 0.0054083358063565573 -0.015159508087671598 -0.01283365604078613 -0.0054863782866507232 -0.0082586923987338738 -0.010626757723047954
leaf_count=29850 109 8816 425 434 27 2803 28 583 102 71 301 2465 38 22 4177 573 53 292 31
internal_value=0 -1.62547 -1.51104 -0.423319 -0.0277225 -1.55705 -0.938348 -1.09995 0.169232 -0.974511 0.260675 -1.45273 0.0653242 -0.731984 -1.59948 -1.10599 -1.37567 -0.641935 -0.116251
internal_count=51200 50139 20289 1061 599 18261 462 2028 468 1392 441 5268 339 131 12993 998 636 394 102
shrinkage=0.01


Tree=17
num_leaves=20
num_cat=0
split_feature=37 33 6 31 28 7 6 7 6 34 19 37 0 5 7 34 31 14 2
split_gain=368.326 108.821 93.1453 52.8077 25.6397 19.6454 17.6596 17.1003 14.8247 13.7507 13.7495 16.7794 16.2398 13.7549 13.3825 10.4407 10.2978 9.66489 9.27491
threshold=164.50000000000003 25919.000000000004 0.88031500000000018 25546.700322457469 -0.46439000000000002 -0.18760499999999997 2.2251450000000008 0.28044000000000002 2.2251450000000008 308.50000000000006 0.049455000000000006 366.50000000000006 -0.43340499999999998 -0.83242999999999989 -0.081494999999999984 17.500000000000004 94187.515694964983 1.9223900000000003 -0.46715000000000001
decision_type=10 10 2 10 2 2 2 2 2 8 2 10 2 2 2 10 10 2 2
left_child=1 -1 5 4 9 15 -5 8 16 -2 11 12 -6 -12 -7 -3 -4 -9 -10
right_child=3 2 7 6 10 14 -8 17 18 -11 13 -13 -14 -15 -16 -17 -18 -19 -20
leaf_value=-0.016908461200604727 -0.0085392284050841046 -0.016265341320513715 -0.008592932073592012 -0.010296716801438914 -0.014996342452163127 -0.013541830817826644 0.0061070379141740664 -0.014393081211518213 -0.0011510508730699749 0.0086776367610558233 -0.0044176668495815195 0.0072212814491026686 -0.00050947606333414568 0.0088335648354530335 -0.015601695786683661 -0.015039033046948886 -0.012722143548064675 -0.0054341379654246234 -0.0081823859970186295
leaf_count=29850 161 8816 425 434 44 3047 28 583 102 21 39 68 105 161 2221 4177 573 53 292
internal_value=0 -1.613 -1.499 -0.419281 -0.0274513 -1.5448 -0.929695 -1.09023 -0.965692 -0.654826 0.246145 -0.102902 -0.478646 0.624858 -1.44091 -1.58706 -1.09614 -1.36415 -0.635899
internal_count=51200 50139 20289 1061 599 18261 462 2028 1392 182 417 217 149 200 5268 12993 998 636 394
shrinkage=0.01


Tree=18
num_leaves=20
num_cat=0
split_feature=37 33 6 31 28 7 6 22 6 7 34 19 37 5 14 17 31 34 30
split_gain=363.073 107.86 92.0327 51.8143 25.1387 19.4545 17.327 16.8887 14.8285 14.4089 13.4826 13.4787 16.4498 13.4848 13.306 11.2454 10.8102 10.3332 8.99451
threshold=164.50000000000003 25919.000000000004 0.88031500000000018 25546.700322457469 -0.46439000000000002 -0.18760499999999997 2.2251450000000008 -0.090889999999999985 2.5613550000000003 0.15131500000000001 308.50000000000006 0.049455000000000006 366.50000000000006 -0.83242999999999989 -0.207535 -0.51027499999999992 87292.953140000536 17.500000000000004 8558.006660794892
decision_type=10 10 2 10 2 2 2 2 2 2 8 2 10 2 2 2 10 10 10
left_child=1 -1 5 4 10 17 -5 8 9 16 -2 12 -6 -13 -7 -10 -4 -3 -19
right_child=3 2 7 6 11 14 -8 -9 15 -11 -12 13 -14 -15 -16 -17 -18 18 -20
leaf_value=-0.016784208727680616 -0.0084578135897410145 -0.016142290013249502 -0.0067293867147695833 -0.010202825182309107 -0.0047392004949360581 -0.015246011705680764 0.0060453134686717057 -0.013751268727058874 0.0046551798517901902 -0.015028396060501679 0.008590653580933404 -0.0043737111181088133 0.007151858889180171 0.008747352309097409 -0.01321177073828469 -0.007312396131489725 -0.011410439773543966 -0.012491286590574753 -0.015283296190444582
leaf_count=29850 161 8816 329 434 149 2803 28 569 35 256 21 39 68 161 2465 333 506 541 3636
internal_value=0 -1.60081 -1.4872 -0.415302 -0.0271844 -1.5328 -0.921162 -1.08065 -0.966102 -1.08398 -0.648546 0.243734 -0.101895 0.618737 -1.42932 -0.617101 -0.956307 -1.57491 -1.49209
internal_count=51200 50139 20289 1061 599 18261 462 2028 1459 1091 182 417 217 200 5268 368 835 12993 4177
shrinkage=0.01


Tree=19
num_leaves=20
num_cat=0
split_feature=37 33 6 31 28 7 6 7 6 7 34 19 37 0 5 34 31 2 29
split_gain=357.984 106.959 90.9706 50.8426 24.6481 19.275 17.0014 16.6558 14.4238 13.2406 13.2201 13.2137 16.1264 15.9291 13.2206 10.2312 10.0038 9.11678 9.68676
threshold=164.50000000000003 25919.000000000004 0.88031500000000018 25546.700322457469 -0.46439000000000002 -0.18760499999999997 2.2251450000000008 0.28044000000000002 2.2251450000000008 -0.081494999999999984 308.50000000000006 0.049455000000000006 366.50000000000006 -0.43340499999999998 -0.83242999999999989 17.500000000000004 94187.515694964983 -0.46715000000000001 0.28142500000000004
decision_type=10 10 2 10 2 2 2 2 2 2 8 2 10 2 2 10 10 2 2
left_child=1 -1 5 4 10 15 -5 8 16 -7 -2 12 13 -6 -13 -3 -4 18 -10
right_child=3 2 7 6 11 9 -8 -9 17 -11 -12 14 -14 -15 -16 -17 -18 -19 -20
leaf_value=-0.01666284622261089 -0.0083774386094095498 -0.016021927478361439 -0.0084350240153475507 -0.010110233843708525 -0.014807557971789943 -0.013315249272378458 0.0059843297715287663 -0.013420575962981351 0.003019724260336381 -0.015368368757108132 0.0085048607112954908 -0.0043302321335891795 0.0070832589238067787 -0.00045700051514214693 0.0086622933527659967 -0.014805188919996777 -0.012509287979351245 -0.0080372073279273721 -0.010437977587391558
leaf_count=29850 161 8816 425 434 44 3047 28 636 71 2221 21 39 68 105 161 4177 573 292 31
internal_value=0 -1.58888 -1.47563 -0.41137 -0.0269201 -1.52104 -0.912746 -1.0712 -0.948226 -1.41794 -0.642347 0.241346 -0.100892 -0.46921 0.612694 -1.56301 -1.07709 -0.622747 -0.10627
internal_count=51200 50139 20289 1061 599 18261 462 2028 1392 5268 182 417 217 149 200 12993 998 394 102
shrinkage=0.01


Tree=20
num_leaves=20
num_cat=0
split_feature=37 30 6 30 3 24 0 6 14 8 34 5 27 6 5 27 37 17 34
split_gain=369.579 105.813 94.9521 64.7931 30.4905 22.7248 19.2608 19.1475 14.5006 11.4939 11.2862 12.8475 11.638 11.0734 11.1398 18.6482 10.5929 9.78594 11.3952
threshold=148.50000000000003 1.0000000180025095e-35 0.88031500000000018 5202.263556618821 1.0000000180025095e-35 -0.50632999999999984 -0.12200499999999999 1.0000000180025095e-35 -0.11111 -0.44697999999999999 64.500000000000014 -0.83242999999999989 -0.099779999999999994 1.8889400000000005 0.24295000000000003 -0.54441499999999998 45.500000000000007 -0.42053999999999997 13.500000000000002
decision_type=10 10 2 10 2 2 2 2 2 2 8 2 2 2 2 2 10 2 10
left_child=1 -1 7 4 -2 -6 13 16 -9 -4 -7 -12 -13 14 -5 -16 -3 18 -11
right_child=3 2 9 6 5 10 -8 8 -10 17 11 12 -14 -15 15 -17 -18 -19 -20
leaf_value=-0.016630176594030942 0.0092382389605266124 -0.015831748064291721 -0.014537750848332722 -0.013498486160704745 -0.0068336144301752322 -0.010374047520870384 -0.0031535363311891917 -0.014954730863920049 -0.012864899840863432 -0.0099216592731526405 -0.0059303648849682016 0.0098550013009703324 0.00018585088719167461 -0.00024949037085022363 0.0090558833159407326 -0.010904929827804983 -0.014502783776750391 -0.010938730633786642 -0.002725426255193068
leaf_count=26621 109 12063 288 389 248 29 158 3766 2129 251 53 103 97 35 25 78 3097 1523 138
internal_value=0 -1.57537 -1.47564 -0.499837 -0.0415126 -0.240166 -0.930644 -1.51774 -1.41989 -1.07731 0.148686 0.284162 0.516503 -1.1157 -1.19377 -0.605623 -1.55595 -1.0209 -0.736003
internal_count=51200 49876 23255 1324 639 530 685 21055 5895 2200 282 253 200 527 492 103 15160 1912 389
shrinkage=0.01


Tree=21
num_leaves=20
num_cat=0
split_feature=37 32 6 30 3 24 6 0 14 34 5 27 6 7 26 6 5 27 37
split_gain=364.668 105.084 94.026 63.6005 29.8958 22.2817 19.035 18.9325 14.2992 11.0678 12.5936 11.411 11.0416 13.4698 11.6287 10.8828 10.9592 18.2928 10.5025
threshold=148.50000000000003 173554.50000000003 0.88031500000000018 5202.263556618821 1.0000000180025095e-35 -0.50632999999999984 1.0000000180025095e-35 -0.12200499999999999 -0.11111 64.500000000000014 -0.83242999999999989 -0.099779999999999994 2.2251450000000008 0.061135000000000009 -0.13430499999999998 1.8889400000000005 0.24295000000000003 -0.54441499999999998 45.500000000000007
decision_type=10 8 2 10 2 2 2 2 2 8 2 2 2 2 2 2 2 2 10
left_child=1 2 6 4 -2 -6 18 15 -8 -7 -11 -12 13 -4 -14 16 -5 -18 -1
right_child=3 -3 12 7 5 9 8 -9 -10 10 11 -13 14 -15 -16 -17 17 -19 -20
leaf_value=-0.015717016422000837 0.0091498320944435954 -0.016514358719863405 -0.010139338401881255 -0.013384632849519924 -0.0067679264214488876 -0.010278166336216463 -0.014839188840013545 -0.0031228401954042292 -0.012761399923315245 -0.0058719963702640069 0.0097589552910160738 0.00018399246954086968 -0.0063121383294351893 -0.014099601158749388 -0.011424270072602036 -0.00024700030029812668 0.0089583654560508839 -0.010808277409126743 -0.014392130354117776
leaf_count=12065 109 26623 894 389 248 29 3763 158 2129 53 103 97 395 576 334 35 25 78 3097
internal_value=0 -1.56396 -1.46445 -0.495186 -0.0411106 -0.237834 -1.50641 -0.922318 -1.40871 0.147229 0.281359 0.511406 -1.06771 -1.16848 -0.864882 -1.10599 -1.18348 -0.599978 -1.54456
internal_count=51200 49876 23253 1324 639 530 21054 685 5892 282 253 200 2199 1470 729 527 492 103 15162
shrinkage=0.01


Tree=22
num_leaves=20
num_cat=0
split_feature=37 30 6 30 3 28 6 0 18 14 8 6 37 34 17 34 26 14 14
split_gain=359.9 104.292 92.9668 62.4339 29.3137 19.2498 18.8433 18.6128 16.1226 14.1958 11.2908 10.6969 10.4143 9.63339 9.58281 11.2116 10.7259 10.2049 8.97355
threshold=148.50000000000003 1.0000000180025095e-35 0.88031500000000018 5202.263556618821 1.0000000180025095e-35 -0.22594999999999996 1.0000000180025095e-35 -0.12200499999999999 0.20033000000000004 -0.207535 -0.44697999999999999 1.8889400000000005 45.500000000000007 331.50000000000006 -0.42053999999999997 13.500000000000002 -0.17277499999999998 1.9223900000000003 -0.14193999999999998
decision_type=10 10 2 10 2 2 2 2 2 2 2 2 10 10 2 10 2 2 2
left_child=1 -1 6 4 -2 13 12 11 -7 -8 -4 -5 -3 -6 15 -12 -17 -16 -9
right_child=3 2 10 7 5 8 9 18 -10 -11 14 -13 -14 -15 17 16 -18 -19 -20
leaf_value=-0.016400842701433608 0.0090626130772489231 -0.015604523088988447 -0.014327872174318959 -0.011733614489930162 -0.0061592873684301113 0.0082022760965245797 -0.014908286154007465 -0.0072090697735001609 -0.0037333414098280012 -0.012911650236807995 -0.0097525064613208819 -0.0002445344998469256 -0.014283511098185264 0.0059020033521853046 -0.011258566772688546 -0.0051170153326418541 0.0099215693509077506 -0.0053539670705173804 0.0024838220038561902
leaf_count=26621 109 12063 288 492 317 102 3161 91 82 2734 251 35 3097 29 1393 115 23 130 67
internal_value=0 -1.55278 -1.45354 -0.490598 -0.0407134 -0.235529 -1.49535 -0.914112 0.288079 -1.39807 -1.05888 -1.09642 -1.53338 -0.514501 -1.00293 -0.720749 -0.260858 -1.07527 -0.309245
internal_count=51200 49876 23255 1324 639 530 21055 685 184 5895 2200 527 15160 346 1912 389 138 1523 158
shrinkage=0.01


Tree=23
num_leaves=20
num_cat=0
split_feature=37 32 6 30 3 24 0 6 14 8 34 5 27 5 27 6 37 37 2
split_gain=355.337 102.473 91.5165 62.6824 28.2113 21.8423 20.0594 18.6921 13.6013 11.7714 11.5467 12.2975 11.1246 10.1128 17.1673 11.4072 9.83445 9.76264 9.38503
threshold=145.50000000000003 173554.50000000003 0.88031500000000018 5202.263556618821 1.0000000180025095e-35 -0.50632999999999984 -0.070104999999999987 1.0000000180025095e-35 -0.207535 -0.44697999999999999 64.500000000000014 -0.83242999999999989 -0.099779999999999994 0.24295000000000003 -0.49957499999999994 1.8889400000000005 45.500000000000007 75.500000000000014 -0.46715000000000001
decision_type=10 8 2 10 2 2 2 2 2 2 8 2 2 2 2 2 10 10 2
left_child=1 2 7 4 -2 -6 13 16 -9 -4 -7 -12 -13 15 -15 -5 -1 -11 -19
right_child=3 -3 9 6 5 10 -8 8 -10 17 11 12 -14 14 -16 -17 -18 18 -20
leaf_value=-0.015494519125261702 0.0087337830692964923 -0.016290206908235638 -0.014340205166201108 -0.013101506068720591 -0.0067073391357377089 -0.010386310429808483 -0.0025095374314908882 -0.01479211936193312 -0.012833340793538163 -0.010510387926535745 -0.0057894863317203829 0.0096567271035813106 0.00020134050749297965 0.0057005435328243608 -0.010415462057939353 0.00014404989324761448 -0.014204473927328367 0.00018492410203172196 -0.0085604821885907154
leaf_count=12065 110 26623 286 420 253 30 148 3152 2730 1638 53 103 97 37 97 28 3069 67 194
internal_value=0 -1.54238 -1.44373 -0.505844 -0.0518242 -0.241752 -0.911774 -1.48524 -1.38812 -1.05045 0.140499 0.279524 0.506872 -1.08082 -0.595521 -1.22656 -1.5232 -0.99311 -0.631153
internal_count=51200 49824 23201 1376 646 536 730 21016 5882 2185 283 253 200 582 134 448 15134 1899 261
shrinkage=0.01


Tree=24
num_leaves=20
num_cat=0
split_feature=37 32 6 30 28 0 6 7 27 24 8 5 27 6 37 28 35 37 2
split_gain=350.87 101.845 90.6316 61.5436 27.6815 19.7232 18.5615 13.4897 12.1526 11.8745 11.6175 9.95275 16.847 11.2189 9.76255 9.64564 9.75596 9.60831 9.21556
threshold=145.50000000000003 173554.50000000003 0.88031500000000018 5202.263556618821 -0.38884999999999997 -0.070104999999999987 1.0000000180025095e-35 -0.081494999999999984 0.015795 -0.55756499999999998 -0.44697999999999999 0.24295000000000003 -0.49957499999999994 1.8889400000000005 45.500000000000007 1.6827250000000002 163.50000000000003 75.500000000000014 -0.46715000000000001
decision_type=10 8 2 10 2 2 2 2 2 2 2 2 2 2 10 2 10 10 2
left_child=1 2 6 4 -2 11 14 -8 9 -6 -4 13 -13 -5 -1 16 -10 -12 -19
right_child=3 -3 10 5 8 -7 7 -9 15 -11 17 12 -14 -15 -16 -17 -18 18 -20
leaf_value=-0.015386682968025502 -0.0049793733802236378 -0.016181870599404354 -0.014230717810682542 -0.012993809528364837 -0.0060529821404243997 -0.00248502076900825 -0.012943510369533897 -0.014915685696872629 -0.0076451312261561436 0.0084781694773876058 -0.010420883815682697 0.0056406099102092964 -0.010324072313237309 0.00014260795697780551 -0.014099616389397013 0.01154769210798706 0.0037605125105536897 0.00018307083652314296 -0.0084841614204029178
leaf_count=12065 300 26623 286 420 26 148 3391 2491 76 173 1638 37 97 28 3069 21 50 67 194
internal_value=0 -1.53165 -1.43318 -0.501199 -0.0513256 -0.903756 -1.47458 -1.37769 0.334886 0.657887 -1.04154 -1.07159 -0.590011 -1.21634 -1.51247 -0.102289 -0.312123 -0.98456 -0.625348
internal_count=51200 49824 23201 1376 646 730 21016 5882 346 199 2185 582 134 448 15134 147 126 1899 261
shrinkage=0.01


Tree=25
num_leaves=20
num_cat=0
split_feature=37 33 6 37 33 34 12 6 3 7 6 27 34 18 22 28 28 23 23
split_gain=292.858 92.7317 86.0361 45.7221 22.6605 18.3055 18.2704 17.8736 14.0594 13.2605 11.2075 10.1146 8.91869 11.951 8.69962 8.48639 8.3572 10.6869 9.92823
threshold=151.50000000000003 1.5000000000000002 0.88031500000000018 297.50000000000006 167881.00000000003 29.500000000000004 0.30340000000000006 0.20790500000000003 1.0000000180025095e-35 0.28044000000000002 0.20790500000000003 -0.48079499999999997 70.500000000000014 -0.35907999999999995 0.22377500000000003 -0.50444499999999992 -0.54686499999999982 0.20409500000000005 0.37014500000000006
decision_type=10 10 2 10 10 10 2 2 2 2 2 2 10 2 2 2 2 2 2
left_child=1 -1 5 6 15 10 11 12 -6 14 -3 16 -8 -14 -4 -5 -2 -18 -19
right_child=3 2 9 4 8 -7 7 -9 -10 -11 -12 -13 13 -15 -16 -17 17 18 -20
leaf_value=-0.016069652399247208 -0.013016866560801865 -0.015169731881844764 -0.008905635803629592 -0.0020700074743603895 0.0081275050832373807 -0.013346318529519284 -0.017820618072851548 0.0025686299310294465 -0.0061884878785235025 -0.012787987739228185 -0.013631210039242265 -0.011479908163085336 0.0077352346999318483 -0.0081359910155705678 -0.014464959978165855 0.010002531459346136 -0.013253534503387622 0.010618420548474436 -0.0039815576634119011
leaf_count=26725 59 15352 1345 30 34 3442 29 118 147 689 2255 407 23 117 126 106 43 22 131
internal_value=0 -1.52447 -1.43034 -0.544147 0.114631 -1.47048 -0.76609 -0.342464 -0.350173 -1.04606 -1.49716 -0.950471 -0.762891 -0.552983 -0.938051 0.733287 -0.636264 -0.436614 -0.188107
internal_count=51200 49934 23209 1266 317 21049 949 287 181 2160 17607 662 169 140 1471 136 255 196 153
shrinkage=0.01


Tree=26
num_leaves=20
num_cat=0
split_feature=37 30 6 31 28 6 34 37 33 8 7 34 6 7 5 0 11 14 30
split_gain=289.452 92.3375 85.2451 58.029 21.8801 18.3384 18.1405 13.6288 15.3215 13.21 12.421 11.4379 11.1365 10.0041 9.98425 9.54242 8.72761 9.12532 9.62286
threshold=151.50000000000003 1.0769230769230769 0.88031500000000018 25546.700322457469 -0.49340999999999996 1.8889400000000005 29.500000000000004 297.50000000000006 162546.50000000003 -0.39827499999999993 0.18001500000000001 309.50000000000006 0.20790500000000003 0.66034000000000015 -0.83242999999999989 0.059645000000000011 0.61846000000000012 0.19514500000000004 4983.6711229946532
decision_type=10 10 2 10 2 2 10 10 10 2 2 10 2 2 2 2 2 2 10
left_child=1 -1 6 4 11 15 12 14 -9 -4 -7 -2 -3 -11 -6 -5 -16 -18 -19
right_child=3 2 9 5 7 10 -8 8 -10 13 -12 -13 -14 -15 16 -17 17 18 -20
leaf_value=-0.015966128115143318 -0.0089475436530911771 -0.01506532428659667 -0.013600139501370258 -0.011732664925457097 -0.010501655031161723 0.0099823567192094901 -0.013247291204181527 0.010915674083224717 -0.00017797787616410498 -0.0089341734236958372 -0.010446424704184228 0.0067696826154495663 -0.013529287444444808 -0.01315878906132485 0.0033722093279177478 -0.0032454828735990851 -0.013042308326710281 0.0064637176424038722 -0.010146252312123431
leaf_count=26731 160 15347 422 512 45 30 3442 95 106 1464 20 21 2254 274 124 60 34 36 23
internal_value=0 -1.51415 -1.42007 -0.539133 -0.118221 -0.980345 -1.46013 0.112635 0.505555 -1.03729 0.18437 -0.710907 -1.48675 -0.959566 -0.188757 -1.08355 -0.0107922 -0.475403 0.000883018
internal_count=51200 49934 23203 1266 644 622 21043 463 201 2160 50 181 17601 1738 262 572 217 93 59
shrinkage=0.01


Tree=27
num_leaves=20
num_cat=0
split_feature=37 30 6 31 28 6 34 37 33 8 7 34 6 31 0 24 0 6 7
split_gain=286.073 91.9126 84.5081 56.9984 21.4613 18.0165 17.9965 13.3632 15.0361 13.0405 12.1765 11.2203 11.0623 9.93163 13.4209 9.87331 9.38914 9.27933 10.1229
threshold=151.50000000000003 1.0769230769230769 0.88031500000000018 25546.700322457469 -0.49340999999999996 1.8889400000000005 29.500000000000004 297.50000000000006 162546.50000000003 -0.39827499999999993 0.18001500000000001 309.50000000000006 0.20790500000000003 17193.038884197991 -0.018204999999999999 -0.17987499999999998 0.059645000000000011 0.20790500000000003 0.25570000000000004
decision_type=10 10 2 10 2 2 10 10 10 2 2 10 2 10 2 2 2 2 2
left_child=1 -1 6 4 11 16 12 13 -9 -4 -7 -2 -3 -6 17 -11 -5 -15 -19
right_child=3 2 9 5 7 10 -8 8 -10 15 -12 -13 -14 14 -16 -17 -18 18 -20
leaf_value=-0.015864738945632621 -0.0088657756088570995 -0.014963372324182647 -0.013497015633446191 -0.011634945757585103 -0.010921919594724397 0.0098797646269272923 -0.013149862978154039 0.01081624198705146 -0.00017619714215310513 -0.0080637892053984812 -0.010351227320569733 0.0067018472608244509 -0.013430342153909335 -0.0069622941674959207 0.0073782252068522415 -0.011120407977232179 -0.0032141494980623942 0.011061412802166014 -0.006630438045650543
leaf_count=26731 160 15347 422 512 41 30 3442 95 106 912 20 21 2254 102 66 826 60 30 23
internal_value=0 -1.50403 -1.41005 -0.534244 -0.117093 -0.971936 -1.45002 0.111547 0.500712 -1.02863 0.182557 -0.704337 -1.47658 -0.186924 -0.0184264 -0.951384 -1.07438 -0.341723 0.338971
internal_count=51200 49934 23203 1266 644 622 21043 463 201 2160 50 181 17601 262 221 1738 572 155 53
shrinkage=0.01


Tree=28
num_leaves=20
num_cat=0
split_feature=37 30 6 31 28 34 6 5 8 34 34 6 26 24 6 33 30 17 5
split_gain=282.794 91.524 83.8032 55.9911 21.0511 17.8603 17.7012 13.196 12.8768 12.4776 11.0071 10.9926 10.486 9.72783 9.14377 9.11177 8.52474 8.51612 7.64583
threshold=151.50000000000003 1.0769230769230769 0.88031500000000018 25546.700322457469 -0.49340999999999996 29.500000000000004 1.8889400000000005 -0.83242999999999989 -0.39827499999999993 158.50000000000003 309.50000000000006 0.20790500000000003 -0.019399999999999997 -0.17987499999999998 2.8975600000000004 171810.00000000003 8950.5810218978131 -0.15444499999999997 0.78064500000000014
decision_type=10 10 2 10 2 10 2 2 2 10 10 2 2 2 2 10 10 2 2
left_child=1 -1 5 4 10 11 -5 15 -4 18 -2 -3 -8 14 -10 -6 -7 -11 -9
right_child=3 2 8 6 7 16 12 9 13 17 -12 -13 -14 -15 -16 -17 -18 -19 -20
leaf_value=-0.015765518509677553 -0.0087850286970905002 -0.014863380108991398 -0.013395614985574827 -0.010653280914791605 0.0016057442185993282 -0.01094676077228334 0.0096086956966219515 0.0020295673639203634 -0.0090690384590632177 0.013838130578787491 0.0066348427157598942 -0.013333019474404018 -0.0090214913834687129 -0.011029321727162089 -0.0041737002427292532 -0.011531614505748196 -0.013545839683787949 0.0036249909112828298 -0.0062594724225671387
leaf_count=26731 160 15347 422 572 37 650 29 176 712 53 21 2254 21 826 200 50 2792 87 60
internal_value=0 -1.49412 -1.40021 -0.52941 -0.115976 -1.4401 -0.963645 0.110468 -1.02008 0.273335 -0.69785 -1.46661 0.180772 -0.943296 -0.799298 -0.594024 -1.3054 0.748417 -0.00782419
internal_count=51200 49934 23203 1266 644 21043 622 463 2160 376 181 17601 50 1738 912 87 3442 140 236
shrinkage=0.01


Tree=29
num_leaves=20
num_cat=0
split_feature=37 30 6 31 28 36 6 37 10 7 5 7 6 33 36 24 36 24 0
split_gain=279.63 91.1676 83.1246 55.0027 20.6494 17.7501 17.3926 13.0243 13.8847 12.8865 12.7763 11.8545 11.6832 11.2352 10.7984 10.67 9.9675 9.40175 9.26159
threshold=151.50000000000003 1.0769230769230769 0.88031500000000018 25546.700322457469 -0.49340999999999996 26.500000000000004 1.8889400000000005 387.50000000000006 0.46205500000000005 0.28044000000000002 -0.83242999999999989 0.18001500000000001 0.20790500000000003 179109.50000000003 309.50000000000006 -0.42887499999999995 69.500000000000014 -0.26612499999999994 0.059645000000000011
decision_type=10 10 2 10 2 10 2 10 2 2 2 2 2 10 10 2 10 2 2
left_child=1 -1 5 4 14 12 18 8 10 -4 15 -8 -3 -9 -2 -6 -12 -10 -5
right_child=3 2 9 6 7 -7 11 13 17 -11 16 -13 -14 -15 -16 -17 -18 -19 -20
leaf_value=-0.01566839615836808 -0.0087052796835609906 -0.014797302459671266 -0.0090497423731981195 -0.011450991974962018 0.002991842718957994 -0.013064049386765987 0.0097326553486236315 0.011635699261719755 -0.016453073077613647 -0.012421902126490587 -0.0091942457078871397 -0.010235812653263728 -0.013193124249189987 -0.0017888758929358551 0.0065686535578744565 -0.01668957414024964 0.0054150962576432881 -0.003112149279923258 -0.0030803274415696388
leaf_count=26731 160 14919 1471 512 20 3938 30 74 30 689 21 20 2186 38 21 25 182 73 60
internal_value=0 -1.48439 -1.39053 -0.524613 -0.114866 -1.43036 -0.955426 0.109394 -0.0804447 -1.01165 0.176746 0.178988 -1.45908 0.706095 -0.691442 -0.792008 0.390774 -0.699359 -1.05637
internal_count=51200 49934 23203 1266 644 21043 622 463 351 2160 248 50 17105 112 181 45 203 103 572
shrinkage=0.01


Tree=30
num_leaves=20
num_cat=0
split_feature=37 30 6 30 24 36 37 9 0 6 7 5 37 18 14 19 25 14 0
split_gain=310.627 95.0525 75.7875 42.0711 25.087 25.1138 19.7605 12.6679 12.5217 12.4786 18.1039 12.1457 11.885 14.5858 11.5298 11.3866 10.8084 10.7663 11.5972
threshold=164.50000000000003 1.0000000180025095e-35 0.88031500000000018 6351.305670913488 -0.55875499999999989 65.500000000000014 64.500000000000014 0.96202000000000021 -0.12200499999999999 2.2251450000000008 0.061135000000000009 -1.2356999999999998 245.50000000000003 -0.36844499999999997 -0.24488499999999999 0.53204000000000018 4.0738700000000003 -0.19092499999999998 -0.19985499999999998
decision_type=10 10 2 10 2 10 10 2 2 2 2 2 10 2 2 2 2 2 2
left_child=1 -1 6 4 17 -6 -3 -5 -8 10 -4 -7 13 14 -13 -11 -14 18 -2
right_child=3 2 9 7 5 11 8 -9 -10 15 -12 12 16 -15 -16 -17 -18 -19 -20
leaf_value=-0.015557824118272933 -0.0071682145216270124 -0.014389971045165728 -0.0094640099876388203 -0.012203907168216802 -0.011669639894307939 -0.010956975387059104 -0.01328810387464301 -0.0016947443515686125 -0.010037317344519417 -0.0086467356941349587 -0.014012886489253883 -0.0026308844545396941 0.0065375600464051917 -0.0051011103317818232 0.017105848855275437 0.0027018622044894607 -0.0077531063025999686 -0.017521790539338999 0.0080998543111000017
leaf_count=26567 153 18464 903 242 57 26 2212 58 642 702 606 22 287 115 26 38 23 34 23
internal_value=0 -1.47066 -1.37593 -0.371719 -0.123332 0.0997603 -1.41426 -1.01586 -1.25558 -1.02154 -1.12773 0.243564 0.316813 -0.121961 0.806861 -0.805744 0.547554 -0.715893 -0.515733
internal_count=51200 50134 23567 1066 766 556 21318 300 2854 2249 1509 499 473 163 48 740 310 210 176
shrinkage=0.01


Tree=31
num_leaves=20
num_cat=0
split_feature=37 30 7 30 24 34 37 1 8 9 5 37 10 25 14 30 37 37 27
split_gain=307.031 94.7398 56.3208 41.3283 24.6062 24.6398 23.6052 15.0574 15.0551 12.4649 11.911 11.6505 14.3961 10.5951 10.5751 9.92545 9.19447 8.38556 7.96866
threshold=164.50000000000003 1.0000000180025095e-35 -0.18760499999999997 6351.305670913488 -0.55875499999999989 65.500000000000014 62.500000000000007 1.0000000180025095e-35 -0.471335 0.96202000000000021 -1.2356999999999998 245.50000000000003 0.51645000000000019 4.0738700000000003 -0.19092499999999998 4752.2966641201938 192.50000000000003 69.500000000000014 -0.29594499999999996
decision_type=10 10 2 10 2 10 10 2 2 2 2 10 2 2 2 10 10 10 2
left_child=1 -1 17 4 14 -6 8 -8 -4 -5 -7 12 16 15 18 -13 -12 -3 -2
right_child=3 2 6 9 5 10 7 -9 -10 -11 11 13 -14 -15 -16 -17 -18 -19 -20
leaf_value=-0.015464748502816053 -0.0032905497335223998 -0.014581199338200731 -0.014718036189327653 -0.012105651733060692 -0.011568023950550415 -0.010856552777983123 -0.011985517104209411 -0.0078253523910186262 -0.012325533843012293 -0.0016781499892814372 0.011503025008711365 0.0081661553459804453 -0.012221531224553642 -0.0076760378014783517 -0.017370754389476606 -0.001761623875144318 -0.0010777447479883187 -0.013042737412287772 -0.015188945660104038
leaf_count=26567 149 13624 1399 242 57 26 742 711 5409 58 31 238 37 23 34 49 95 1682 27
internal_value=0 -1.4613 -1.36659 -0.368288 -0.122154 0.0987947 -1.23059 -0.994348 -1.28137 -1.00734 0.241182 0.313704 -0.120766 0.542176 -0.709254 0.647342 0.202377 -1.44106 -0.510885
internal_count=51200 50134 23567 1066 766 556 8261 1453 6808 300 499 473 163 310 210 287 126 15306 176
shrinkage=0.01


Tree=32
num_leaves=20
num_cat=0
split_feature=37 30 6 30 28 37 33 12 0 6 7 9 19 0 6 7 7 0 27
split_gain=303.512 94.4676 75.3032 40.6004 26.1942 19.486 17.8642 15.9609 12.3994 12.326 17.9325 12.2666 11.2054 11.1735 9.79039 10.1921 9.76678 8.38175 8.20231
threshold=164.50000000000003 1.0000000180025095e-35 0.88031500000000018 6351.305670913488 -0.45240499999999995 64.500000000000014 198379.00000000003 -0.28487499999999993 -0.12200499999999999 2.2251450000000008 0.061135000000000009 0.96202000000000021 0.53204000000000018 -0.56315499999999996 1.0000000180025095e-35 -0.081494999999999984 -0.16785499999999998 -0.25175499999999995 -0.44180499999999995
decision_type=10 10 2 10 2 10 10 2 2 2 2 2 2 2 2 2 2 2 2
left_child=1 -1 5 4 -2 14 13 -8 -7 10 -4 -5 17 -6 -3 -16 -9 -11 -15
right_child=3 2 9 11 6 8 7 16 -10 12 -12 -13 -14 18 15 -17 -18 -19 -20
leaf_value=-0.015373581350755941 -0.0062033807324774664 -0.014498746232150533 -0.0092857779137937493 -0.012008858885194831 -0.0088940422243539829 -0.013108976779300601 -0.010467318143466355 -0.0043431593659934969 -0.0098658441681889284 -0.010510289032481036 -0.013823760311346927 -0.0016617170450038627 0.002792391218409677 0.011517051880144021 -0.012644630649583358 -0.014512803152196259 0.0056384463130532293 -0.0060479405669602807 0.0037023251491800869
leaf_count=26567 274 13393 903 242 21 2212 71 74 642 382 606 58 38 82 2919 2152 85 320 159
internal_value=0 -1.45211 -1.3574 -0.364905 -0.120993 -1.39579 0.155684 -0.253283 -1.23779 -1.00348 -1.10928 -0.998934 -0.788665 0.51373 -1.42045 -1.34351 0.0999371 -0.847295 0.636148
internal_count=51200 50134 23567 1066 766 21318 492 230 2854 2249 1509 300 740 262 18464 5071 159 702 241
shrinkage=0.01


Tree=33
num_leaves=20
num_cat=0
split_feature=37 30 7 30 28 37 34 8 1 0 9 19 5 17 30 10 12 34 14
split_gain=300.103 94.2095 55.8059 39.8887 25.6892 23.3334 15.8005 14.9242 14.8594 13.7878 12.0729 11.8494 12.7343 9.17225 9.16733 8.3405 8.97435 8.30974 7.86969
threshold=164.50000000000003 1.0000000180025095e-35 -0.18760499999999997 6351.305670913488 -0.45240499999999995 62.500000000000007 66.500000000000014 -0.471335 1.0000000180025095e-35 -0.56315499999999996 0.96202000000000021 0.33169500000000007 -0.83242999999999989 0.18264500000000003 3000.7642381902865 0.46205500000000005 -0.41559999999999991 26.500000000000004 -0.10107999999999999
decision_type=10 10 2 10 2 10 10 2 2 2 2 2 2 2 10 2 2 10 2
left_child=1 -1 17 4 -2 7 -6 -4 18 -8 -5 12 13 -11 -14 16 -16 -3 -7
right_child=3 2 5 10 6 8 9 -9 -10 11 -12 -13 14 -15 15 -17 -18 -19 -20
leaf_value=-0.015284268453344341 -0.006145323799801726 -0.014457073806796956 -0.014536019116540606 -0.011913486690968023 -0.010283559164965908 -0.013392615691283721 -0.0081815360706095335 -0.012146141099978764 -0.0076654224060425371 -0.015793913711944427 -0.0016454440761052922 0.0097797694419281649 0.0098977793788735963 0.0022937172561401172 -0.0060130850725682583 -0.0035943434152533415 0.0078239816124735205 -0.013210538829010163 -0.0089919861611170993
leaf_count=26567 274 12518 1399 242 42 476 43 5409 711 26 58 100 68 20 24 81 88 2788 266
internal_value=0 -1.4431 -1.34838 -0.361548 -0.119838 -1.21267 0.154181 -1.26333 -0.977286 0.26374 -0.99064 0.377918 0.182328 -0.791992 0.353979 0.131254 0.485793 -1.42282 -1.18074
internal_count=51200 50134 23567 1066 766 8261 492 6808 1453 450 300 407 307 46 261 193 112 15306 742
shrinkage=0.01


Tree=34
num_leaves=20
num_cat=0
split_feature=37 30 6 30 28 37 33 12 0 6 9 19 0 6 28 0 8 17 23
split_gain=296.756 93.9953 74.8649 39.1907 25.1945 19.2922 17.3129 15.5239 12.2809 12.1798 11.9209 11.0301 10.7718 9.67345 9.58986 8.28348 7.66336 7.65785 7.3646
threshold=164.50000000000003 1.0000000180025095e-35 0.88031500000000018 6351.305670913488 -0.45240499999999995 64.500000000000014 198379.00000000003 -0.28487499999999993 -0.12200499999999999 2.2251450000000008 1.4086100000000001 0.53204000000000018 -0.56315499999999996 1.0000000180025095e-35 0.63302000000000003 -0.25175499999999995 -0.44697999999999999 -0.32614499999999991 0.022805000000000002
decision_type=10 10 2 10 2 10 10 2 2 2 2 2 2 2 2 2 2 2 2
left_child=1 -1 5 4 -2 13 12 -8 -7 16 -5 15 -6 -3 17 18 -4 -9 -11
right_child=3 2 9 10 6 8 7 14 -10 11 -12 -13 -14 -15 -16 -17 -18 -19 -20
leaf_value=-0.015196753694169523 -0.0060878871596182042 -0.014319600597837557 -0.014492905732990944 -0.011426300029702725 -0.0087218735261818097 -0.012932946178018174 -0.010333512021824198 0.0075468855668666679 -0.0096967401665948201 -0.012581552820250714 0.00041451976012595184 0.0028808002700293719 0.0062563466783447444 -0.013258827691268913 0.012148568020285497 -0.0058894528801649929 -0.010321556996644591 -0.0038551108025314507 -0.0067652102857733423
leaf_count=26567 274 13393 217 260 21 2212 71 31 642 235 40 38 241 5071 26 320 1292 102 147
internal_value=0 -1.43424 -1.33949 -0.358243 -0.118701 -1.37795 0.152706 -0.250054 -1.22028 -0.985899 -0.982457 -0.772008 0.505326 -1.40259 0.0982151 -0.830357 -1.09134 -0.119804 -1.03337
internal_count=51200 50134 23567 1066 766 21318 492 230 2854 2249 300 740 262 18464 159 702 1509 133 382
shrinkage=0.01


Tree=35
num_leaves=20
num_cat=0
split_feature=37 30 6 31 6 28 6 7 35 37 31 24 30 35 10 5 0 13 30
split_gain=280.636 100.544 76.467 41.4994 20.8782 19.4525 19.3164 14.6876 12.9592 12.642 11.9061 11.832 10.5158 10.2674 11.054 14.3178 8.44816 7.99655 7.7834
threshold=157.50000000000003 310.37268518518528 0.20790500000000003 24592.360836760716 2.2251450000000008 -0.44830499999999995 2.2251450000000008 0.015655000000000002 309.50000000000006 61.500000000000007 88002.592615408124 -0.34271499999999994 8771.6441814280206 73.500000000000014 1.7013600000000004 -0.96685499999999991 -0.25175499999999995 -0.13435499999999997 3755.4409171075845
decision_type=10 10 2 10 2 2 2 2 10 10 10 2 10 10 2 2 2 2 10
left_child=1 -1 9 5 16 8 7 10 -2 -3 -4 -8 -11 -7 15 -15 -5 -12 -17
right_child=3 2 6 4 -6 13 11 -9 -10 12 17 -13 -14 14 -16 18 -18 -19 -20
leaf_value=-0.015060565429594237 -0.0073415428471877214 -0.014106506071033973 -0.0085429689376203786 -0.010886749900057602 0.0054164423892265083 -0.011265304195572905 -0.0040732618178676719 -0.013026961558133349 0.0082991124618561271 -0.01008177042042745 -0.012109929720942596 -0.0096775723325169746 -0.013242206422750553 -0.0094504479917089188 -0.0060052981514145259 0.0088882377044769631 -0.005203548912385547 -0.0076557746218190847 0.0022948688129408134
leaf_count=29667 186 13307 905 385 42 22 244 1444 24 583 1302 432 1946 28 49 144 149 196 145
internal_value=0 -1.42807 -1.31635 -0.42833 -0.819026 -0.0592371 -1.08133 -1.13817 -0.553284 -1.38493 -1.03993 -0.764198 -1.25109 0.206832 0.286891 0.424172 -0.928783 -1.15264 0.557246
internal_count=51200 50026 20359 1174 576 598 4523 3847 210 15836 2403 676 2529 388 366 317 534 1498 289
shrinkage=0.01


Tree=36
num_leaves=20
num_cat=0
split_feature=37 30 6 31 6 28 7 34 7 34 31 1 34 10 37 23 37 0 6
split_gain=277.72 100.314 76.0763 40.7604 20.5408 19.0783 18.1259 12.7101 12.7044 10.9164 10.5305 12.5246 10.0704 10.8372 9.98653 15.0329 9.29991 9.07787 8.99749
threshold=157.50000000000003 310.37268518518528 0.88031500000000018 24592.360836760716 1.8889400000000005 -0.44830499999999995 -0.18760499999999997 309.50000000000006 -0.081494999999999984 71.500000000000014 39677.845252306586 1.0000000180025095e-35 73.500000000000014 1.7013600000000004 20.500000000000004 0.053290000000000004 61.500000000000007 -0.25175499999999995 5.5872149999999996
decision_type=10 10 2 10 2 2 2 10 2 10 10 2 10 2 10 2 10 2 2
left_child=1 -1 6 5 17 7 9 -2 16 -3 11 -11 -7 -14 -4 -16 -8 -5 -17
right_child=3 2 14 4 -6 12 8 -9 -10 10 -12 -13 13 -15 15 18 -18 -19 -20
leaf_value=-0.014976152905156442 -0.0072741801551009493 -0.014034776872892261 -0.011074956355422813 -0.01098505844085663 0.0042896141259788417 -0.011162838166781723 -0.012172830877813937 0.0082164269754478846 -0.013684361614224663 -0.010844482582269369 -0.013202265181784504 0.0016219209316581979 0.0042009689582437936 -0.0059455860878812961 -0.010498343000259829 -0.0065389294486016981 -0.0092465326103543053 -0.0050626229258453927 0.0043800744597664518
leaf_count=29667 186 12634 837 379 49 22 2500 24 2227 91 234 55 317 49 596 586 566 148 33
internal_value=0 -1.41952 -1.30776 -0.424466 -0.812048 -0.0586747 -1.35097 -0.548158 -1.24901 -1.39293 -1.04792 -0.61335 0.204842 0.284122 -0.935312 -0.817287 -1.1629 -0.930618 -0.595569
internal_count=51200 50026 20359 1174 576 598 18307 210 5293 13014 380 146 388 366 2052 1215 3066 527 619
shrinkage=0.01


Tree=37
num_leaves=20
num_cat=0
split_feature=37 30 6 31 6 6 28 7 27 18 36 7 36 6 31 1 37 25 28
split_gain=274.904 100.153 80.9117 40.0401 20.1765 18.8785 18.711 14.4173 12.5937 13.8392 12.4661 11.2297 11.2098 10.9849 10.4609 12.3232 10.2837 10.0022 11.0534
threshold=157.50000000000003 1.0000000180025095e-35 0.88031500000000018 24592.360836760716 1.8889400000000005 1.0000000180025095e-35 -0.44830499999999995 -0.081494999999999984 -0.48343999999999993 -0.36238999999999993 309.50000000000006 0.10151500000000001 71.500000000000014 4.5785950000000009 39677.845252306586 1.0000000180025095e-35 61.500000000000007 2.5429700000000004 1.4021800000000002
decision_type=10 10 2 10 2 2 2 2 2 2 10 2 10 2 10 2 10 2 2
left_child=1 -1 5 6 -5 12 10 16 -8 -10 -2 -4 -3 -13 15 -14 -7 18 -11
right_child=3 2 11 4 -6 7 8 -9 9 17 -12 13 14 -15 -16 -17 -18 -19 -20
leaf_value=-0.014998244868860462 -0.0072075690775595634 -0.014013801690589404 -0.0081461473739916808 -0.009228762160538766 0.0042462033850865491 -0.012176853679505802 0.0078179326749646481 -0.013740715973463642 -0.015534310306094203 0.00084062163327687251 0.0081348382731668018 -0.011930956340666548 -0.010765616630382916 -0.0058415995161959534 -0.013129173043645876 0.0016050751850957767 -0.0091253475321555373 -0.0092382315757053492 0.013938209803768404
leaf_count=26576 186 14845 1239 527 49 2888 109 2520 22 194 24 870 91 145 235 55 562 33 30
internal_value=0 -1.41113 -1.31248 -0.420624 -0.805165 -1.35304 -0.0581122 -1.25434 0.202836 -0.0234504 -0.54309 -0.944361 -1.39222 -1.10529 -1.04185 -0.608171 -1.16754 0.107425 0.259765
internal_count=51200 50026 23450 1174 576 21196 598 5970 388 279 210 2254 15226 1015 381 146 3450 257 224
shrinkage=0.01


Tree=38
num_leaves=20
num_cat=0
split_feature=37 30 6 30 34 6 7 0 33 6 37 0 24 30 30 14 37 10 34
split_gain=272.17 100.017 75.4172 36.3893 20.6563 18.9039 14.4523 13.8492 18.4034 12.6201 12.5895 11.7357 11.6037 10.3578 10.1187 8.98204 8.92946 14.6668 10.1968
threshold=157.50000000000003 310.37268518518528 0.20790500000000003 5202.263556618821 96.500000000000014 2.2251450000000008 0.015655000000000002 -0.56315499999999996 273225.00000000006 2.2251450000000008 61.500000000000007 -0.27770499999999992 -0.34271499999999994 8771.6441814280206 23445.883605072468 -0.23427499999999998 407.50000000000006 1.4614400000000003 190.50000000000003
decision_type=10 10 2 10 10 2 2 2 10 2 10 2 2 10 10 2 10 2 10
left_child=1 -1 10 4 15 6 14 -6 16 11 -3 -5 -7 -12 -4 -2 17 18 -9
right_child=3 2 5 9 7 12 -8 8 -10 -11 13 -13 -14 -15 -16 -17 -18 -19 -20
leaf_value=-0.014812567859152805 -0.01342407885876285 -0.013853602315437681 -0.0088149287969884506 -0.010766562193036075 -0.0048931221269428241 -0.0038834479264247285 -0.012772778488685304 0.0069895879354108957 -0.0059819273149539498 0.0041030535114834942 -0.0098325628788817031 -0.0042373315511122145 -0.0094458236886165396 -0.012983244644626366 -0.011492245334941668 -0.0025650224658886793 0.010659047456520767 -0.01336208195877283 -0.0049032431182193074
leaf_count=29667 64 13307 1197 363 120 244 1444 152 74 33 583 165 432 1946 1206 60 87 20 36
internal_value=0 -1.40288 -1.29093 -0.416814 -0.0797969 -1.0567 -1.11324 0.105739 0.298273 -0.793085 -1.35953 -0.870433 -0.742252 -1.22531 -1.01548 -0.815272 0.523048 0.297786 0.471716
internal_count=51200 50026 20359 1174 613 4523 3847 489 369 561 15836 528 676 2529 2403 124 295 208 188
shrinkage=0.01


Tree=39
num_leaves=20
num_cat=0
split_feature=38 30 6 31 6 6 34 28 7 5 10 34 7 6 31 1 38 24 34
split_gain=269.483 100.005 80.2282 38.6875 19.6025 18.7941 18.3235 15.019 14.3339 11.6353 14.1045 11.1199 11.0767 10.7981 10.3246 12.1568 10.1411 9.68724 9.65084
threshold=157.50000000000003 1.0000000180025095e-35 0.88031500000000018 24592.360836760716 1.8889400000000005 1.0000000180025095e-35 68.500000000000014 -0.49340999999999996 -0.081494999999999984 -0.83242999999999989 1.7013600000000004 71.500000000000014 0.10151500000000001 4.5785950000000009 39677.845252306586 1.0000000180025095e-35 61.500000000000007 -0.34621499999999994 309.50000000000006
decision_type=10 10 2 10 2 2 10 2 2 2 2 10 2 2 10 2 10 2 10
left_child=1 -1 5 6 -5 11 -2 18 16 -9 -11 -3 -4 -14 15 -13 -7 -15 -8
right_child=3 2 12 4 -6 8 7 9 -10 10 -12 14 13 17 -16 -17 -18 -19 -20
leaf_value=-0.014838603855399512 -0.013618907496407531 -0.013849225041487228 -0.0079953635863461332 -0.0090821097312210469 0.0042004498469312276 -0.012008823665516959 -0.007181566735368421 -0.004844167397313707 -0.013575403139964963 0.0054973215837609002 -0.0070762638686039641 -0.01061240650380769 -0.011762826913032619 0.0041960926306679096 -0.012962129585701478 0.0016953659453585377 -0.0089705845596564689 -0.00854738122843135 0.0077872028619698445
leaf_count=26576 41 14845 1239 527 49 2888 128 74 2520 294 41 91 870 32 235 55 562 113 20
internal_value=0 -1.39478 -1.29588 -0.413059 -0.791808 -1.33648 -0.0567484 0.038297 -1.23768 0.236237 0.395618 -1.37576 -0.928572 -1.08888 -1.02578 -0.594242 -1.15088 -0.571488 -0.512786
internal_count=51200 50026 23450 1174 576 21196 598 557 5970 409 335 15226 2254 1015 381 146 3450 145 148
shrinkage=0.01


Tree=40
num_leaves=20
num_cat=0
split_feature=37 30 6 30 37 0 6 34 9 28 8 6 7 37 8 19 6 19 10
split_gain=270.946 86.1739 73.3044 54.8801 23.3806 20.342 18.6299 17.2655 16.6775 14.1615 13.9739 12.6186 11.8567 11.5521 10.4938 10.4133 9.1599 8.82854 8.3376
threshold=140.50000000000003 1.0769230769230769 0.88031500000000018 6920.4803362781431 387.50000000000006 -0.43340499999999998 1.0000000180025095e-35 76.500000000000014 1.6201500000000002 -0.15514999999999998 -0.34957499999999991 2.2251450000000008 -0.081494999999999984 76.500000000000014 -0.30087499999999995 0.55823000000000012 0.88031500000000018 0.46263500000000007 -0.36761499999999997
decision_type=10 10 2 10 10 2 2 10 2 2 2 2 2 10 2 2 2 2 2
left_child=1 -1 6 4 5 11 -3 9 -5 -7 15 -2 18 17 -6 -4 -10 -12 -8
right_child=3 2 10 8 14 7 12 -9 16 -11 13 -13 -14 -15 -16 -17 -18 -19 -20
leaf_value=-0.014722674489024376 -0.0083953840483829822 -0.013746228014802821 -0.013037385875165347 -0.012195975379908642 -0.0046970822863237442 -0.011522559915513932 -0.014317269613409291 0.0015334198605161226 -0.0075517896158187282 0.0036983956266074796 -0.0097431604952609146 0.0067431592948718876 -0.013467204628050565 -0.0040088315618545109 0.0078176432926365912 -0.0037282939074857581 0.0099731857309594517 -0.0049774948806412898 -0.011185245579608528
leaf_count=26695 319 15064 517 404 35 91 422 339 28 35 1154 24 2467 219 120 56 22 189 3000
internal_value=0 -1.38998 -1.29685 -0.487641 -0.217272 -0.356077 -1.33526 -0.0814299 -1.07957 -0.72715 -0.935013 -0.731754 -1.23601 -0.835106 0.4983 -1.21134 0.0281881 -0.906669 -1.15693
internal_count=51200 49783 23088 1417 963 808 20953 465 454 126 2135 343 5889 1562 155 573 50 1343 3422
shrinkage=0.01


Tree=41
num_leaves=20
num_cat=0
split_feature=38 30 6 30 3 6 9 38 0 38 38 7 1 0 19 12 7 13 2
split_gain=268.441 86.1394 72.8964 54.0108 23.0178 18.5785 16.4268 16.2627 15.7249 13.2032 12.457 11.7761 10.5227 16.4691 9.6045 10.7147 9.86969 9.505 9.38234
threshold=140.50000000000003 1.0769230769230769 0.88031500000000018 6920.4803362781431 1.0000000180025095e-35 1.0000000180025095e-35 1.6201500000000002 428.50000000000006 -0.53720499999999982 226.50000000000003 75.500000000000014 -0.081494999999999984 1.0000000180025095e-35 0.11154500000000002 0.46263500000000007 3.2121100000000005 -0.03426499999999999 -0.11522999999999999 -0.46715000000000001
decision_type=10 10 2 10 2 2 2 10 2 10 10 2 2 2 2 2 2 2 2
left_child=1 -1 5 4 9 -3 -5 8 -6 -2 14 -7 13 17 15 -4 -17 -10 -12
right_child=3 2 10 6 7 11 -8 -9 12 -11 18 -13 -14 -15 -16 16 -18 -19 -20
leaf_value=-0.014646354202536268 -0.0031833750410316243 -0.013666889193950867 -0.011074036042230466 -0.012108508344424292 -0.0089905249842842198 -0.011490894649219912 0.00027909698229188666 0.0042833780329085873 -0.0090755143868168926 0.0095089824144394004 0.0011970583130462185 -0.013385783346480369 0.00040623554865178683 0.0082040093973565296 -0.0065961409710634704 -0.012473906413241014 -0.00014899459192063694 0.0041864564753778316 -0.0074032923144303235
leaf_count=26695 51 15064 1417 404 226 3422 50 96 189 97 69 2467 248 31 306 43 75 25 225
internal_value=0 -1.38215 -1.28888 -0.483379 -0.215245 -1.32729 -1.07153 -0.349055 -0.454257 0.516005 -0.927686 -1.22801 -0.252412 -0.55047 -0.99083 -1.05753 -0.463959 -0.751611 -0.537083
internal_count=51200 49783 23088 1417 963 20953 454 815 719 148 2135 5889 493 245 1841 1535 118 214 294
shrinkage=0.01


Tree=42
num_leaves=20
num_cat=0
split_feature=37 30 6 30 3 6 9 37 0 33 8 37 7 37 1 0 19 13 24
split_gain=266.008 86.1267 72.5084 53.1553 22.5746 18.5319 16.1869 15.9502 15.4546 15.3294 13.8504 12.9512 11.6995 11.2276 10.3247 16.1532 10.254 9.32993 9.18141
threshold=140.50000000000003 1.0769230769230769 0.88031500000000018 6920.4803362781431 1.0000000180025095e-35 1.0000000180025095e-35 1.6201500000000002 428.50000000000006 -0.53720499999999982 240477.50000000003 -0.34957499999999991 226.50000000000003 -0.081494999999999984 76.500000000000014 1.0000000180025095e-35 0.11154500000000002 0.55823000000000012 -0.11522999999999999 -0.029864999999999996
decision_type=10 10 2 10 2 2 2 10 2 8 2 10 2 10 2 2 2 2 2
left_child=1 -1 5 4 11 -3 -5 8 -6 -9 16 -2 -7 -12 15 17 -4 -10 -13
right_child=3 2 10 6 7 12 -8 9 14 -11 13 18 -14 -15 -16 -17 -18 -19 -20
leaf_value=-0.014571465334779841 -0.0031525284318322201 -0.013588828996684761 -0.012884543784760803 -0.012022257683886704 -0.0089141124336792419 -0.011413405074284674 0.00027629245613356687 0.008636734487944539 -0.0089949931098387663 -0.010477291398239677 -0.0089159990370452913 0.013883238414070735 -0.013305628841150987 -0.0039241973558880611 0.00040215961522569366 0.0081188923674195262 -0.0036350000792471581 0.0041431632598444759 0.00081244435939480455
leaf_count=26695 51 15064 517 404 226 3422 50 74 189 22 1343 64 2467 219 248 31 56 25 33
internal_value=0 -1.37444 -1.28101 -0.479152 -0.213236 -1.31943 -1.06355 -0.3458 -0.450045 0.424164 -0.920428 0.511154 -1.22012 -0.820824 -0.249984 -0.545399 -1.19635 -0.744814 0.942101
internal_count=51200 49783 23088 1417 963 20953 454 815 719 96 2135 148 5889 1562 493 245 573 214 97
shrinkage=0.01


Tree=43
num_leaves=20
num_cat=0
split_feature=37 30 6 30 37 0 6 34 9 28 8 33 6 7 37 19 27 3 6
split_gain=263.608 86.1319 72.1319 52.314 22.1775 19.3471 18.4894 16.761 15.9519 13.8799 13.6975 12.8742 12.1897 11.6262 11.0614 10.1287 9.26284 9.97764 8.97641
threshold=140.50000000000003 1.0769230769230769 0.88031500000000018 6920.4803362781431 387.50000000000006 -0.43340499999999998 1.0000000180025095e-35 76.500000000000014 1.6201500000000002 -0.15514999999999998 -0.34957499999999991 179109.50000000003 2.2251450000000008 -0.081494999999999984 76.500000000000014 0.55823000000000012 -0.099779999999999994 1.0000000180025095e-35 0.88031500000000018
decision_type=10 10 2 10 10 2 2 10 2 2 2 10 2 2 10 2 2 2 2
left_child=1 -1 6 4 5 12 -3 9 -5 -7 15 -6 -2 -8 -12 -4 17 -9 -10
right_child=3 2 10 8 11 7 13 16 18 -11 14 -13 -14 -15 -16 -17 -18 -19 -20
leaf_value=-0.0144979679002409 -0.0082014608362007118 -0.0135120104647864 -0.012799280519388223 -0.011937189498663785 0.0092408979305771393 -0.011381133299226251 -0.011336869918972066 0.012671934400392978 -0.0074929972534486878 0.0036960522168689794 -0.0088451532864647978 -0.0028391213398859948 0.0066855185327681825 -0.013226705125536959 -0.003888028125565682 -0.0036015508533131062 -0.0034021689513257557 0.0018182641328865249 0.0098551684909644662
leaf_count=26695 319 15064 517 404 99 91 3422 42 28 35 1343 56 24 2467 219 56 106 191 22
internal_value=0 -1.36686 -1.27327 -0.474991 -0.21126 -0.346614 -1.3117 -0.0788315 -1.05567 -0.716031 -0.913254 0.486229 -0.713858 -1.21233 -0.814154 -1.18812 0.152365 0.377615 0.0273517
internal_count=51200 49783 23088 1417 963 808 20953 465 454 126 2135 155 343 5889 1562 573 339 233 50
shrinkage=0.01


Tree=44
num_leaves=20
num_cat=0
split_feature=37 30 6 30 3 6 9 37 0 33 8 37 7 37 5 19 6 10 28
split_gain=261.253 86.155 71.7682 51.4937 21.8423 18.4507 15.7159 15.3048 14.997 14.8692 13.5486 12.6319 11.556 10.9619 10.1109 10.0063 8.79779 8.37772 7.72709
threshold=140.50000000000003 1.0769230769230769 0.88031500000000018 6920.4803362781431 1.0000000180025095e-35 1.0000000180025095e-35 1.6201500000000002 428.50000000000006 -0.53720499999999982 240477.50000000003 -0.34957499999999991 226.50000000000003 -0.081494999999999984 48.500000000000007 -0.96685499999999991 0.55823000000000012 0.88031500000000018 -0.36761499999999997 -1.0000000180025095e-35
decision_type=10 10 2 10 2 2 2 10 2 10 2 10 2 10 2 2 2 2 2
left_child=1 -1 5 4 11 -3 -5 8 -6 -9 15 18 17 -12 -10 -4 -8 -7 -2
right_child=3 2 10 6 7 12 16 9 14 -11 13 -13 -14 -15 -16 -17 -18 -19 -20
leaf_value=-0.014425824488081791 0.0034676166951292946 -0.013436400929932035 -0.012715267895671872 -0.01185327124692321 -0.008775742292168532 -0.014035987496957706 -0.0074301271339793354 0.0084830186561450013 -0.0087448538711766659 -0.010348174841824136 -0.0091463088501357905 0.0092973523742381162 -0.013148977644791929 -0.0053004231528980227 -0.0011149617656817706 -0.0035684049816593118 0.0097453162381685755 -0.010874008393332541 -0.012534896450443181
leaf_count=26695 30 15064 517 404 226 422 28 74 87 22 1131 97 2467 431 406 56 22 3000 21
internal_value=0 -1.3594 -1.26563 -0.470884 -0.209306 -1.30408 -1.04794 -0.339813 -0.442017 0.414897 -0.90616 0.503681 -1.20464 -0.807552 -0.244986 -1.18001 0.0270824 -1.12613 -0.312653
internal_count=51200 49783 23088 1417 963 20953 454 815 719 96 2135 148 5889 1562 493 573 50 3422 51
shrinkage=0.01


Tree=45
num_leaves=20
num_cat=0
split_feature=37 33 6 30 28 6 9 27 5 14 10 7 14 0 35 7 6 35 17
split_gain=272.675 90.4902 72.6583 41.6074 20.8208 16.7697 15.5968 15.1201 15.3786 13.1801 12.839 12.6881 14.9476 11.2523 10.9729 10.3318 10.265 9.46901 9.12229
threshold=140.50000000000003 2252890.5000000005 0.88031500000000018 6136.7088183421529 -0.45650499999999999 1.0000000180025095e-35 1.6201500000000002 1.0000000180025095e-35 -0.29473999999999995 -0.24697499999999997 -0.36761499999999997 0.28044000000000002 1.7313300000000003 0.085595000000000018 20.500000000000004 -0.06780499999999999 1.5527350000000004 27.500000000000004 -0.42053999999999997
decision_type=10 8 2 10 2 2 2 2 2 2 2 2 2 2 10 2 2 10 2
left_child=1 2 5 4 -2 17 13 8 9 -6 -7 14 -13 -5 -4 -12 -8 -1 -16
right_child=3 -3 11 6 7 10 16 -9 -10 -11 15 12 -14 -15 18 -17 -18 -19 -20
leaf_value=-0.013544683150226385 -0.0058129452954830633 -0.014355587823979825 -0.0090069071197507958 -0.010889974225724344 -0.01046229375734813 -0.013968220811863588 -0.0052988696400040267 -0.0034612226508452778 0.0076803082479602993 0.0026458127493163707 -0.010778876569458877 -0.012299133547911529 -0.0019150008494021526 -0.0012582086941686456 0.00017868679884414134 -0.012848647041650571 0.011436395885816346 -0.012115846066452838 -0.0067991297438827689
leaf_count=12550 308 26697 1041 478 44 1163 43 206 171 108 3082 617 65 57 103 1639 23 2482 323
internal_value=0 -1.3501 -1.25375 -0.448774 -0.160646 -1.29274 -0.865872 0.0810781 0.353253 -0.113519 -1.19773 -0.892966 -1.1285 -0.98453 -0.786031 -1.14919 0.0633789 -1.3306 -0.509814
internal_count=51200 49762 23065 1438 837 20916 601 529 323 152 5884 2149 682 535 1467 4721 66 15032 426
shrinkage=0.01


Tree=46
num_leaves=20
num_cat=0
split_feature=37 33 6 31 28 6 9 6 5 7 7 14 37 10 34 34 0 17 34
split_gain=270.367 90.5211 72.2989 37.125 20.0754 16.7436 15.9871 16.0137 14.4117 12.7652 12.557 14.7592 12.2429 14.5387 10.817 10.3916 10.1804 9.53244 9.44499
threshold=140.50000000000003 2252890.5000000005 0.88031500000000018 25546.700322457469 -0.48677999999999993 1.0000000180025095e-35 0.9855250000000001 1.0000000180025095e-35 -0.83242999999999989 -0.081494999999999984 0.28044000000000002 1.7313300000000003 366.50000000000006 0.46205500000000005 20.500000000000004 69.500000000000014 0.11154500000000002 -0.36750499999999992 27.500000000000004
decision_type=10 8 2 10 2 2 2 2 2 2 2 2 10 2 10 10 2 2 10
left_child=1 2 5 4 -2 18 16 -8 17 -7 14 -12 13 15 -4 -10 -5 -6 -1
right_child=3 -3 10 6 8 9 7 -9 12 -11 11 -13 -14 -15 -16 -17 -18 -19 -20
leaf_value=-0.013471837058499123 -0.0064895583643610477 -0.014286033952296669 -0.0089365400699817077 -0.0099279305951277333 0.0027664508861687258 -0.011061223407417121 -0.011713636748613802 0.0028944158502317435 -0.0076058875626831479 -0.013049014692280154 -0.012219014823480747 -0.0018967002173562125 0.0089780284214465989 -0.0058343211988693957 -0.0050528501773035896 0.0054802855684290943 0.0002975730459188136 -0.011076609880847521 -0.012041933559881857
leaf_count=12550 203 26697 1041 556 31 3374 46 100 29 2510 617 65 97 94 426 180 44 58 2482
internal_value=0 -1.34289 -1.24634 -0.44481 -0.110839 -1.28535 -0.766262 -0.162538 0.109124 -1.19025 -0.886076 -1.12081 0.272258 0.0735515 -0.779643 0.369598 -0.916542 -0.624665 -1.32328
internal_count=51200 49762 23065 1438 692 20916 746 146 489 5884 2149 682 400 303 1467 209 600 89 15032
shrinkage=0.01


Tree=47
num_leaves=20
num_cat=0
split_feature=38 33 6 31 34 9 6 20 10 7 34 7 34 13 6 3 28 0 38
split_gain=268.069 90.5714 71.9533 36.519 20.3929 16.9404 16.7217 14.1626 12.8018 12.4296 10.6653 10.2099 9.4231 9.13196 8.67101 8.33249 8.1432 7.57949 7.42007
threshold=140.50000000000003 2252890.5000000005 0.88031500000000018 27690.422295178334 66.500000000000014 1.4321100000000004 1.0000000180025095e-35 -0.22136499999999995 -0.36761499999999997 0.28044000000000002 20.500000000000004 -0.06780499999999999 27.500000000000004 -0.13435499999999997 1.0000000180025095e-35 1.0000000180025095e-35 -0.14394999999999997 -0.48530499999999993 592.50000000000011
decision_type=10 8 2 10 10 2 2 2 2 2 10 2 10 2 2 2 2 2 10
left_child=1 2 6 4 -2 15 12 13 -8 10 -4 -10 -1 18 -7 16 -5 -9 -6
right_child=3 -3 9 5 7 14 8 17 11 -11 -12 -13 -14 -15 -16 -17 -18 -19 -20
leaf_value=-0.013400126065269349 -0.010915064761555369 -0.014217729190316983 -0.0088669048209210847 0.0066044542059693501 -0.0039591335041627203 -0.0095634127033444975 -0.013825554823272662 -0.002725848319535843 -0.010631633575677037 -0.011132230976419964 -0.005007797868082876 -0.01269723578442067 -0.011968966646430577 0.0050198425410756852 0.0048559145142705032 -0.01004830930489131 -0.0091799359975186321 0.0061325019855122988 0.008629550471136907
leaf_count=12550 85 26697 1041 26 393 25 1163 52 3082 682 426 1639 2482 61 58 527 29 162 20
internal_value=0 -1.33578 -1.23904 -0.440921 -0.144942 -0.798162 -1.27807 -0.0308821 -1.18286 -0.879253 -0.773311 -1.13424 -1.31608 -0.226307 0.060128 -0.924285 -0.166095 0.399027 -0.334502
internal_count=51200 49762 23065 1438 773 665 20916 688 5884 2149 1467 4721 15032 474 83 582 55 214 413
shrinkage=0.01


Tree=48
num_leaves=20
num_cat=0
split_feature=37 33 7 30 8 28 0 9 27 7 27 34 37 34 30 14 30 10 7
split_gain=265.878 90.639 54.8551 40.1125 25.278 20.376 16.6397 12.6119 11.7272 11.2201 11.0563 11.0236 9.43509 9.12457 9.07693 8.75955 8.43613 7.97086 7.51849
threshold=140.50000000000003 2252890.5000000005 -0.18760499999999997 5202.263556618821 -0.39827499999999993 -0.38884999999999997 0.059645000000000011 0.9855250000000001 0.015795 -0.18760499999999997 -0.54441499999999998 20.500000000000004 68.500000000000014 103.50000000000001 5903.2798582995965 -0.054709999999999988 8950.5810218978131 0.67268500000000009 -0.16576999999999995
decision_type=10 8 2 10 2 2 2 2 2 2 2 10 10 10 10 2 10 2 2
left_child=1 2 12 5 -4 -2 7 10 13 -9 14 -6 -1 15 -5 -7 -14 -15 -8
right_child=3 -3 4 6 11 8 18 9 -10 -11 -12 -13 16 17 -16 -17 -18 -19 -20
leaf_value=-0.013272237628929687 -0.004455626813182437 -0.01415063825540303 -0.012614225916303207 0.005301395314771448 -0.010715014072789358 -0.012209121433999208 -0.0048234652112143566 -0.011270204988679297 -0.0016991116499834888 0.0008642702102184223 -0.011796964871791835 -0.0086312453001112718 -0.0086965089104885027 0.010379403663434936 -0.0078395292331027711 0.0066713381663806382 -0.012393828733950443 -0.00075306965505415131 0.0063075331331196791
leaf_count=13481 312 26697 2675 28 3809 20 57 49 143 92 416 1571 362 125 98 20 1167 33 45
internal_value=0 -1.32879 -1.23183 -0.437024 -1.0925 -0.0700517 -0.753875 -0.871168 0.269413 -0.328905 -1.01603 -1.01021 -1.309 0.587375 -0.482893 -0.273412 -1.15128 0.805025 0.0124106
internal_count=51200 49762 23065 1438 8055 653 785 683 341 141 542 5380 15010 198 126 40 1529 158 102
shrinkage=0.01


Tree=49
num_leaves=20
num_cat=0
split_feature=37 33 6 30 28 6 27 5 0 14 7 7 14 8 37 6 35 26 30
split_gain=263.682 90.7421 71.838 39.512 19.604 16.583 14.5249 14.865 14.0204 12.7416 12.687 12.3436 14.672 10.7635 10.5221 9.47892 9.43455 8.84774 8.52189
threshold=140.50000000000003 2252890.5000000005 0.88031500000000018 6136.7088183421529 -0.45650499999999999 1.0000000180025095e-35 1.0000000180025095e-35 -0.29473999999999995 0.085595000000000018 -0.24697499999999997 -0.081494999999999984 0.28044000000000002 1.7313300000000003 1.1115050000000002 48.500000000000007 1.0000000180025095e-35 27.500000000000004 -0.083909999999999985 4304.0245535714294
decision_type=10 8 2 10 2 2 2 2 2 2 2 2 2 2 10 2 10 2 10
left_child=1 2 5 4 -2 16 7 9 13 -6 -7 14 -13 -5 -4 -15 -1 -11 -8
right_child=3 -3 11 8 6 10 18 -9 -10 17 -12 12 -14 15 -16 -17 -18 -19 -20
leaf_value=-0.013260616206294292 -0.0056163121319630447 -0.014084730462797379 -0.008615626371582679 -0.010840190126173788 -0.010288953429927276 -0.010845345520468935 0.00033344756595615879 0.0075729394325403281 0.00053683450672909112 0.0055407329526886186 -0.012838593910042655 -0.011998497197915384 -0.0016759505619759303 -0.012099713825693914 -0.0046117954166772033 0.0020912411974005765 -0.011822531603184252 -0.0087757475133838081 -0.0079246252096075304
leaf_count=12550 308 26697 1095 450 44 3374 113 171 65 86 2510 617 65 31 372 55 2482 22 93
internal_value=0 -1.32189 -1.2247 -0.433207 -0.152548 -1.26394 0.0820753 0.349113 -0.841815 -0.110238 -1.16879 -0.864349 -1.09833 -0.953414 -0.758609 -0.292776 -1.30198 0.261584 -0.336965
internal_count=51200 49762 23065 1438 837 20916 529 323 601 152 5884 2149 682 536 1467 86 15032 108 206
shrinkage=0.01


Tree=50
num_leaves=20
num_cat=0
split_feature=37 30 6 31 28 37 30 1 14 10 6 7 6 6 34 14 19 37 10
split_gain=267.523 91.6624 57.7503 31.2855 21.8001 17.0147 13.8848 12.6762 12.319 12.0229 11.7665 12.3841 10.8195 10.481 9.73075 9.60092 10.198 9.40837 9.04871
threshold=164.50000000000003 1.0000000180025095e-35 0.88031500000000018 25546.700322457469 -0.43947499999999995 50.500000000000007 8950.5810218978131 1.0000000180025095e-35 -0.22634499999999999 0.46205500000000005 2.2251450000000008 0.061135000000000009 1.0000000180025095e-35 2.5613550000000003 308.50000000000006 3.6730800000000001 0.53369500000000014 369.50000000000006 -0.31116999999999995
decision_type=10 10 2 10 2 10 10 2 2 2 2 2 2 2 8 2 2 10 2
left_child=1 -1 5 4 14 8 7 -7 -3 -6 11 -4 -10 -5 -2 16 -12 -11 -18
right_child=3 2 10 13 9 6 -8 -9 12 17 15 -13 -14 -15 -16 -17 18 -19 -20
leaf_value=-0.014026404064131382 -0.0065713401513900118 -0.013325206431276245 -0.0085143862882391588 -0.0076682561399451388 0.0053926694816268973 -0.011196649204766054 -0.011958919758033575 -0.0060791461239440249 -0.012738824956738748 -0.0053171952609082128 -0.0079402707812583819 -0.012368358592995381 -0.010968929727515602 0.0068355961797084731 0.0075112997207853992 0.0064630545544902317 -0.0062514557706895438 0.0058948591313244224 0.012341726086708393
leaf_count=26602 197 9960 878 445 257 496 3233 382 4901 99 672 619 2306 21 22 22 24 44 20
internal_value=0 -1.31466 -1.2183 -0.293818 0.000315739 -1.25364 -1.13102 -0.895792 -1.28353 0.279032 -0.901594 -1.00801 -1.21616 -0.698315 -0.513429 -0.68812 -0.729875 -0.189053 0.22157
internal_count=51200 50115 23513 1085 619 21278 4111 878 17167 400 2235 1497 7207 466 219 738 716 143 44
shrinkage=0.01


Tree=51
num_leaves=20
num_cat=0
split_feature=37 30 6 31 28 37 30 12 10 6 7 6 34 14 19 6 37 28 30
split_gain=265.13 91.8006 57.5585 30.7266 21.3804 16.9688 13.7785 12.422 11.7866 11.6242 12.2791 10.29 9.54445 9.42879 10.0279 9.26834 9.22513 9.0375 9.07545
threshold=164.50000000000003 1.0000000180025095e-35 0.88031500000000018 25546.700322457469 -0.43947499999999995 50.500000000000007 8950.5810218978131 -0.02342 0.46205500000000005 2.2251450000000008 0.061135000000000009 2.5613550000000003 308.50000000000006 3.6730800000000001 0.53369500000000014 0.20790500000000003 369.50000000000006 -0.22594999999999996 4983.6711229946532
decision_type=10 10 2 10 2 10 10 2 2 2 2 2 8 2 2 2 10 2 10
left_child=1 -1 5 4 12 7 -7 -3 17 10 -4 -5 -2 14 -11 -9 -10 -6 -19
right_child=3 2 9 11 8 6 -8 15 16 13 -12 -13 -14 -15 -16 -17 -18 18 -20
leaf_value=-0.013962796208711081 -0.0065117264064864146 -0.01310844653343214 -0.0084476568974426857 -0.0076043844346682845 0.00091589487811800138 -0.0088942833192984256 -0.011888503225999811 -0.012232622597763546 -0.0052654463275387461 -0.0078771342934406217 -0.012291260027543355 0.0067669816857265563 0.0074357577296944666 0.0063895383537741967 0.0021926189044086022 -0.0096193486965208928 0.0058400901179409079 0.011431033434770669 -5.5987904557485147e-05
leaf_count=26602 197 12741 878 445 108 878 3233 3690 99 672 619 21 22 22 44 736 44 112 37
internal_value=0 -1.30796 -1.21135 -0.291162 0.0003121 -1.24674 -1.12407 -1.27667 0.27633 -0.89481 -1.00076 -0.692443 -0.50872 -0.682476 -0.723961 -1.17883 -0.187238 0.534019 0.856125
internal_count=51200 50115 23513 1085 619 21278 4111 17167 400 2235 1497 466 219 738 716 4426 143 257 149
shrinkage=0.01


Tree=52
num_leaves=20
num_cat=0
split_feature=37 30 6 33 28 37 30 37 1 12 8 5 34 17 6 6 2 23 24
split_gain=262.76 91.9569 57.3718 29.9672 19.4961 16.9262 13.677 13.4584 12.5787 12.3637 11.6203 10.3798 9.99592 9.54935 9.22243 8.36292 8.1877 10.4069 8.09545
threshold=164.50000000000003 1.0000000180025095e-35 0.88031500000000018 347820.50000000006 -0.44830499999999995 50.500000000000007 8950.5810218978131 294.50000000000006 1.0000000180025095e-35 -0.02342 -0.44697999999999999 -0.96685499999999991 18.500000000000004 -0.42053999999999997 0.20790500000000003 5.5872149999999996 -0.64474999999999993 -0.008114999999999999 -0.24116999999999997
decision_type=10 10 2 10 2 10 10 10 2 2 2 2 10 2 2 2 2 2 2
left_child=1 -1 5 4 -2 9 8 11 -7 -3 -4 -6 -12 -14 -11 -15 -9 -18 -10
right_child=3 2 10 -5 7 6 -8 16 18 14 12 -13 13 15 -16 -17 17 -19 -20
leaf_value=-0.013900284622772046 -0.0053127110520246029 -0.013040890206789467 -0.012765679185431707 -0.0079041339019561892 -0.01375660692011655 -0.011069785804583229 -0.011818952469245032 0.013402341475993536 -0.0037095717460074568 -0.012165380471382116 -0.009423911284386275 0.00017960016932756464 -0.00096544388277214897 -0.008137846500205376 -0.0095540916879704226 0.0012169564729348559 -0.0026446213919667848 0.0085067610005394034 -0.010162404641537061
leaf_count=26602 244 12741 299 346 24 496 3233 46 249 3690 1244 287 116 532 736 44 61 77 133
internal_value=0 -1.30136 -1.20449 -0.28855 -0.0610183 -1.23993 -1.11718 0.168584 -0.883104 -1.2699 -0.888097 -0.0878552 -0.830057 -0.631608 -1.17209 -0.741724 0.601143 0.355823 -0.59578
internal_count=51200 50115 23513 1085 739 21278 4111 495 878 17167 2235 311 1936 692 4426 576 184 138 382
shrinkage=0.01


Tree=53
num_leaves=20
num_cat=0
split_feature=37 30 6 31 28 37 30 1 12 10 6 7 6 34 14 19 6 25 30
split_gain=260.492 92.1266 57.1941 29.7013 20.5893 16.8851 13.5762 12.4411 12.3084 11.5169 11.4879 12.1837 10.1037 9.36271 9.27388 9.85489 9.17811 9.04915 12.6306
threshold=164.50000000000003 1.0000000180025095e-35 0.88031500000000018 25546.700322457469 -0.43947499999999995 50.500000000000007 8950.5810218978131 1.0000000180025095e-35 -0.02342 0.46205500000000005 2.2251450000000008 0.061135000000000009 2.5613550000000003 308.50000000000006 3.6730800000000001 0.53369500000000014 0.20790500000000003 2.0326700000000004 3755.4409171075845
decision_type=10 10 2 10 2 10 10 2 2 2 2 2 2 8 2 2 2 2 10
left_child=1 -1 5 4 13 8 7 -7 -3 -6 11 -4 -5 -2 15 -12 -10 18 -11
right_child=3 2 10 12 9 6 -8 -9 16 17 14 -13 -14 -15 -16 -17 -18 -19 -20
leaf_value=-0.013838839178198194 -0.0064064635503660438 -0.012974310803890965 -0.0083149038129212184 -0.0074879463266321715 0.0052644431233485325 -0.011000370634190553 -0.011750244857036365 -0.0059095408619559298 -0.012098983515023339 0.0075908705239581663 -0.0077472395508411708 -0.012154982923562997 0.0067541231070874378 0.0074098860505766107 0.0064070768139496024 0.0022415168634549033 -0.0094894558713491343 -0.011486896096058885 -0.0059454667106545525
leaf_count=26602 197 12741 878 445 257 496 3233 382 3690 56 672 619 21 22 22 44 736 31 56
internal_value=0 -1.29486 -1.19771 -0.285924 0.000650021 -1.23321 -1.11038 -0.876859 -1.26323 0.271571 -0.881445 -0.987117 -0.681209 -0.499334 -0.669978 -0.711284 -1.16544 -0.186796 0.0802537
internal_count=51200 50115 23513 1085 619 21278 4111 878 17167 400 2235 1497 466 219 738 716 4426 143 112
shrinkage=0.01


Tree=54
num_leaves=20
num_cat=0
split_feature=39 30 6 31 28 39 30 1 12 8 10 6 34 17 34 6 25 30 28
split_gain=258.229 92.3089 57.0201 29.1714 20.1938 16.8466 13.4779 12.3062 12.2561 11.5249 11.2908 9.91983 9.89464 9.37731 9.18371 9.1353 8.87397 12.3865 8.85701
threshold=164.50000000000003 1.0000000180025095e-35 0.88031500000000018 25546.700322457469 -0.43947499999999995 50.500000000000007 8950.5810218978131 1.0000000180025095e-35 -0.02342 -0.44697999999999999 0.46205500000000005 2.5613550000000003 18.500000000000004 -0.42053999999999997 308.50000000000006 0.20790500000000003 2.0326700000000004 3755.4409171075845 -0.22594999999999996
decision_type=10 10 2 10 2 10 10 2 2 2 2 2 10 2 8 2 2 10 2
left_child=1 -1 5 4 14 8 7 -7 -3 -4 18 -5 -11 -14 -2 -10 17 -12 -6
right_child=3 2 9 11 10 6 -8 -9 15 12 16 -13 13 -15 -16 -17 -18 -19 -20
leaf_value=-0.013778434089037696 -0.0063485546989035194 -0.012908682986376669 -0.012632553677609484 -0.0074258476656340324 0.00083371197739589415 -0.010931721149214382 -0.011682358079486347 -0.0058616579910614128 -0.012033408332846236 -0.0092910313605089109 0.0075202686746119957 0.006686511608546432 -0.00088637519837124479 -0.0072869086144852829 0.0073356402984620182 -0.0094254262888060301 -0.011378268273972434 -0.0058882730734558329 0.0084063696604059351
leaf_count=26602 197 12741 299 445 108 496 3233 382 3690 1244 56 21 116 576 22 736 31 56 149
internal_value=0 -1.28845 -1.19102 -0.283352 0.000643206 -1.22658 -1.10366 -0.870671 -1.25665 -0.874866 0.268959 -0.675505 -0.816999 -0.61923 -0.49477 -1.15886 -0.185028 0.079495 0.521335
internal_count=51200 50115 23513 1085 619 21278 4111 878 17167 2235 400 466 1936 692 219 4426 143 112 257
shrinkage=0.01


Tree=55
num_leaves=20
num_cat=0
split_feature=37 37 6 30 0 34 6 7 16 9 25 34 37 0 12 30 6 0 2
split_gain=247.279 96.7876 62.4569 34.7836 20.3946 17.6223 16.3165 16.2306 14.265 12.8989 12.3227 11.3964 10.8742 11.0153 10.0876 9.88077 9.87032 9.42201 9.02268
threshold=151.50000000000003 1.0000000180025095e-35 0.20790500000000003 4518.1030000000001 -0.044154999999999993 48.500000000000007 2.2251450000000008 1.0000000180025095e-35 -0.38892499999999991 0.75048000000000015 4.0738700000000003 284.50000000000006 38.500000000000007 0.033695000000000003 2.3296950000000005 2.8603896103896109 0.20790500000000003 0.033695000000000003 -0.28955499999999995
decision_type=10 10 2 10 2 10 2 2 2 2 2 10 10 2 2 10 2 2 2
left_child=1 15 12 5 9 -2 7 14 11 -5 -10 -7 -3 -14 -4 -1 -11 -8 -19
right_child=3 2 6 4 -6 8 17 -9 10 16 -12 -13 13 -15 -16 -17 -18 18 -20
leaf_value=-0.013724745153469642 -0.012551016508806519 -0.012671953364470643 -0.0092448064884512182 -0.0098531267897619297 0.00051200607939740452 -0.0070609597290888261 -0.0075989395161463113 -0.011717024480436211 0.0050471515792806657 -0.0080720760047783818 -0.0086969232108898512 0.0078355673185505938 -0.01189055286113673 -0.009132104523988039 -0.0044129881504851943 -0.01256585672473633 0.0019900396422752355 0.0031469067100906873 -0.0076493481355863783
leaf_count=26714 40 10248 1969 458 142 106 496 1382 300 84 29 26 3982 809 213 3987 79 78 58
internal_value=0 -1.27968 -1.16055 -0.362466 -0.642026 0.0489966 -0.933236 -0.990061 0.159455 -0.805418 0.383028 -0.406274 -1.227 -1.14245 -0.876842 -1.35703 -0.313335 -0.626245 -0.143676
internal_count=51200 49936 19235 1264 763 501 4196 3564 461 621 329 132 15039 4791 2182 30701 163 632 136
shrinkage=0.01


Tree=56
num_leaves=20
num_cat=0
split_feature=37 32 6 37 0 3 8 6 37 6 33 7 12 6 30 0 30 29 2
