tree
version=v2
num_class=1
num_tree_per_iteration=1
label_index=0
max_feature_idx=39
objective=binary sigmoid:1
feature_names=Column_0 Column_1 Column_2 Column_3 Column_4 Column_5 Column_6 Column_7 Column_8 Column_9 Column_10 Column_11 Column_12 Column_13 Column_14 Column_15 Column_16 Column_17 Column_18 Column_19 Column_20 Column_21 Column_22 Column_23 Column_24 Column_25 Column_26 Column_27 Column_28 Column_29 Column_30 Column_31 Column_32 Column_33 Column_34 Column_35 Column_36 Column_37 Column_38 Column_39
feature_infos=[-1.9255400000000005:54.126759999999997] [-0.90688999999999997:1.10266] [-1.26634:2.1080099999999997] [-3.4578500000000001:0.28920000000000001] [-0.68453999999999993:1.4608299999999999] [-1.8406:7.70343] [-81.658500000000004:71.651890000000023] [-10.74577:66.949190000000002] [-2.62642:51.31176] [-2.15232:48.73489] [-10.70912:111.07871999999999] [-1.9531400000000001:39.428959999999996] [-1.18363:34.243790000000004] [-1.109:32.796840000000003] [-5.6659600000000001:177.90548000000001] [-1.4685600000000001:132.99035000000001] [-0.99763999999999997:27.003640000000001] [-2.3922400000000001:49.408000000000001] [-1.8708:63.813749999999999] [-49.951599999999999:0.57851000000000008] [-0.6845:43.276870000000002] [-0.77954000000000001:92.989580000000004] [-0.79864000000000002:45.94538] [-66.324819999999988:0.47620000000000001] [-0.55916999999999994:12.483969999999999] [-0.77398:35.967599999999997] [-0.50890000000000002:30.754729999999999] [-3.9691300000000003:14.714839999999999] [-0.85997000000000012:28.50262] [-1.1321299999999999:57.833530000000003] [0:2523726] [0:1618860.8714501997] [0:2523726] [0:2644602] [1:2280] [1:2280] [1:2280] [1:3792] [1:3792] [1:3792]
tree_sizes=1671 1683 1679 1691 1693 1701 1701 1703 1705 1707 1697 1703 1701 1688 1695 1698 1694 1699 1697 1703 1683 1685 1702 1692 1689 1709 1696 1695 1703 1697 1686 1695 1690 1702 1697 1699 1709 1701 1705 1708 1703 1703 1697 1694 1715 1706 1706 1709 1693 1715 1693 1707 1691 1711 1698 1708 1708 1704 1703 1706 1701 1696 1705 1685 1684 1698 1700 1706 1702 1703 1686 1693 1688 1704 1710 1713 1705 1693 1711 1690 1706 1710 1708 1702 1709 1701 1698 1705 1709 1696 1711 1712 1713 1707 1719 1710 1710 1697 1720 1721 1701 1698 1702 1711 1712 1712 1714 1720 1713 1719 1717 1702 1697 1702 1708 1704 1696 1703 1686 1724 1715 1711 1699 1719 1698 1707 1713 1711 1720 1726 1705 1709 1708 1732 1712 1713 1719 1704 1720 1707 1702 1716 1719 1717 1694 1731 1721 1727 1729 1731 1730 1735 1727 1738 1734 1715 1715 1698 1717 1721 1712 1717 1730 1718 1728 1715 1714 1713 1705 1708 1719 1701 1718 1701 1717 1716 1680 1701 1706 1713 1713 1709 1708 1715 1730 1724 1728 1714 1718 1714 1709 1704 1718 1702 1708 1718 1715 1716 1717 1721 1700 1695 1694 1686 1714 1702 1727 1708 1717 1714 1726 1718 1726 1716 1714 1725 1727 1716 1724 1721 1733 1731 1738 1736 1735 1723 1717 1721 1733 1727 1698 1720 1709 1710 1716 1721 1724 1725 1714 1705 1709 1706 1704 1720 1720 1729 1719 1715 1729 1710 1718 1711 1715 1704 1712 1710 1704 1710 1712 1708 1725 1704 1718 1719 1723 1721 1724 1724 1721 1697 1716 1719 1716 1704 1721 1714 1724 1712 1709 1708 1730 1737 1722 1723 1712 1724 1711 1697 1709 1700 1719 1724 1723 1720 1722 1712 1708 1710 1694 1720 1719 1727 1720 1728 1707 1711 1700 1719 1721 1728 1704 1721 1721 1720 1718 1714 1712 1716 1699 1708 1703 1723 1713 1720 1698 1714 1724 1718 1719 1721 1732 1724 1718 1725 1722 1723 1705 1689 1719 1708 1683 1707 1689 1683 1702 1715 1713 1698 1706 1721 1716 1700 1716 1724 1723 1711 1712 1709 1709 1708 1701 1703 1708 1728 1707 1711 1710 1710 1686 1710 1712 1706 1714 1711 1710 1713 1698 1698 1708 1725 1699 1702 1704 1705 1702 1696 1723 1714 1728 1719 1698 1701 1667 1705 1722 1679 1677 1687 1704 1698 1703 1706 1707 1709 1713 1688 1678 1690 1680 1698 1723 1711 1708 1717 1725 1695 1721 1730 1718 1729 1710 1700 1692 1707 1697 1707 1696 1694 1717 1714 1692 1724 1706 1720 1702 1693 1699 1698 1703 1691 1690 1680 1697 1705 1712 1697 1700 1688 1709 1697 1691 1695 1688 1715 1735 1695 1700 1727 1687 1709 1693 1703 1698 1679 1691 1690 1689 1687 1701 1699 1722 1681 1677 1693 1694 1705 1692 1703 1694 1713 1675 1715 1667 1700 1706 1695 1683 1680 1694 1662 1694 1685 1668 1669 1677 1699 1699 1687 1681 1710 1698 1710 1683 1709 1697 1686 1675 1687 1695 1692 1692 1687 1696 1701 1696 1703 1704 1687 1682 1702 1718 1683 1680 1707 1694 1700 1706 1692 1705 1700 1706 1711 1699 1691 1695 1695 1695 1701 1694 1693 1688 1691

Tree=0
num_leaves=20
num_cat=0
split_feature=37 6 33 31 31 28 7 37 34 5 34 12 12 0 6 6 34 0 30
split_gain=506.873 127.876 71.5279 63.6443 53.6498 34.7813 23.3601 20.0083 18.44 16.5987 15.5754 13.4487 12.8242 12.8121 12.1464 11.899 11.3684 11.1666 10.1277
threshold=167.50000000000003 0.88031500000000018 2254967.0000000005 22030.209938043237 6818.7834663254444 -0.44719999999999993 -0.18760499999999997 75.500000000000014 113.50000000000001 1.0000000180025095e-35 71.500000000000014 0.3687700000000001 -0.02342 -0.19985499999999998 1.2165250000000003 2.2251450000000008 307.50000000000006 -0.22580500000000001 2833.4786917853639
decision_type=10 2 8 10 10 2 2 10 8 2 10 2 2 2 2 2 8 2 10
left_child=1 2 6 5 -3 16 10 15 -7 14 -1 -11 -8 -9 -5 -6 -2 -17 -10
right_child=3 4 -4 9 7 8 12 13 18 11 -12 -13 -14 -15 -16 17 -18 -19 -20
leaf_value=-0.018633632619995951 -0.0090410958904109592 -0.018186314921681782 -0.019677621283255089 -0.01288135593220339 -0.014916739702015775 -0.0035555555555555557 -0.017702044790652384 -0.011131221719457015 0.012558139534883722 -0.0081481481481481474 -0.014653465346534653 0.0038596491228070173 -0.015747241725175526 -0.0027522935779816515 -0.0028571428571428571 -0.014033898305084747 0.0060869565217391312 -0.0083773584905660389 0.0040000000000000001
leaf_count=14813 146 1213 25560 354 1141 90 4108 221 86 108 404 57 1994 109 56 295 23 265 155
internal_value=0 -1.86984 -1.89641 -0.48186 -1.48582 0.04 -1.81087 -1.28705 0.416918 -0.935652 -1.8528 -0.4 -1.70633 -0.836364 -1.15122 -1.37449 -0.698225 -1.13571 0.705394
internal_count=51198 50123 46879 1075 3244 500 21319 2031 331 575 15217 165 6102 330 410 1701 169 560 241
shrinkage=0.01


Tree=1
num_leaves=20
num_cat=0
split_feature=37 6 30 31 31 28 34 7 37 34 5 12 0 6 6 34 0 12 7
split_gain=496.884 125.375 70.1025 62.38 52.5972 34.0897 22.7401 20.4057 19.6132 18.0734 16.2697 13.1813 12.5581 11.9059 11.6646 11.1424 10.9462 10.1872 10.1085
threshold=167.50000000000003 0.88031500000000018 1.0769230769230769 22030.209938043237 6818.7834663254444 -0.44719999999999993 64.500000000000014 -0.18760499999999997 75.500000000000014 113.50000000000001 1.0000000180025095e-35 0.3687700000000001 -0.19985499999999998 1.2165250000000003 2.2251450000000008 307.50000000000006 -0.22580500000000001 -0.02342 0.044685000000000009
decision_type=10 2 10 10 10 2 10 2 10 8 2 2 2 2 2 8 2 2 2
left_child=1 2 -1 5 -3 15 7 -4 14 -7 13 -12 -10 -5 18 -2 -16 -9 -6
right_child=3 4 6 10 8 9 -8 17 12 -11 11 -13 -14 -15 16 -17 -18 -19 -20
leaf_value=-0.019481628676756648 -0.0089508681760979529 -0.018005944963141812 -0.018454155458259878 -0.01275307318133532 -0.01322400521968688 -0.0035200113127324064 -0.014585211771096607 -0.017637655169766356 -0.011020252803723792 0.0069835194979958942 -0.0080668007210586076 0.0038210663708140502 -0.0027247757343074387 -0.002828577188094776 -0.013894245792419675 0.0060261431548915417 -0.0082937306918194151 -0.015856023999497777 -0.017063113675299568
leaf_count=25591 146 1213 14665 354 682 90 784 3933 221 241 108 57 109 56 295 23 265 1906 459
internal_value=0 -1.85131 -1.87762 -0.477053 -1.47105 0.0396006 -1.79282 -1.8056 -1.27424 0.412755 -0.926323 -0.396005 -0.828018 -1.13975 -1.36081 -0.691256 -1.1244 -1.70561 -1.47684
internal_count=51198 50123 46879 1075 3244 500 21288 20504 2031 331 575 165 330 410 1701 169 560 5839 1141
shrinkage=0.01


Tree=2
num_leaves=20
num_cat=0
split_feature=37 6 33 31 31 28 7 37 34 5 34 12 12 0 6 6 34 19 30
split_gain=487.285 123.007 68.8416 61.1453 51.5939 33.4129 22.5016 19.2319 17.7144 15.9496 14.9906 12.9197 12.364 12.3107 11.6723 11.4396 10.9214 10.9062 9.92797
threshold=167.50000000000003 0.88031500000000018 2254967.0000000005 22030.209938043237 6818.7834663254444 -0.44719999999999993 -0.18760499999999997 75.500000000000014 113.50000000000001 1.0000000180025095e-35 71.500000000000014 0.3687700000000001 -0.02342 -0.19985499999999998 1.2165250000000003 2.2251450000000008 307.50000000000006 0.53381500000000004 2833.4786917853639
decision_type=10 2 8 10 10 2 2 10 8 2 10 2 2 2 2 2 8 2 10
left_child=1 2 6 5 -3 16 10 15 -7 14 -1 -11 -8 -9 -5 -6 -2 -17 -10
right_child=3 4 -4 9 7 8 12 13 18 11 -12 -13 -14 -15 -16 17 -18 -19 -20
leaf_value=-0.01826932693172444 -0.008861898637356428 -0.017830269059719048 -0.019293520128857315 -0.012627100204008691 -0.014623144292959606 -0.00348484369353838 -0.017355209082455671 -0.010911054973742824 0.012363909871488681 -0.007986527122312629 -0.014364169169294755 0.0037828982706914378 -0.015435541252058238 -0.0026975436429717086 -0.0028003081755415301 -0.011819824960122811 0.0059660458816626696 0.00020542156179543042 0.0038902826597109925
leaf_count=14813 146 1213 25560 354 1141 90 4108 221 86 108 404 57 1994 109 56 528 23 32 155
internal_value=0 -1.83327 -1.85934 -0.472313 -1.45659 0.0392061 -1.77541 -1.26166 0.408639 -0.917139 -1.81656 -0.392059 -1.67279 -0.81979 -1.12847 -1.34739 -0.684382 -1.11327 0.691394
internal_count=51198 50123 46879 1075 3244 500 21319 2031 331 575 15217 165 6102 330 410 1701 169 560 241
shrinkage=0.01


Tree=3
num_leaves=20
num_cat=0
split_feature=37 6 33 31 30 28 6 37 34 1 5 27 6 33 12 19 37 34 6
split_gain=478.051 120.904 59.9997 59.9391 56.9713 32.8374 21.1129 20.968 20.7681 16.3626 15.6382 15.2638 13.8332 13.0471 12.6636 11.6094 11.4942 11.4725 11.4455
threshold=167.50000000000003 0.54411000000000009 2254967.0000000005 22030.209938043237 20.585714285714293 -0.48961999999999994 2.2251450000000008 386.50000000000006 64.500000000000014 1.0000000180025095e-35 1.0000000180025095e-35 -0.18569999999999998 1.0000000180025095e-35 187062.50000000003 0.3687700000000001 0.52379500000000012 87.500000000000014 92.500000000000014 1.2165250000000003
decision_type=10 2 8 10 10 2 2 10 10 2 2 2 2 10 2 2 10 8 2
left_child=1 2 8 5 -3 -2 16 9 12 11 18 -7 -1 -9 -12 -8 -6 -11 -5
right_child=3 4 -4 10 6 7 15 13 -10 17 14 -13 -14 -15 -16 -17 -18 -19 -20
leaf_value=-0.018101304425232629 -0.0079138504304987877 -0.01793196660433103 -0.019131144935965332 -0.01250336223770588 -0.014850654729391946 0.002064256893913007 -0.01104621755341564 0.014880486338240906 -0.014390518881603935 -0.0084506680084979174 -0.0079073028411379594 -0.012446027547956132 -0.016879299813012113 -0.00017843252124940119 0.0037451373731143406 -0.0006506136756692202 -0.010274996938095519 0.0076700968241843913 -0.0027723324359380315
leaf_count=14715 138 1779 24994 354 1986 58 654 82 745 21 108 58 4957 32 57 46 247 111 56
internal_value=0 -1.81572 -1.84738 -0.467641 -1.5107 0.0388167 -1.3394 0.355283 -1.76692 0.0289402 -0.908098 -0.519087 -1.77934 1.06532 -0.388162 -1.0363 -1.43444 0.510538 -1.11738
internal_count=51198 50123 45411 1075 4712 500 2933 362 20417 248 575 116 19672 114 165 700 2233 132 410
shrinkage=0.01


Tree=4
num_leaves=20
num_cat=0
split_feature=37 6 33 31 31 28 34 7 37 34 5 0 8 27 6 6 34 0 7
split_gain=469.17 118.829 66.4412 58.7611 49.8176 32.1956 21.7435 19.7006 18.6981 17.0833 15.3352 12.0716 11.5633 13.3686 11.2252 10.9545 10.7129 10.7051 9.92443
threshold=167.50000000000003 0.88031500000000018 2254967.0000000005 22030.209938043237 6818.7834663254444 -0.44719999999999993 64.500000000000014 -0.18760499999999997 75.500000000000014 113.50000000000001 1.0000000180025095e-35 -0.19985499999999998 1.8176950000000003 -0.45454999999999995 1.2165250000000003 2.2251450000000008 307.50000000000006 -0.22580500000000001 0.044685000000000009
decision_type=10 2 8 10 10 2 10 2 10 8 2 2 2 2 2 2 8 2 2
left_child=1 2 6 5 -3 16 7 -1 15 -7 14 -10 13 -12 -5 18 -2 -17 -6
right_child=3 4 -4 10 8 9 -8 -9 11 -11 12 -13 -14 -15 -16 17 -18 -19 -20
leaf_value=-0.017933742302052295 -0.0087182361760361898 -0.017492288117008897 -0.018930923119895457 -0.012381789692877379 -0.012807070275654198 -0.0034242268431892522 -0.014145256839850434 -0.01656025230007482 -0.010697100310490506 0.0067880456532240221 0.0008519290256487588 -0.0025630428720639455 0.0086864078913752689 -0.011591487374907656 -0.0027446479547788721 -0.013543271960375398 0.005967733166172039 -0.0080035019907337274 -0.016612661022065576
leaf_count=14689 146 1213 25560 354 682 90 783 5847 221 241 62 109 25 78 56 295 23 265 459
internal_value=0 -1.79863 -1.82427 -0.463031 -1.42828 0.0384319 -1.74178 -1.75426 -1.23671 0.401095 -0.899194 -0.800969 -0.384311 -0.608083 -1.10648 -1.32128 -0.671916 -1.09214 -1.43379
internal_count=51198 50123 46879 1075 3244 500 21319 20536 2031 331 575 330 165 140 410 1701 169 560 1141
shrinkage=0.01


Tree=5
num_leaves=20
num_cat=0
split_feature=37 30 6 30 3 0 6 8 24 34 34 33 7 37 34 4 37 29 5
split_gain=405.027 114.49 106.015 73.8118 27.9301 27.6576 23.2186 21.05 17.6177 20.5928 15.1682 13.8886 13.646 12.8212 11.8039 9.98588 9.43959 9.41963 8.73445
threshold=156.50000000000003 1.0769230769230769 0.88031500000000018 4626.0303952991462 1.0000000180025095e-35 -0.044154999999999993 1.0000000180025095e-35 -0.34957499999999991 -0.52504999999999991 309.50000000000006 27.500000000000004 181189.00000000003 -0.081849999999999992 86.500000000000014 43.500000000000007 1.0000000180025095e-35 266.50000000000006 1.0891750000000002 -0.42915999999999993
decision_type=10 10 2 10 2 2 2 2 2 10 10 10 2 10 10 2 10 2 2
left_child=1 -1 6 4 -2 17 14 -4 9 -6 -9 16 13 -8 -3 -7 -10 18 -5
right_child=3 2 7 5 8 15 12 10 11 -11 -12 -13 -14 -15 -16 -17 -18 -19 -20
leaf_value=-0.018697167530613009 0.0098531436245227876 -0.017805549747822721 -0.015911951498506761 -0.01559493678457238 -0.0088906722567756377 0.00018004327646582038 -0.015707322619008965 -0.012611068319536262 -0.0060276338579545513 0.011172303973365549 -0.0082115916165353096 -0.0035929634602519123 -0.017271786852333434 -0.011246284696591424 -0.015780946250939249 -0.014282912699834546 0.0091490627370273015 -0.0041988397784966007 -0.01036968996680445
leaf_count=26610 88 13837 587 272 186 113 3170 1249 20 23 419 111 2565 281 1259 23 91 52 242
internal_value=0 -1.7799 -1.67766 -0.613631 -0.0416434 -1.03664 -1.72175 -1.26525 -0.251346 -0.668211 -1.15056 0.14106 -1.61659 -1.5344 -1.76367 -0.226546 0.641393 -1.23133 -1.31343
internal_count=51198 49977 23367 1221 519 702 21112 2255 431 209 1668 222 6016 3451 15096 136 111 566 514
shrinkage=0.01


Tree=6
num_leaves=20
num_cat=0
split_feature=37 33 6 37 0 33 6 8 34 37 34 34 14 6 23 4 10 28 5
split_gain=397.874 112.588 104.284 67.5303 29.5486 27.9439 22.8429 20.6682 14.889 13.3576 12.2233 11.6173 11.0155 9.88828 11.9537 9.76781 9.47953 12.5936 8.85127
threshold=156.50000000000003 1.5000000000000002 0.88031500000000018 262.50000000000006 -0.044154999999999993 176428.00000000003 1.0000000180025095e-35 -0.34957499999999991 27.500000000000004 386.50000000000006 63.500000000000007 43.500000000000007 -0.20586499999999994 1.0000000180025095e-35 0.20470500000000003 1.0000000180025095e-35 0.75949500000000014 -0.51138499999999987 -0.42915999999999993
decision_type=10 10 2 10 2 10 2 2 10 10 10 10 2 2 2 2 2 2 2
left_child=1 -1 6 4 -2 9 11 -4 -9 16 -7 -3 -8 14 -12 -6 17 -5 -15
right_child=3 2 7 5 15 10 12 8 -10 -11 13 -13 -14 18 -16 -17 -18 -19 -20
leaf_value=-0.01852841051173466 -0.011562351769637285 -0.017643871723118956 -0.015762666220078356 -0.0091565670199666507 0.00081616983155858333 -0.019506985914500233 -0.016808754161368483 -0.012490825329956198 -0.008131390951790796 0.010366740230629239 -0.017261771552652936 -0.015634623610681762 -0.015089907785900476 -0.0045261922309599223 -0.0027188265861359568 -0.012298272956672095 -0.01210825507975905 0.0084256081038601507 0.0063041552223946362
leaf_count=26602 625 13843 587 23 121 20 3247 1249 419 108 35 1259 2771 63 64 28 20 56 58
internal_value=0 -1.7637 -1.66231 -0.607632 -0.965296 0.0114324 -1.70604 -1.25318 -1.13952 0.550019 -0.453129 -1.74763 -1.60172 -0.317008 -0.785988 -0.164737 0.0193306 0.330794 0.0665844
internal_count=51198 49977 23375 1221 774 447 21120 2255 1668 207 240 15102 6018 220 99 149 99 79 121
shrinkage=0.01


Tree=7
num_leaves=20
num_cat=0
split_feature=37 30 6 30 28 6 8 34 34 5 7 37 34 23 34 24 30 33 15
split_gain=391.003 111.004 102.562 71.3965 29.2077 22.4974 20.3019 15.4439 14.6188 13.5137 13.3925 12.6071 12.1275 12.1255 11.4276 10.1682 9.95723 8.97497 7.89425
threshold=156.50000000000003 1.0769230769230769 0.88031500000000018 4626.0303952991462 -0.45161999999999991 1.0000000180025095e-35 -0.34957499999999991 309.50000000000006 27.500000000000004 -0.42915999999999993 -0.081849999999999992 86.500000000000014 66.500000000000014 1.0000000180025095e-35 43.500000000000007 -0.5330649999999999 7505.9995644599303 265716.00000000006 5.5745300000000002
decision_type=10 10 2 10 2 2 2 10 10 2 2 10 8 2 10 2 10 8 2
left_child=1 -1 5 4 7 14 -4 -2 -8 -5 11 -7 -6 17 18 -15 -11 -14 -3
right_child=3 2 6 9 12 10 8 -9 -10 16 -12 -13 13 15 -16 -17 -18 -19 -20
leaf_value=-0.01836444605101463 -0.0079880489402026182 -0.017505902430349003 -0.015616645387588075 -0.013061883004832305 -0.011512422920741665 -0.015415587065459174 -0.012372646374681315 0.0093726427104620005 -0.0080522235983594478 -0.0053128165461355089 -0.01696632707314227 -0.010989085827424529 0.0027291473452945403 -0.0012698410164610357 -0.015491459139613077 0.011113008853407262 -0.012502143080360541 -0.010388770986970528 -0.0064529594733665008
leaf_count=26610 189 13811 587 338 20 3170 1249 23 419 253 2565 281 106 34 1259 121 111 26 26
internal_value=0 -1.7479 -1.64715 -0.601708 -0.0391142 -1.69057 -1.24132 -0.61035 -1.12866 -1.01791 -1.58698 -1.5055 0.355245 0.460198 -1.73188 0.839682 -0.750435 0.0145979 -1.74851
internal_count=51198 49977 23367 1221 519 21112 2255 212 1668 702 6016 3451 307 287 15096 155 364 132 13837
shrinkage=0.01


Tree=8
num_leaves=20
num_cat=0
split_feature=37 30 6 30 28 0 6 34 37 7 37 0 34 23 34 24 4 7 29
split_gain=384.381 109.414 100.957 70.0135 28.6323 26.5966 22.1668 15.1461 14.4057 13.1715 12.3922 12.2194 11.8888 11.8866 11.2552 9.96902 9.61919 9.54849 9.22777
threshold=156.50000000000003 1.0769230769230769 0.88031500000000018 4626.0303952991462 -0.45161999999999991 -0.044154999999999993 1.0000000180025095e-35 307.50000000000006 48.500000000000007 -0.081849999999999992 86.500000000000014 -0.17390499999999995 66.500000000000014 1.0000000180025095e-35 43.500000000000007 -0.5330649999999999 1.0000000180025095e-35 0.22117500000000004 1.0891750000000002
decision_type=10 10 2 10 2 2 2 8 10 2 10 2 8 2 10 2 2 2 2
left_child=1 -1 6 4 7 18 14 -2 17 10 -8 -10 -6 -14 -3 -15 -7 -4 -5
right_child=3 2 8 5 12 16 9 -9 11 -11 -12 -13 13 15 -16 -17 -18 -19 -20
leaf_value=-0.018204700757690376 -0.0080003440737734816 -0.017330885826637724 -0.012186438965779332 -0.012805437901366996 -0.011400956905322977 0.00026296166653414096 -0.015275976601869983 0.0085795591733012974 -0.011673753400863726 -0.016814695884504391 -0.010885959407126467 -0.0058438117477231854 0.00014452898040571939 -0.0012571356712965981 -0.015351338809456223 0.011004053306128405 -0.013939929627736422 -0.015434966453524488 -0.0039581312704358527
leaf_count=26610 187 13837 1029 514 20 113 3170 25 454 2565 281 211 132 34 1259 121 23 561 52
internal_value=0 -1.7325 -1.63243 -0.595872 -0.03873 -1.00813 -1.67554 -0.604391 -1.22967 -1.57267 -1.49183 -0.982277 0.351739 0.45565 -1.71657 0.831412 -0.213632 -1.33325 -1.19921
internal_count=51198 49977 23367 1221 519 702 21112 212 2255 6016 3451 665 307 287 15096 155 136 1590 566
shrinkage=0.01


Tree=9
num_leaves=20
num_cat=0
split_feature=37 30 6 30 28 0 6 8 35 35 7 37 35 23 35 24 4 29 33
split_gain=378.003 107.919 99.4279 68.664 28.0687 26.0954 21.8544 19.8967 14.8562 14.2111 12.9617 12.1861 11.6551 11.6537 11.0925 9.77462 9.43484 9.05666 8.79802
threshold=156.50000000000003 1.0769230769230769 0.88031500000000018 4626.0303952991462 -0.45161999999999991 -0.044154999999999993 1.0000000180025095e-35 -0.34957499999999991 309.50000000000006 27.500000000000004 -0.081849999999999992 86.500000000000014 66.500000000000014 1.0000000180025095e-35 43.500000000000007 -0.5330649999999999 1.0000000180025095e-35 1.0891750000000002 265716.00000000006
decision_type=10 10 2 10 2 2 2 2 10 10 2 10 8 2 10 2 2 2 8
left_child=1 -1 6 4 8 17 14 -4 -2 -9 11 -8 -6 18 -3 -15 -7 -5 -14
right_child=3 2 7 5 12 16 10 9 -10 -11 -12 -13 13 15 -16 -17 -18 -19 -20
leaf_value=-0.018049140640092103 -0.0078341250707334147 -0.017180407521063014 -0.015356298781361384 -0.012684746933362941 -0.011291274819034818 0.00026033048337571139 -0.015139275341599154 -0.012138131701671183 0.0091954960926103821 -0.0078765027531630099 -0.01666662679505302 -0.010784381364839137 0.0027005298686220082 -0.0012445585644987847 -0.015214155616209058 0.010896810228484268 -0.013809633794380976 -0.0039190815626688833 -0.010288659543120282
leaf_count=26610 189 13837 587 514 20 113 3170 1249 23 419 2565 281 106 34 1259 121 23 52 26
internal_value=0 -1.71748 -1.61804 -0.590114 -0.0383498 -0.998504 -1.66086 -1.21822 -0.598506 -1.10664 -1.55866 -1.47843 0.348266 0.451143 -1.70163 0.823263 -0.211519 -1.18786 0.0143084
internal_count=51198 49977 23367 1221 519 702 21112 2255 212 1668 6016 3451 307 287 15096 155 136 566 132
shrinkage=0.01


Tree=10
num_leaves=20
num_cat=0
split_feature=37 30 6 31 28 0 37 37 7 37 30 4 28 0 5 18 30 5 12
split_gain=410.618 102.757 91.6193 65.4895 40.4049 23.9931 18.1554 14.9629 14.9477 13.3584 13.261 12.6502 11.9446 11.9203 11.4282 11.0308 10.6812 12.5481 10.0522
threshold=156.50000000000003 1.0769230769230769 0.88031500000000018 22030.209938043237 -0.44719999999999993 -0.018204999999999999 86.500000000000014 48.500000000000007 -0.18760499999999997 296.50000000000006 8787.9396060749914 1.0000000180025095e-35 1.5124900000000003 -0.22580500000000001 -0.42915999999999993 -0.10914999999999998 6225.6093728271453 -0.29473999999999995 0.041945000000000003
decision_type=10 10 2 10 2 2 10 10 2 10 10 2 2 2 2 2 10 2 2
left_child=1 -1 6 4 9 16 8 -4 -3 -2 -8 12 -6 -9 -15 -16 17 -5 -11
right_child=3 2 7 5 11 -7 10 13 -10 18 -12 -13 -14 14 15 -17 -18 -19 -20
leaf_value=-0.017932540547096358 -0.012300447391091787 -0.017023677966793764 -0.013313148536400719 -0.011074494395607719 0.0048900145906137817 -0.00032430796731513709 -0.0114654311521145 -0.011700308148962904 -0.015797569217788174 -0.0052359112464156667 -0.01562717048775477 -0.004509144716900843 0.017448238752334672 -0.011981714971305266 0.0028119421034608402 -0.0080854029492947819 -0.013216740629274732 -0.0020304063792739137 0.010630575246481712
leaf_count=26618 94 14137 1565 168 227 105 445 430 5589 67 1003 49 35 84 73 76 315 97 21
internal_value=0 -1.70784 -1.61086 -0.511879 0.0441394 -0.912666 -1.65166 -1.22433 -1.6676 -0.705076 -1.43481 0.482234 0.656755 -0.972186 -0.607564 -0.274651 -1.07227 -0.776026 -0.144858
internal_count=51198 50020 23402 1178 493 685 21174 2228 19726 182 1448 311 262 663 233 149 580 265 88
shrinkage=0.01


Tree=11
num_leaves=20
num_cat=0
split_feature=37 33 7 30 28 0 8 37 0 4 33 12 34 12 8 33 0 18 5
split_gain=404.006 101.563 61.9067 61.4835 28.7539 28.0719 25.9011 19.062 13.4494 13.194 12.8032 10.479 10.3161 10.3132 10.0085 10.1766 9.75209 11.8709 10.3098
threshold=156.50000000000003 1224.5000000000002 -0.18760499999999997 4626.0303952991462 -0.44719999999999993 -0.018204999999999999 -0.34957499999999991 63.500000000000007 -0.56315499999999996 1.0000000180025095e-35 181189.00000000003 0.30340000000000006 75.500000000000014 2.3623800000000004 -0.32522499999999993 181189.00000000003 -0.22580500000000001 -0.26182499999999992 -0.83242999999999989
decision_type=10 10 2 10 2 2 2 10 2 2 10 2 10 2 2 10 2 2 2
left_child=1 -1 12 4 14 11 -4 -8 -6 -7 -10 -5 -3 16 -2 -16 -9 18 -18
right_child=3 2 6 5 8 9 7 13 10 -11 -12 -13 -14 -15 15 -17 17 -19 -20
leaf_value=-0.017693180791016221 -0.0097410379864064298 -0.016773383719126879 -0.015901112340233427 -0.012835829142911113 -0.0089048639736571331 0.0026099242524334639 -0.014112906411843823 -0.013247952076425437 0.0092536408861231753 -0.013911609407574179 0.00055531282720400221 -0.0066281871752145475 -0.01308593239466861 -0.005329994774235001 0.0077088029362766021 -0.0056776433331607798 -0.016741024949998233 -0.012214099029574344 -0.00088869369467950833
leaf_count=29430 110 12809 2849 387 29 101 3694 541 154 24 121 152 313 117 35 65 20 153 94
internal_value=0 -1.6935 -1.58534 -0.506958 0.0125646 -0.909816 -1.43951 -1.34673 0.405852 -0.0555278 0.542524 -1.10841 -1.66852 -1.08932 -0.557261 -0.0989947 -1.16992 -0.856482 -0.366852
internal_count=51198 50020 20590 1178 514 664 7468 4619 304 125 275 539 13122 925 210 100 808 267 114
shrinkage=0.01


Tree=12
num_leaves=20
num_cat=0
split_feature=37 33 6 31 28 0 8 7 37 7 37 6 4 30 5 34 37 5 0
split_gain=397.62 100.517 87.9843 63.1261 39.0148 23.1429 21.8994 17.8026 14.5065 13.2828 12.9991 12.5565 10.4771 10.4072 12.2895 10.4006 10.0286 9.78463 11.1837
threshold=156.50000000000003 2110879.5000000005 0.88031500000000018 22030.209938043237 -0.44719999999999993 -0.018204999999999999 -0.34957499999999991 -0.18760499999999997 48.500000000000007 -0.083034999999999984 296.50000000000006 2.2251450000000008 1.0000000180025095e-35 6225.6093728271453 -0.29473999999999995 75.500000000000014 85.500000000000014 -0.42915999999999993 -0.22580500000000001
decision_type=10 8 2 10 2 2 2 2 10 2 10 2 2 10 2 10 10 2 2
left_child=1 2 7 4 10 13 -4 15 -8 16 -2 12 -6 14 -5 -1 -9 -10 -19
right_child=3 -3 6 5 11 -7 8 9 17 -11 -12 -13 -14 -15 -16 -17 -18 18 -20
leaf_value=-0.016680241681156158 -0.012109281902065224 -0.017639606093828815 -0.015400953076200392 -0.010885648243773059 0.004910401600098294 -0.00031404152272698294 -0.012144436750918017 -0.014819790744271267 -0.01152939006329531 -0.016401510087578938 -0.0014009536423046495 0.014783100175012581 -0.0056744629697109139 -0.01299214102685399 -0.0019320540917764026 -0.012987298092480804 -0.010863717666400997 -0.0089445173897582785 -0.0012712963644835559
leaf_count=14771 94 26670 577 168 223 105 1121 3176 204 2587 88 43 45 315 97 314 281 193 126
internal_value=0 -1.67949 -1.58324 -0.502101 0.0438318 -0.895878 -1.2035 -1.62334 -1.08561 -1.53121 -0.692678 0.474333 0.313281 -1.05281 -0.760283 -1.66031 -1.44976 -0.810123 -0.59097
internal_count=51198 50020 23350 1178 493 685 2221 21129 1644 6044 182 311 268 580 265 15085 3457 523 319
shrinkage=0.01


Tree=13
num_leaves=20
num_cat=0
split_feature=37 33 6 31 28 0 8 7 37 7 37 6 4 34 30 27 6 7 37
split_gain=391.452 99.3909 86.8142 61.9201 38.2492 22.7138 21.5529 17.5981 14.2625 13.0944 12.7564 12.316 10.2695 10.2654 10.2243 12.1075 10.4579 10.2937 9.87787
threshold=156.50000000000003 2110879.5000000005 0.88031500000000018 22030.209938043237 -0.44719999999999993 -0.018204999999999999 -0.34957499999999991 -0.18760499999999997 48.500000000000007 -0.083034999999999984 296.50000000000006 2.2251450000000008 1.0000000180025095e-35 75.500000000000014 6225.6093728271453 -0.53632999999999986 1.0000000180025095e-35 -0.12132 85.500000000000014
decision_type=10 8 2 10 2 2 2 2 10 2 10 2 2 10 10 2 2 2 10
left_child=1 2 7 4 10 14 -4 13 -8 18 -2 12 -6 -1 15 -5 -17 -18 -9
right_child=3 -3 6 5 11 -7 8 9 -10 -11 -12 -13 -14 -15 -16 16 17 -19 -20
leaf_value=-0.016543826449000879 -0.011996812298283799 -0.01749905883809216 -0.015268330201650431 -0.0010753087461117703 0.0048617906350190178 -0.00031090445001151967 -0.012035036684742116 -0.014693341717721528 -0.0080245950072287166 -0.01626512048925613 -0.0013869856212871542 0.014642438934690758 -0.0056179375999328212 -0.012872770354997183 -0.012874152210072185 -0.01520710045321467 0.0047725813655507508 -0.0099125495377161161 -0.010765191856132202
leaf_count=14771 94 26670 577 81 223 105 1121 3176 523 2587 88 43 45 314 315 91 27 66 281
internal_value=0 -1.66582 -1.57003 -0.497309 0.0434032 -0.88747 -1.19265 -1.60991 -1.07567 -1.51825 -0.686017 0.469659 0.310177 -1.64671 -1.04304 -0.753056 -1.03732 -0.565052 -1.43732
internal_count=51198 50020 23350 1178 493 685 2221 21129 1644 6044 182 311 268 15085 580 265 184 93 3457
shrinkage=0.01


Tree=14
num_leaves=20
num_cat=0
split_feature=37 33 31 7 28 8 0 37 37 4 28 12 30 5 34 12 0 27 14
split_gain=385.49 98.3675 60.7396 59.6925 37.4998 25.0105 22.2946 18.2922 12.5197 11.8399 11.6843 10.1027 10.0478 12.0066 9.94628 9.73503 9.499 8.81614 8.21423
threshold=156.50000000000003 1224.5000000000002 22030.209938043237 -0.18760499999999997 -0.44719999999999993 -0.34957499999999991 -0.018204999999999999 63.500000000000007 296.50000000000006 1.0000000180025095e-35 1.5124900000000003 2.3623800000000004 6225.6093728271453 -0.29473999999999995 43.500000000000007 0.041945000000000003 -0.070104999999999987 -0.54157499999999992 -0.19306499999999996
decision_type=10 10 10 2 2 2 2 10 10 2 2 2 10 2 10 2 2 2 2
left_child=1 -1 4 14 8 -5 12 -7 -2 10 -6 16 13 17 -3 -10 -9 -4 -8
right_child=2 3 6 5 9 7 18 11 15 -11 -12 -13 -14 -15 -16 -17 -18 -19 -20
leaf_value=-0.017273258476646267 -0.011886167964385137 -0.016456754333527498 -0.0033390928981698754 -0.015506786713453988 0.0046802679889144617 -0.013743988617092641 -0.006773942808954091 -0.012567888151449751 -0.0051014551519259765 -0.0043785755341320086 0.017107099407210596 -0.0050734649365204798 -0.012758188319905503 -0.0018540724520300048 -0.014564252306462831 0.010513508999108832 -0.0073774456505323631 -0.013572899780124124 0.0045390643305808142
leaf_count=29430 94 11879 47 2849 227 3694 45 624 67 49 35 117 315 97 1243 21 184 121 60
internal_value=0 -1.65246 -0.492579 -1.54577 0.04298 -1.40232 -0.879173 -1.311 -0.679443 0.465042 0.633956 -1.05851 -1.03341 -0.745901 -1.62771 -0.137316 -1.13843 -1.07072 -0.0307798
internal_count=51198 50020 1178 20590 493 7468 685 4619 182 311 262 925 580 265 13122 88 808 168 105
shrinkage=0.01


Tree=15
num_leaves=20
num_cat=0
split_feature=37 30 6 30 28 7 12 27 3 0 24 24 8 12 7 37 37 0 37
split_gain=379.549 99.8786 82.3623 56.8922 45.9812 25.27 15.1865 14.6289 13.2596 14.6305 13.0429 12.9144 10.2066 10.2815 9.99931 10.3025 9.87276 9.40337 9.06524
threshold=156.50000000000003 494.50000000000006 1.2165250000000003 5739.6340493031012 -0.21049999999999996 -0.18760499999999997 1.8067800000000005 0.064960000000000018 1.0000000180025095e-35 1.0000000180025095e-35 -0.55511499999999991 -0.33600499999999994 -0.27651999999999993 -0.38291999999999998 -0.067254999999999995 85.500000000000014 360.50000000000006 0.085595000000000018 41.500000000000007
decision_type=10 10 2 10 2 2 2 2 2 2 2 2 2 2 2 10 10 2 10
left_child=1 -1 5 4 8 -3 -5 10 -2 -10 -6 12 17 18 15 -7 -9 -4 -14
right_child=3 2 11 6 7 14 -8 16 9 -11 -12 -13 13 -15 -16 -17 -18 -19 -20
leaf_value=-0.017128598208346162 0.006575960319807307 -0.016150688655651266 -0.014821301255489326 -0.01160042418274547 -0.0047013572763457282 -0.014222341880110401 -0.00055564547206963264 -0.0040623569543720393 -0.0074989981860607196 0.0040525051656180302 0.01238894975670099 -0.012260449368552874 -0.0054164051712815679 -0.0081687761346622336 -0.015545531160323943 -0.010483326711369367 0.0086051468368894459 -0.0055701473125664451 0.0083896388572444799
leaf_count=29682 36 12966 145 410 21 3138 57 74 362 50 121 864 50 303 2458 329 37 64 31
internal_value=0 -1.6381 -1.52941 -0.48208 -0.121642 -1.56515 -1.025 0.560504 -0.507421 -0.609397 0.986097 -1.06932 -0.841085 -0.646951 -1.45625 -1.38663 0.0159332 -1.19877 -0.0118912
internal_count=51198 50030 20348 1168 701 18891 467 253 448 412 142 1457 593 384 5925 3467 111 209 81
shrinkage=0.01


Tree=16
num_leaves=20
num_cat=0
split_feature=37 30 6 30 16 34 7 30 6 4 24 8 7 37 34 0 14 34 27
split_gain=374.01 98.8955 81.3092 55.8946 27.9789 27.0921 25.0111 22.9675 13.7024 12.996 12.6955 10.0339 9.86431 10.1579 9.58766 9.24816 9.04521 8.85916 8.62614
threshold=156.50000000000003 494.50000000000006 1.2165250000000003 5991.3487265807971 -0.63240999999999981 69.500000000000014 -0.18760499999999997 2833.4786917853639 2.5613550000000003 1.0000000180025095e-35 -0.33600499999999994 -0.27651999999999993 -0.067254999999999995 85.500000000000014 302.50000000000006 0.085595000000000018 1.9233000000000002 71.500000000000014 0.037155000000000014
decision_type=10 10 2 10 2 8 2 10 2 2 2 2 2 10 10 2 2 10 2
left_child=1 -1 6 4 14 -6 17 -7 -5 -9 11 15 13 -8 -2 -4 -12 -3 -11
right_child=3 2 10 8 5 7 12 9 -10 18 16 -13 -14 -15 -16 -17 -18 -19 -20
leaf_value=-0.016998352331142729 -0.0097014550911199565 -0.016112728417995163 -0.014696005744890238 -0.011442616815430495 -0.012418278409653429 0.010978489508287021 -0.014104235417259916 0.0019197698324612243 0.0048014975467383222 -0.0028609854695827203 -0.012913522559889404 -0.0064086468620617159 -0.015419654357791007 -0.010389491403533749 0.0046381726184901283 -0.005517553516940478 -0.0065942114486296742 -0.012891078652650129 -0.017507839776727669
leaf_count=29682 169 12610 145 402 56 98 3138 323 22 54 760 384 2458 329 21 64 104 356 23
internal_value=0 -1.62534 -1.5171 -0.477491 -0.147101 0.0802011 -1.55266 0.228585 -1.05968 0.0157972 -1.05973 -0.833366 -1.44423 -1.37503 -0.81108 -1.18828 -1.21523 -1.60238 -0.723701
internal_count=51198 50030 20348 1168 744 554 18891 498 424 400 1457 593 5925 3467 190 209 864 12966 77
shrinkage=0.01


Tree=17
num_leaves=20
num_cat=0
split_feature=37 30 6 30 28 7 27 3 0 6 13 24 34 33 8 12 7 37 0
split_gain=368.637 97.971 80.3022 54.8569 40.6612 24.7672 16.9456 14.226 15.2091 13.4492 12.5012 12.4845 11.1886 11.0477 9.86705 10.0957 9.73557 10.0186 9.09781
threshold=156.50000000000003 494.50000000000006 1.2165250000000003 5991.3487265807971 -0.21049999999999996 -0.18760499999999997 -0.058084999999999984 1.0000000180025095e-35 1.0000000180025095e-35 2.5613550000000003 -0.12887999999999997 -0.33600499999999994 165.50000000000003 278136.50000000006 -0.27651999999999993 -0.38291999999999998 -0.067254999999999995 85.500000000000014 0.085595000000000018
decision_type=10 10 2 10 2 2 2 2 2 2 2 2 8 10 2 2 2 10 2
left_child=1 -1 5 4 7 -3 13 -2 -9 -5 12 14 -8 -6 18 -16 17 -7 -4
right_child=3 2 11 9 6 16 10 8 -10 -11 -12 -13 -14 -15 15 -17 -18 -19 -20
leaf_value=-0.016871193939472864 0.0065655085421251905 -0.015899708970538044 -0.014573146133071263 -0.01133949850645051 0.012320342510685126 -0.013988293543556027 -0.0090373880148692329 -0.007510909682576181 0.0036707431519129702 0.0047521972613759223 0.0087987825207106064 -0.012046001818949402 0.0067268215126630379 -0.0015342227119110583 -5.371220989123699e-05 -0.0080336346493057285 -0.015296363990424651 -0.010296953075757597 -0.0054655101327170698
leaf_count=29682 39 12966 145 402 113 3138 65 377 56 22 40 864 25 29 81 303 2458 329 64
internal_value=0 -1.61287 -1.50503 -0.472969 -0.145675 -1.54043 0.470859 -0.501538 -0.60608 -1.05006 -0.0516197 -1.05028 -0.465691 0.949059 -0.825727 -0.634824 -1.43243 -1.36364 -1.17795
internal_count=51198 50030 20348 1168 744 18891 272 472 433 424 130 1457 90 142 593 384 5925 3467 209
shrinkage=0.01


Tree=18
num_leaves=20
num_cat=0
split_feature=37 30 6 30 28 6 12 27 7 3 7 34 7 37 33 7 34 27 18
split_gain=363.437 97.1052 79.4696 53.9165 43.8303 15.9351 14.8167 14.0264 13.7036 12.6464 9.9259 12.7087 9.55141 9.46331 9.40802 9.20709 8.8091 8.20177 8.2001
threshold=156.50000000000003 494.50000000000006 0.54411000000000009 5739.6340493031012 -0.21049999999999996 1.5527350000000004 1.8067800000000005 0.064960000000000018 -0.18760499999999997 1.0000000180025095e-35 0.28436500000000003 27.500000000000004 -0.095314999999999997 360.50000000000006 278136.50000000006 -0.067254999999999995 71.500000000000014 2.1834300000000004 0.93853500000000012
decision_type=10 10 2 10 2 2 2 2 2 2 2 10 2 10 10 2 10 2 2
left_child=1 -1 8 4 9 15 -5 14 16 -2 11 -7 -10 18 -6 17 -3 -4 -9
right_child=3 2 5 6 7 10 -8 13 12 -11 -12 -13 -14 -15 -16 -17 -18 -19 -20
leaf_value=-0.016747015611657538 0.0064341155566159389 -0.015867150203956976 -0.011777345559351574 -0.01131558900094696 0.01238009956697198 -0.010134299321909427 -0.000398200932095363 -0.0099615148870488644 -0.013669848951565897 -0.0059418558905126326 -0.012417894894953891 -0.0040548793912922685 -0.015535519624341663 0.0084257200862619518 -9.6869073078427773e-05 -0.014300956788617822 -0.012648819110992304 -0.0013488156772213189 0.0034486144867934328
leaf_count=29682 36 12610 715 410 111 508 57 41 2548 412 408 191 1998 37 31 982 356 32 33
internal_value=0 -1.60068 -1.49321 -0.468501 -0.117641 -1.18049 -0.997894 0.548556 -1.54425 -0.494511 -0.992202 -0.846795 -1.44888 0.0151988 0.965493 -1.30163 -1.57782 -1.13304 -0.398105
internal_count=51198 50030 20348 1168 701 2836 467 253 17512 448 1107 699 4546 111 142 1729 12966 747 74
shrinkage=0.01


Tree=19
num_leaves=20
num_cat=0
split_feature=37 30 6 30 28 6 12 27 7 24 3 0 8 7 34 7 37 7 34
split_gain=358.417 96.293 78.5937 52.9181 42.9708 15.7105 14.5524 13.7553 13.589 12.7094 12.3981 13.9723 10.5625 11.3874 12.1816 9.43938 9.27746 9.07687 8.91586
threshold=156.50000000000003 494.50000000000006 0.54411000000000009 5739.6340493031012 -0.21049999999999996 1.5527350000000004 1.8067800000000005 0.064960000000000018 -0.18760499999999997 -0.55511499999999991 1.0000000180025095e-35 1.0000000180025095e-35 -0.37392499999999995 0.28436500000000003 27.500000000000004 -0.095314999999999997 360.50000000000006 -0.067254999999999995 337.00000000000006
decision_type=10 10 2 10 2 2 2 2 2 2 2 2 2 2 10 2 10 2 10
left_child=1 -1 8 4 10 17 -5 9 -3 -6 -2 18 -7 14 -14 -10 -9 -4 -12
right_child=3 2 5 6 7 12 -8 16 15 -11 11 -13 13 -15 -16 -17 -18 -19 -20
leaf_value=-0.016625716962421423 0.0063703459978687194 -0.015659347940351964 -0.011233267735537534 -0.011214655781725662 -0.0048148523334555623 -0.014032066425672235 -0.00039422965660370414 -0.0039415118298282174 -0.0135591021577833 0.012060531920346158 -0.0080614061916767614 0.0040311300346359815 -0.0091685435879459275 -0.012254923178792438 -0.0029388356892187579 -0.015415773629642625 0.0083444045180144106 -0.014185181770749794 0.0050883333388963047
leaf_count=29682 36 12966 747 410 21 200 57 74 2548 121 340 50 446 284 177 1998 37 982 22
internal_value=0 -1.58874 -1.48162 -0.464076 -0.116499 -1.17042 -0.988865 0.543238 -1.53246 0.956243 -0.489705 -0.58842 -0.983379 -0.891288 -0.739211 -1.43739 0.0150494 -1.29083 -0.725916
internal_count=51198 50030 20348 1168 701 2836 467 253 17512 142 448 412 1107 907 623 4546 111 1729 362
shrinkage=0.01


Tree=20
num_leaves=20
num_cat=0
split_feature=37 33 6 37 0 33 24 7 8 4 12 34 6 7 6 6 30 37 34
split_gain=347.208 90.9739 72.3575 62.4202 24.7386 23.8241 21.7896 14.499 14.0236 12.1553 11.1008 10.3137 10.1231 11.9684 9.83309 9.60667 11.8241 11.7819 9.42112
threshold=141.50000000000003 1224.5000000000002 0.88031500000000018 262.50000000000006 -0.044154999999999993 176428.00000000003 -0.54419499999999987 -0.18760499999999997 -0.39827499999999993 1.0000000180025095e-35 -0.02342 73.500000000000014 0.88031500000000018 0.10159000000000003 0.20790500000000003 2.8975600000000004 8570.3821753747052 81.500000000000014 31.500000000000004
decision_type=10 10 2 10 2 10 2 2 2 2 2 10 2 2 2 2 10 10 10
left_child=1 -1 7 4 12 6 -5 18 -4 11 -9 14 -2 -14 -6 16 17 -10 -3
right_child=3 2 8 5 9 -7 -8 10 15 -11 -12 -13 13 -15 -16 -17 -18 -19 -20
leaf_value=-0.016498684837998819 -0.01116858369182583 -0.015739357952067105 -0.014530375798546154 -0.0043020133183938316 -0.016730230612758058 -0.0037372790059150068 0.0098387552095459494 -0.01489736019289129 -0.009378240067493708 -0.012624086178020435 -0.012926017302045383 0.0039371635479849227 0.00094307212408257677 -0.011559306368189262 0.002277534910206365 -0.0074929027300318389 -0.011855576093407566 0.0033885769762185347 -0.014234072665928174
leaf_count=29492 647 10961 396 63 23 245 143 3546 102 35 1745 105 66 58 21 380 1104 41 2025
internal_value=0 -1.57768 -1.4734 -0.565015 -0.856954 0.048787 0.550994 -1.51388 -1.11186 -0.196448 -1.42463 0.0529545 -1.01562 -0.490303 -0.763899 -1.0293 -1.11489 -0.569865 -1.55042
internal_count=51198 49792 20300 1406 955 451 206 18277 2023 184 5291 149 771 124 44 1627 1247 143 12986
shrinkage=0.01


Tree=21
num_leaves=20
num_cat=0
split_feature=37 33 6 37 0 33 24 7 4 12 6 7 34 6 7 31 12 6 34
split_gain=342.705 90.3043 71.611 61.262 24.2984 23.3571 21.3675 14.3923 11.9287 10.9678 10.5541 12.8844 10.1125 9.95393 11.7457 10.3074 10.3294 9.6563 9.32462
threshold=141.50000000000003 1224.5000000000002 0.88031500000000018 262.50000000000006 -0.044154999999999993 176428.00000000003 -0.54419499999999987 -0.18760499999999997 1.0000000180025095e-35 -0.02342 2.8975600000000004 0.10159000000000003 73.500000000000014 0.88031500000000018 0.10159000000000003 40853.242952913606 -0.41559999999999991 0.20790500000000003 31.500000000000004
decision_type=10 10 2 10 2 10 2 2 2 2 2 2 10 2 2 10 2 2 10
left_child=1 -1 7 4 13 6 -5 18 12 -9 11 -4 17 15 -15 16 -2 -6 -3
right_child=3 2 10 5 8 -7 -8 9 -10 -11 -12 -13 -14 14 -16 -17 -18 -19 -20
leaf_value=-0.01638291261242962 -0.013376449736159405 -0.015624710581240328 -0.010391500744038445 -0.0042594461890045612 -0.016587655548289996 -0.0037004511556357157 0.0097452797989627422 -0.014783666909609144 -0.012512412594106155 -0.012822109909008396 -0.0082927394264521899 -0.014163437053790601 0.0038972842472616838 0.00093357349255151578 -0.011454963760023069 -0.014648574295272252 -0.006891661204744882 0.0022544261626461924 -0.014125337472268176
leaf_count=29492 157 10961 986 63 23 245 143 3546 35 1745 447 590 105 66 58 218 272 21 2025
internal_value=0 -1.56624 -1.46224 -0.559777 -0.849203 0.0483119 0.545693 -1.50258 -0.194547 -1.41357 -1.10234 -1.18008 0.0524289 -1.00658 -0.485606 -1.10707 -0.926324 -0.756799 -1.53904
internal_count=51198 49792 20300 1406 955 451 206 18277 184 5291 2023 1576 149 771 124 647 429 44 12986
shrinkage=0.01


Tree=22
num_leaves=20
num_cat=0
split_feature=37 30 6 37 0 33 8 6 28 14 4 34 34 6 7 31 14 6 37
split_gain=338.32 89.762 74.1589 60.1321 23.8698 22.8997 17.3275 15.0303 14.3708 11.8432 11.7072 10.2943 9.91558 9.79024 11.528 10.1618 9.57854 9.48418 9.38009
threshold=141.50000000000003 1.0769230769230769 0.88031500000000018 262.50000000000006 -0.044154999999999993 176428.00000000003 -0.39827499999999993 1.0000000180025095e-35 -0.51138499999999987 -0.10951999999999999 1.0000000180025095e-35 31.500000000000004 73.500000000000014 0.88031500000000018 0.10159000000000003 40853.242952913606 -0.26937499999999998 0.20790500000000003 75.500000000000014
decision_type=10 10 2 10 2 10 2 2 2 2 2 10 10 2 2 10 2 2 10
left_child=1 -1 7 4 13 8 -4 11 -5 -9 12 -3 17 15 -15 16 -2 -6 -8
right_child=3 2 6 5 10 -7 18 9 -10 -11 -12 -13 -14 14 -16 -17 -18 -19 -20
leaf_value=-0.016357248243384713 -0.012990091072794871 -0.015557068490522716 -0.014647021994313583 -0.0044640960429565323 -0.016448329947486465 -0.0036640060649354832 -0.010805167543620056 -0.014824627725545204 0.0082454149555929897 -0.012937686227681978 -0.01240256644767504 -0.014004575254810157 0.0038578432659255976 0.00092417164000247647 -0.011352205477041308 -0.01453153070203044 -0.0068034204811001147 0.0022315606451974268 -0.0065889581063857472
leaf_count=26693 165 12940 452 46 23 245 1508 3752 160 2155 35 2043 105 66 58 218 264 21 249
internal_value=0 -1.55505 -1.46246 -0.55462 -0.841587 0.0478424 -1.11076 -1.50015 0.54046 -1.41352 -0.192672 -1.53448 0.0519097 -0.997721 -0.480967 -1.09749 -0.917987 -0.749815 -1.02035
internal_count=51198 49792 23099 1406 955 451 2209 20890 206 5907 184 14983 149 771 124 647 429 44 1757
shrinkage=0.01


Tree=23
num_leaves=20
num_cat=0
split_feature=37 30 6 37 0 33 24 8 6 12 4 34 34 6 7 31 12 6 37
split_gain=334.071 89.1888 73.4504 59.0276 23.4505 22.451 20.7562 17.1026 14.9331 12.7148 11.4905 10.1994 9.72293 9.63042 11.3152 10.021 10.0094 9.31655 9.23748
threshold=141.50000000000003 1.0769230769230769 0.88031500000000018 262.50000000000006 -0.044154999999999993 176428.00000000003 -0.54419499999999987 -0.39827499999999993 1.0000000180025095e-35 -0.02342 1.0000000180025095e-35 31.500000000000004 73.500000000000014 0.88031500000000018 0.10159000000000003 40853.242952913606 -0.41559999999999991 0.20790500000000003 75.500000000000014
decision_type=10 10 2 10 2 10 2 2 2 2 2 10 10 2 2 10 2 2 10
left_child=1 -1 8 4 13 6 -5 -4 11 -10 12 -3 17 15 -15 16 -2 -6 -9
right_child=3 2 7 5 10 -7 -8 18 9 -11 -12 -13 -14 14 -16 -17 -18 -19 -20
leaf_value=-0.016246496878773442 -0.013154052613045943 -0.01544704805942065 -0.014534993267163459 -0.0042237498563248762 -0.016312136393641291 -0.0036279387187565727 0.0095825764461306712 -0.01071336148050093 -0.014688439965713009 -0.012682449199508226 -0.012294492509476338 -0.013899736592871904 0.0038188345623892672 0.00091486558502653498 -0.011250986271982837 -0.014416692576564661 -0.0067625638782304485 0.0022089359683525058 -0.0065276279689231468
leaf_count=26693 157 12940 452 63 23 245 143 1508 3967 1940 35 2043 105 66 58 218 272 21 249
internal_value=0 -1.54409 -1.45168 -0.549526 -0.834078 0.0473768 0.535264 -1.10141 -1.48926 -1.40282 -0.190821 -1.52354 0.0513968 -0.988985 -0.476385 -1.08804 -0.90976 -0.742942 -1.01157
internal_count=51198 49792 23099 1406 955 451 206 2209 20890 5907 184 14983 149 771 124 647 429 44 1757
shrinkage=0.01


Tree=24
num_leaves=20
num_cat=0
split_feature=37 33 6 37 0 33 24 7 8 4 12 35 6 7 31 12 6 30 37
split_gain=329.941 88.7088 69.5928 57.9462 23.04 22.0122 20.3566 14.1347 13.4215 11.2787 10.6458 9.53444 9.47428 11.107 9.88469 9.84955 9.37008 11.6325 11.4884
threshold=141.50000000000003 1224.5000000000002 0.88031500000000018 262.50000000000006 -0.044154999999999993 176428.00000000003 -0.54419499999999987 -0.18760499999999997 -0.39827499999999993 1.0000000180025095e-35 -0.02342 73.500000000000014 0.88031500000000018 0.10159000000000003 40853.242952913606 -0.41559999999999991 2.8975600000000004 8570.3821753747052 81.500000000000014
decision_type=10 10 2 10 2 10 2 2 2 2 2 10 2 2 10 2 2 10 10
left_child=1 -1 7 4 12 6 -5 -3 -4 11 -9 -6 14 -14 15 -2 17 18 -10
right_child=3 2 8 5 9 -7 -8 10 16 -11 -12 -13 13 -15 -16 -17 -18 -19 -20
leaf_value=-0.016051439422919721 -0.013044357352669034 -0.015062086436420744 -0.014096806332496025 -0.0041820187840449375 -0.0073617825240319436 -0.0035922444787587528 0.0094926326128942778 -0.014454999991189203 -0.0090131464121493716 -0.012188138253053609 -0.01251586225262563 0.0037802522022625513 0.00090565400795730461 -0.011151263479056294 -0.014303987641723149 -0.0066998993798780635 -0.0071638671626166276 -0.011486271000307054 0.0036139832441140357
leaf_count=29492 157 12986 396 63 44 245 143 3546 102 35 1745 105 66 58 218 272 380 1104 41
internal_value=0 -1.53335 -1.4299 -0.544503 -0.826673 0.0469179 0.53016 -1.4699 -1.07436 -0.188994 -1.38138 0.0508901 -0.980373 -0.471858 -1.07873 -0.901639 -0.993472 -1.07829 -0.536456
internal_count=51198 49792 20300 1406 955 451 206 18277 2023 184 5291 149 771 124 647 429 1627 1247 143
shrinkage=0.01


Tree=25
num_leaves=20
num_cat=0
split_feature=37 6 33 37 33 33 37 6 8 37 24 5 12 33 12 26 6 24 1
split_gain=308.81 101.565 57.7692 50.1971 42.0357 23.1241 18.9445 17.7417 16.5369 16.2061 15.4458 13.1235 12.0055 11.7481 13.6774 11.4925 11.1973 9.96028 9.50156
threshold=163.50000000000003 0.88031500000000018 2254967.0000000005 314.50000000000006 67156.000000000015 176428.00000000003 49.500000000000007 1.2165250000000003 -0.39827499999999993 75.500000000000014 -0.55834499999999987 -0.83242999999999989 -0.15414999999999998 357563.50000000006 -0.41559999999999991 -0.19481499999999999 1.0000000180025095e-35 -0.34373999999999999 1.0000000180025095e-35
decision_type=10 2 8 10 10 10 10 2 2 10 2 2 2 10 2 2 2 2 2
left_child=1 2 6 7 -3 10 16 13 -6 17 -5 -7 -13 14 -2 -9 -1 -10 -8
right_child=3 4 -4 5 8 11 18 15 9 -11 -12 12 -14 -15 -16 -17 -18 -19 -20
leaf_value=-0.015294408400013334 -0.011368323970753991 -0.014720255143703384 -0.016111440716038025 -0.0032456826698644002 -0.013826125202186398 -0.012490770130115233 -0.014277025939162085 0.0069268010716599573 -0.0080013078494902187 -0.0048225083371118919 0.011625830502461028 -0.0081210571863722467 0.0064393970169492436 -0.011702909039921709 -0.003927682532807562 -0.0061027664177920439 -0.014130872339316059 -0.011514924265492076 -0.01229752720665377
leaf_count=12328 147 1243 25607 37 373 43 2346 55 570 295 116 37 59 254 312 54 4772 784 1766
internal_value=0 -1.52102 -1.54551 -0.450697 -1.17476 0.262965 -1.46683 -0.705754 -0.996024 -0.909447 0.801606 -0.328293 0.0834665 -0.821645 -0.630278 0.0477822 -1.49681 -1.00342 -1.34265
internal_count=51198 50084 46819 1114 3265 292 21212 822 2022 1649 153 139 96 713 459 109 17100 1354 4112
shrinkage=0.01


Tree=26
num_leaves=20
num_cat=0
split_feature=37 30 6 37 6 33 0 8 7 24 7 34 5 34 37 12 34 7 7
split_gain=305.328 93.2947 88.8348 63.5254 23.4695 22.6803 18.232 18.1779 16.4548 15.157 14.9331 12.917 14.6505 12.9124 12.6619 11.3129 10.4895 10.2962 9.5733
threshold=141.50000000000003 1.0769230769230769 0.88031500000000018 314.50000000000006 1.2165250000000003 176428.00000000003 -0.018204999999999999 -0.39827499999999993 0.10159000000000003 -0.55834499999999987 -0.18760499999999997 307.50000000000006 -0.42915999999999993 73.500000000000014 75.500000000000014 0.041945000000000003 71.500000000000014 -0.083034999999999984 0.26139500000000004
decision_type=10 10 2 10 2 10 2 2 2 2 2 8 2 10 10 2 10 2 2
left_child=1 -1 10 4 6 9 15 -4 -6 -5 16 12 -7 -8 18 -2 -3 -12 -9
right_child=3 2 7 5 8 11 13 14 -10 -11 17 -13 -14 -15 -16 -17 -18 -19 -20
leaf_value=-0.015969918935020925 -0.011940946184082969 -0.015029339649961415 -0.014068406271479868 -0.0032135201378891438 0.0055305225354196743 -0.011930703882650964 -0.013683549228639106 -0.0090883619474086096 -0.0074404514876079391 0.011520487543798349 -0.013021451247720252 0.010824381387707005 0.0024449525657501575 -0.00044953174792729798 -0.00510976144565188 -0.0068321256342034229 -0.011036851950124646 -0.014727854480993952 -0.012691670619983402
leaf_count=26672 558 14606 428 37 82 68 38 1093 76 116 3447 22 49 141 241 258 278 2569 419
internal_value=0 -1.5141 -1.41919 -0.574396 -0.788039 0.26048 -0.903228 -1.03037 -0.0695647 0.794178 -1.46052 -0.325125 -0.590338 -0.323385 -0.939457 -1.03188 -1.49539 -1.37485 -1.00853
internal_count=51198 49753 23081 1445 1153 292 995 2181 158 153 20900 139 117 179 1753 816 14884 6016 1512
shrinkage=0.01


Tree=27
num_leaves=20
num_cat=0
split_feature=37 30 6 37 6 33 8 0 7 24 7 34 34 37 12 9 34 7 31
split_gain=301.834 92.8273 88.0354 62.337 23.0558 22.246 17.9527 17.9263 16.1317 14.8747 14.8573 12.6821 12.6631 12.4672 11.1432 10.7868 10.394 10.1994 9.52613
threshold=141.50000000000003 1.0769230769230769 0.88031500000000018 314.50000000000006 1.2165250000000003 176428.00000000003 -0.39827499999999993 -0.018204999999999999 0.10159000000000003 -0.55834499999999987 -0.18760499999999997 73.500000000000014 307.50000000000006 75.500000000000014 0.041945000000000003 0.42142000000000007 71.500000000000014 -0.083034999999999984 35331.425109708238
decision_type=10 10 2 10 2 10 2 2 2 2 2 10 10 10 2 2 10 2 10
left_child=1 -1 10 4 7 9 -4 14 -6 -5 16 -9 15 -8 -2 -7 -3 -12 -15
right_child=3 2 6 5 8 12 13 11 -10 -11 17 -13 -14 18 -16 -17 -18 -19 -20
leaf_value=-0.015868403453668654 -0.01184173404597709 -0.014927961594709094 -0.01396492544093437 -0.0031816903321812877 0.0054735789647918321 -0.011303408069912061 -0.010000730861001899 -0.013568993272450952 -0.0073704826040024221 0.011416756530801755 -0.012924183177735518 -0.00044504465002538667 0.010717102836496352 0.004484780770259638 -0.0067687533733367692 0.00094522450182170121 -0.010949476423994242 -0.014624940231473003 -0.0067428999195172489
leaf_count=26672 558 14606 428 37 82 65 1512 38 76 116 3447 141 22 36 258 52 278 2569 205
internal_value=0 -1.50399 -1.4092 -0.5692 -0.780988 0.258022 -1.02182 -0.895279 -0.0688797 0.786855 -1.45042 -0.320268 -0.321981 -0.931449 -1.02299 -0.584654 -1.48527 -1.36486 -0.506175
internal_count=51198 49753 23081 1445 1153 292 2181 995 158 153 20900 179 139 1753 816 117 14884 6016 241
shrinkage=0.01


Tree=28
num_leaves=20
num_cat=0
split_feature=37 33 6 37 6 33 30 12 6 24 8 5 37 12 4 23 24 34 34
split_gain=298.434 92.4469 81.9396 61.1725 22.6507 21.821 17.3651 17.0525 14.7965 14.5987 14.0439 12.6173 12.0765 11.6422 11.2131 11.0399 10.2368 10.1568 10.0659
threshold=141.50000000000003 1224.5000000000002 0.88031500000000018 314.50000000000006 1.2165250000000003 176428.00000000003 6225.6093728271453 -0.41559999999999991 1.0000000180025095e-35 -0.55834499999999987 -0.39827499999999993 -0.83242999999999989 75.500000000000014 -0.15414999999999998 1.0000000180025095e-35 -0.24191999999999997 -0.34373999999999999 61.500000000000007 71.500000000000014
decision_type=10 10 2 10 2 10 10 2 2 2 2 2 10 2 2 2 2 8 10
left_child=1 -1 8 4 6 9 7 -2 18 -5 -4 -7 16 -13 17 -6 -12 -9 -3
right_child=3 2 10 5 15 11 -8 14 -10 -11 12 13 -14 -15 -16 -17 -18 -19 -20
leaf_value=-0.01567901976509126 -0.011386469982999572 -0.014776149866557849 -0.01353391146911965 -0.0031501885943346422 -0.0071272680760326584 -0.0122279888807673 -0.011526276427549787 -0.012350805307078681 -0.013409135260559908 0.011314591799309904 -0.0078596089359117636 -0.0079785851457905167 -0.005014326572778261 0.0063664534147028955 -0.010612919309968348 0.0036906581159222287 -0.01139164051451024 -4.5636933061531038e-06 -0.010844193013579591
leaf_count=29492 169 12646 378 37 64 43 504 31 5334 116 581 37 241 59 70 94 804 221 277
internal_value=0 -1.49408 -1.38777 -0.564073 -0.774027 0.255602 -0.887432 -0.618855 -1.43141 0.779632 -0.998818 -0.31889 -0.917487 0.0848109 -0.348018 -0.0682028 -0.990761 -0.150613 -1.46908
internal_count=51198 49753 20261 1445 1153 292 995 491 18257 153 2004 139 1626 96 322 158 1385 252 12923
shrinkage=0.01


Tree=29
num_leaves=20
num_cat=0
split_feature=37 30 6 37 6 33 0 8 7 7 24 36 36 5 37 12 36 7 7
split_gain=295.118 92.1312 86.5999 60.033 22.2559 21.405 17.5993 17.553 15.7147 14.7302 14.3288 12.4118 12.3906 14.1321 12.0715 10.8908 10.2142 10.1648 9.42783
threshold=141.50000000000003 1.0769230769230769 0.88031500000000018 314.50000000000006 1.2165250000000003 176428.00000000003 -0.018204999999999999 -0.39827499999999993 0.10159000000000003 -0.18760499999999997 -0.55834499999999987 73.500000000000014 307.50000000000006 -0.42915999999999993 75.500000000000014 0.041945000000000003 71.500000000000014 -0.083034999999999984 0.26139500000000004
decision_type=10 10 2 10 2 10 2 2 2 2 2 10 8 2 10 2 10 2 2
left_child=1 -1 9 4 6 10 15 -4 -6 16 -5 -8 13 -7 18 -2 -3 -11 -9
right_child=3 2 7 5 8 12 11 14 -10 17 -12 -13 -14 -15 -16 -17 -18 -19 -20
leaf_value=-0.015672369433241656 -0.011662246292004909 -0.014730520862327188 -0.013763973803896552 -0.00311901113743146 0.0054038981863034283 -0.011686369011670984 -0.013371646838793041 -0.008839714256346996 -0.0072751724203303147 -0.012727988944764181 0.011213949333638638 -0.00037145459833984827 0.010629768261881185 0.0024400002461868026 -0.0049672758599424646 -0.006641316545115487 -0.010778008735593749 -0.014430810038328584 -0.012425453122632249
leaf_count=26672 558 14606 428 37 82 68 38 1093 76 3447 116 141 22 49 241 258 278 2569 419
internal_value=0 -1.48435 -1.38966 -0.559017 -0.767165 0.253212 -0.879707 -1.00481 -0.0675305 -1.43073 0.772509 -0.309748 -0.315836 -0.575844 -0.915396 -1.00652 -1.46556 -1.3453 -0.983103
internal_count=51198 49753 23081 1445 1153 292 995 2181 158 20900 153 179 139 117 1753 816 14884 6016 1512
shrinkage=0.01


Tree=30
num_leaves=20
num_cat=0
split_feature=36 30 37 6 3 6 30 5 7 6 0 22 7 15 6 33 36 0 0
split_gain=271.427 83.1709 75.9149 70.4993 21.192 17.364 16.8176 14.3905 12.0196 16.7768 18.2993 11.9885 11.7505 11.2961 10.2313 9.59183 9.25976 9.14174 8.58982
threshold=66.500000000000014 1.0769230769230769 238.50000000000003 0.88031500000000018 1.0000000180025095e-35 1.0000000180025095e-35 8130.198381328817 -0.16031999999999999 0.10159000000000003 2.8975600000000004 -0.22580500000000001 0.42307 -0.067254999999999995 1.7328400000000002 1.5527350000000004 165378.00000000003 218.50000000000003 1.0000000180025095e-35 -0.32960499999999998
decision_type=10 10 10 2 2 2 10 2 2 2 2 2 2 2 2 10 10 2 2
left_child=1 -1 6 5 -4 -3 18 13 -5 -10 -11 -12 -7 15 -8 16 -6 -9 -2
right_child=2 3 4 8 7 12 14 17 9 10 11 -13 -14 -15 -16 -17 -18 -19 -20
leaf_value=-0.015546800906324574 -0.0086913250574972983 -0.014598460343932152 0.0091005022531656359 -0.009002814949673265 -0.0080500460585700272 -0.012545234287637768 -0.012265933851725353 0.0010534364299515193 -0.014010838539304436 -0.012643808400255125 0.00075374416664804322 -0.013309527446555114 -0.014424901624062417 0.0097559273478841097 -0.0025949061918470358 -0.0083573319556125188 0.0072621778500394753 0.01534181051655201 -0.0036547981733448952
leaf_count=26574 388 14840 85 1208 28 3575 622 127 622 170 103 33 2304 20 48 178 37 21 215
internal_value=0 -1.47574 -0.667774 -1.38506 -0.00319272 -1.42216 -0.93268 -0.192014 -1.03366 -1.20817 -0.81941 -0.265095 -1.32794 -0.474477 -1.15578 -0.594161 0.0662167 0.308251 -0.688188
internal_count=51198 49429 1769 22855 496 20719 1273 411 2136 928 306 136 5879 263 670 243 65 148 603
shrinkage=0.01


Tree=31
num_leaves=20
num_cat=0
split_feature=34 30 37 7 8 3 30 5 15 24 33 34 21 23 16 24 30 27 11
split_gain=268.66 82.8976 74.5993 53.9045 27.068 20.7807 16.592 14.1111 11.0764 9.42551 9.40963 9.07823 8.48213 12.2588 9.36975 8.05392 7.79262 7.92402 6.8807
threshold=66.500000000000014 1.0769230769230769 238.50000000000003 -0.18760499999999997 -0.37392499999999995 1.0000000180025095e-35 8130.198381328817 -0.16031999999999999 1.7328400000000002 -0.33972499999999994 165378.00000000003 218.50000000000003 1.0000000180025095e-35 0.20872500000000005 -0.38892499999999991 -0.52504999999999991 5991.3487265807971 -0.40334999999999993 0.44111000000000006
decision_type=10 10 10 2 2 2 10 2 2 2 10 10 2 2 2 2 10 2 2
left_child=1 -1 6 -3 -5 -4 12 8 10 -6 11 -7 -2 -14 -15 -9 17 -16 -18
right_child=2 3 5 4 9 7 -8 15 -10 -11 -12 -13 13 14 16 -17 18 -19 -20
leaf_value=-0.015453622772847696 -0.010355268983703122 -0.014499136924398281 0.0090141863473407711 -0.014015738865145531 -0.010507267667146474 -0.0079715529081009397 -0.011468426673028373 -0.0045084085029395947 0.0096601062461640318 -0.012275284011072876 -0.0082794961683486466 0.0071920330853593815 -0.0088842421420490588 -0.007637980096983259 0.011594360575318327 0.0059509299414692001 0.00083185825747860776 -0.0020244154894142204 -0.01265194192468048
leaf_count=26574 192 14819 85 2862 2183 28 670 41 20 2991 178 37 194 76 41 107 47 30 23
internal_value=0 -1.46638 -0.661976 -1.37572 -1.24092 -0.0031624 -0.924917 -0.190169 -0.469995 -1.15286 -0.588566 0.0655746 -0.682016 -0.51874 -0.188865 0.305199 0.11792 0.586485 -0.3622
internal_count=51198 49429 1769 22855 8036 496 1273 411 263 5174 243 65 603 411 217 148 141 71 70
shrinkage=0.01


Tree=32
num_leaves=20
num_cat=0
split_feature=34 30 37 6 3 6 30 5 7 6 0 22 7 15 0 33 0 34 10
split_gain=265.962 82.6644 73.3104 70.0654 20.3781 17.1014 16.3921 13.8375 11.8589 16.6045 18.0532 11.8007 11.6582 10.8614 10.2305 9.23117 8.9446 8.90048 7.8585
threshold=66.500000000000014 1.0769230769230769 238.50000000000003 0.88031500000000018 1.0000000180025095e-35 1.0000000180025095e-35 8969.5607803142102 -0.16031999999999999 0.10159000000000003 2.8975600000000004 -0.22580500000000001 0.42307 -0.067254999999999995 1.7328400000000002 -0.32960499999999998 165378.00000000003 1.0000000180025095e-35 218.50000000000003 -0.36848499999999995
decision_type=10 10 10 2 2 2 10 2 2 2 2 2 2 2 2 10 2 10 2
left_child=1 -1 6 5 -4 -3 14 13 -5 -10 -11 -12 18 15 -2 17 -9 -6 -7
right_child=2 3 4 8 7 12 -8 16 9 10 11 -13 -14 -15 -16 -17 -18 -19 -20
leaf_value=-0.015362353658635431 -0.008980470285725739 -0.014412240091304611 0.008929003173611191 -0.0088281950588712521 -0.0078940526859180311 -0.015050896026159924 -0.011718412192093129 0.0010155908910539852 -0.013818536411443743 -0.012451668031565971 0.00086847499110169241 -0.013112046921660474 -0.014243952516937459 0.0095656506764948673 -0.0038879691164783988 -0.0082026107829704445 0.015155913266518484 0.0071227237093209371 -0.012020304108634274
leaf_count=26574 436 14840 85 1208 28 409 580 127 622 170 103 33 2304 20 257 178 21 37 3166
internal_value=0 -1.45719 -0.656254 -1.36652 -0.0031327 -1.40368 -0.917258 -0.188346 -1.01551 -1.18931 -0.801949 -0.250912 -1.30991 -0.465568 -0.707706 -0.58304 0.302183 0.0649405 -1.2366
internal_count=51198 49429 1769 22855 496 20719 1273 411 2136 928 306 136 5879 263 693 243 148 65 3575
shrinkage=0.01


Tree=33
num_leaves=20
num_cat=0
split_feature=34 30 37 7 8 3 30 5 15 24 0 21 23 16 30 27 12 7 19
split_gain=263.362 82.4441 72.042 53.3663 26.7654 19.9839 16.1905 13.5695 10.6508 9.29402 8.77705 8.33137 12.0304 9.1674 7.63714 7.77036 6.89497 6.83916 12.1158
threshold=66.500000000000014 1.0769230769230769 238.50000000000003 -0.18760499999999997 -0.37392499999999995 1.0000000180025095e-35 8130.198381328817 -0.16031999999999999 1.7328400000000002 -0.33972499999999994 1.0000000180025095e-35 1.0000000180025095e-35 0.20872500000000005 -0.38892499999999991 5991.3487265807971 -0.40334999999999993 2.1989700000000005 -0.16576999999999995 -0.063894999999999993
decision_type=10 10 10 2 2 2 10 2 2 2 2 2 2 2 10 2 2 2 2
left_child=1 -1 6 -3 -5 -4 11 8 -7 -6 -9 -2 17 -14 15 -15 -8 -13 -19
right_child=2 3 5 4 9 7 16 10 -10 -11 -12 12 13 14 -16 -17 -18 18 -20
leaf_value=-0.015272935770704568 -0.010205983630015292 -0.014316227144254597 0.0088449267779028926 -0.013833399744860178 -0.01033639139402702 -0.0057758016055520925 -0.011862624588122726 0.0010054238485888505 0.0094725255699914662 -0.012096381887256881 0.015018175591318407 -0.012640711531948378 -0.0075034289126150932 0.011534929993522399 -0.0035313020186505057 -0.0019534071811593439 -0.0037072461559596696 -0.0099188605637687902 0.0052037249096234563
leaf_count=26574 192 14819 85 2862 2183 243 624 127 20 2991 21 95 76 41 70 30 46 67 32
internal_value=0 -1.44817 -0.650582 -1.35748 -1.22303 -0.00310306 -0.909657 -0.186545 -0.461195 -1.13529 0.299198 -0.669574 -0.507699 -0.180773 0.122617 0.586388 -1.12951 -0.874412 -0.503307
internal_count=51198 49429 1769 22855 8036 496 1273 411 263 5174 148 603 411 217 141 71 670 194 99
shrinkage=0.01


Tree=34
num_leaves=20
num_cat=0
split_feature=34 30 37 6 3 6 30 5 8 24 14 15 0 33 34 0 6 6 8
split_gain=260.825 82.2628 70.8133 69.6811 19.5973 16.8659 15.9941 13.304 11.6358 11.625 10.9827 10.4426 9.99995 9.0645 8.72601 8.61378 8.33456 7.84277 7.84254
threshold=66.500000000000014 1.0769230769230769 238.50000000000003 0.88031500000000018 1.0000000180025095e-35 1.0000000180025095e-35 8969.5607803142102 -0.16031999999999999 -0.39827499999999993 -0.30391499999999994 0.07605000000000002 1.7328400000000002 -0.32960499999999998 165378.00000000003 218.50000000000003 1.0000000180025095e-35 2.8975600000000004 1.5527350000000004 5.4703950000000008
decision_type=10 10 10 2 2 2 10 2 2 2 2 2 2 10 10 2 2 2 2
left_child=1 -1 6 5 -4 -3 12 11 -5 16 -7 13 -2 14 -6 -9 -10 -8 -11
right_child=2 3 4 8 7 10 17 15 9 18 -12 -13 -14 -15 -16 -17 -18 -19 -20
leaf_value=-0.01518531479154769 -0.00883679035694406 -0.01423263874033621 0.0087619317310798812 -0.01305503145400648 -0.0077616673917405227 -0.013462179874036272 -0.012193377803191597 0.0009953593287511729 -0.0084738770977367314 -0.011134996514645397 -0.011445185464538168 0.009380698519132976 -0.0037969766423477957 -0.0080732980831011956 0.0071097607471695291 0.014883233815548123 -0.0032620251214650693 -0.0027918854562213559 -0.0012958832050200032
leaf_count=26574 436 14840 85 420 28 4317 541 127 617 905 1562 20 257 178 37 21 159 39 35
internal_value=0 -1.43931 -0.644981 -1.34858 -0.00307278 -1.38582 -0.902206 -0.184732 -0.997816 -0.923954 -1.29243 -0.456754 -0.695099 -0.572022 0.0700848 0.296247 -0.739753 -1.15443 -1.07681
internal_count=51198 49429 1769 22855 496 20719 1273 411 2136 1716 5879 263 693 243 65 148 776 580 940
shrinkage=0.01


Tree=35
num_leaves=20
num_cat=0
split_feature=37 37 6 30 28 35 19 12 37 30 0 30 0 6 7 30 1 10 31
split_gain=279.775 95.3105 70.3889 44.1552 27.7785 16.6397 14.8728 14.6035 13.0941 12.6519 12.5867 11.1063 10.1876 9.2336 8.58909 8.58517 10.4599 8.39016 8.13083
threshold=156.50000000000003 155.50000000000003 0.54411000000000009 5300.016425531915 -0.19567499999999996 71.500000000000014 0.07863500000000001 0.041945000000000003 75.500000000000014 7696.7564814814823 -0.070104999999999987 4626.0303952991462 -0.19985499999999998 0.20790500000000003 -0.18760499999999997 8130.198381328817 1.0000000180025095e-35 0.34708500000000003 98992.377682339706
decision_type=10 8 2 10 2 10 2 2 10 10 2 10 2 2 2 10 2 2 8
left_child=1 2 5 4 7 14 -6 -2 -4 -10 -5 -9 -11 -3 -1 16 -7 -12 -15
right_child=3 13 8 10 6 15 -8 11 9 12 17 -13 -14 18 -16 -17 -18 -19 -20
leaf_value=-0.014052770778542787 -0.0063867076898947942 -0.015138410273271318 -0.01070175070391958 -0.01018957645497031 0.0012155345480610281 -0.010146976120331835 0.012190689191301944 0.0049509371918798374 0.00056807570705830245 -0.010828657657872207 -0.0051766137538960559 -0.0084996816529843942 -0.0032318486032104497 -0.011770017475290698 -0.012963222961719549 -0.011853679151100568 0.00053503492533462673 0.009210715546740092 -0.014450592564585965
leaf_count=11978 287 26951 2294 431 145 102 76 101 78 238 89 33 105 572 4185 329 62 20 3122
internal_value=0 -1.42757 -1.31413 -0.432721 -0.0774146 -1.36521 0.499181 -0.381409 -1.00867 -0.67928 -0.861578 0.165622 -0.848291 -1.50039 -1.3768 -0.993423 -0.610291 -0.25246 -1.40272
internal_count=51198 50016 19371 1182 642 16656 221 421 2715 421 540 134 343 30645 16163 493 164 109 3694
shrinkage=0.01


Tree=36
num_leaves=20
num_cat=0
split_feature=37 30 6 30 28 0 1 7 8 7 14 10 37 31 12 7 34 33 24
split_gain=277.211 84.2907 72.2864 59.4971 27.6321 15.2074 14.9306 14.0731 13.5484 11.7655 11.1951 11.2761 11.096 10.2462 10.1789 9.89202 8.5535 11.8865 8.11303
threshold=123.50000000000001 1.0769230769230769 0.88031500000000018 5991.3487265807971 -0.45382499999999998 0.13749500000000003 1.0000000180025095e-35 -0.18760499999999997 -0.39827499999999993 -0.066134999999999985 -0.075479999999999978 -0.28718499999999997 75.500000000000014 342257.39035781764 2.6892000000000005 -0.17252999999999999 70.500000000000014 187062.50000000003 -0.30391499999999994
decision_type=10 10 2 10 2 2 2 2 2 2 2 2 10 10 2 2 10 10 2
left_child=1 -1 7 4 -2 14 10 16 13 -9 11 -6 18 -4 -5 -7 -3 -18 -10
right_child=3 2 8 5 6 15 -8 9 12 -11 -12 -13 -14 -15 -16 -17 17 -19 -20
leaf_value=-0.015044661068097896 -0.0064635745815072258 -0.014109235419691349 -0.013768517281952176 -0.011024698348123623 -0.00026292942620015564 -0.0080740730985511301 0.0046752980471148108 -0.012108077560899672 -0.0077859223533309624 -0.014006750791868089 0.0016250990792132042 -0.012651438001642709 -0.0043382098191740819 -0.00087528420238670997 -0.00148542837113394 0.0069987526851303661 -0.00093044362982393073 -0.012445003942485778 -0.010826525915923865
leaf_count=26650 347 14560 415 768 56 37 233 3595 647 2297 133 64 193 28 49 35 47 197 847
internal_value=0 -1.42409 -1.33181 -0.594224 -0.209127 -0.96445 0.0998389 -1.36991 -0.973187 -1.28449 -0.238962 -0.686005 -0.890382 -1.29521 -1.0443 -0.0692829 -1.40436 -1.0219 -0.950515
internal_count=51198 49476 22826 1722 833 889 486 20696 2130 5892 253 120 1687 443 817 72 14804 244 1494
shrinkage=0.01


Tree=37
num_leaves=20
num_cat=0
split_feature=37 30 6 30 28 27 5 12 0 7 8 7 37 5 11 31 12 18 0
split_gain=274.733 84.1492 71.8189 58.5304 27.1084 17.5776 15.4903 23.9503 14.9671 14.0457 13.4087 11.6802 10.9345 10.6853 10.3038 10.1126 10.0251 8.50784 8.51114
threshold=123.50000000000001 1.0769230769230769 0.88031500000000018 5991.3487265807971 -0.45382499999999998 -0.030189999999999998 1.0000000180025095e-35 0.33608500000000008 0.13749500000000003 -0.18760499999999997 -0.39827499999999993 -0.066134999999999985 75.500000000000014 -0.29473999999999995 1.5643400000000003 342257.39035781764 2.6892000000000005 0.89210500000000015 1.0000000180025095e-35
decision_type=10 10 2 10 2 2 2 2 2 2 2 2 10 2 2 10 2 2 2
left_child=1 -1 9 4 -2 6 7 -6 16 -3 15 -11 -12 -10 -8 -4 -5 -7 -19
right_child=3 2 10 8 5 17 14 -9 13 11 12 -13 -14 -15 -16 -17 -18 18 -20
leaf_value=-0.014962090275153411 -0.0064044033549183815 -0.01395918930724162 -0.01367828955107179 -0.010939487561138462 -0.0059127483854462528 -0.0076749508120428295 0.013298090839476917 0.0087764900927896922 -0.0083021589696993317 -0.012024397706032799 -0.0094291308445293414 -0.013919501462683566 -0.0042977736919707953 0.0073682685744926122 -0.0018893730351352287 -0.00086671795478612801 -0.0014709062315350066 -0.002605866061738152 0.01199549963195589
leaf_count=26650 347 14804 415 768 103 103 86 80 37 3595 1494 2297 193 35 23 28 49 70 21
internal_value=0 -1.4157 -1.32334 -0.589006 -0.207122 0.0988489 0.410929 0.0524841 -0.956728 -1.36142 -0.965532 -1.27595 -0.883125 -0.0686128 1.01098 -1.28646 -1.0361 -0.371136 0.0777104
internal_count=51198 49476 22826 1722 833 486 292 183 889 20696 2130 5892 1687 72 109 443 817 194 91
shrinkage=0.01


Tree=38
num_leaves=20
num_cat=0
split_feature=37 30 6 30 28 27 0 7 12 28 8 7 37 12 7 10 34 33 27
split_gain=272.309 84.034 71.3706 57.5791 26.5947 17.2307 14.7333 14.0203 13.8865 14.9621 13.2738 11.5987 10.7759 9.8745 9.68968 9.52523 8.56541 11.7611 8.39351
threshold=123.50000000000001 1.0769230769230769 0.88031500000000018 5991.3487265807971 -0.45382499999999998 -0.030189999999999998 0.13749500000000003 -0.18760499999999997 0.23804000000000003 -0.19567499999999996 -0.39827499999999993 -0.066134999999999985 75.500000000000014 2.6892000000000005 -0.17252999999999999 0.65376500000000015 70.500000000000014 187062.50000000003 -0.38394499999999993
decision_type=10 10 2 10 2 2 2 2 2 2 2 2 10 2 2 2 10 10 2
left_child=1 -1 7 4 -2 8 13 16 9 18 -4 -9 -12 -5 -8 -10 -3 -18 -6
right_child=3 2 10 6 5 -7 14 11 15 -11 12 -13 -14 -15 -16 -17 17 -19 -20
leaf_value=-0.014881125382563675 -0.0063458508566650177 -0.01394216212269136 -0.012778458550060708 -0.010855364656701139 -0.00083877660330053752 -0.0036751302302596017 -0.0079956053451149933 -0.011941851365835032 0.011790702250250329 0.0074075303202642854 -0.0093538605032701064 -0.013833718298638248 -0.0042577257757382778 -0.0014565246361241074 0.0069250779252837324 -0.00022972858956212878 -0.00078456079164903193 -0.01226173818184291 -0.013705550385399886
leaf_count=26650 347 14560 443 768 58 194 37 3595 103 63 1494 2297 193 49 35 36 47 197 32
internal_value=0 -1.40745 -1.31501 -0.583855 -0.205146 0.097877 -0.949092 -1.35307 0.406872 -0.0120531 -0.957959 -1.26754 -0.875938 -1.028 -0.0679427 0.867193 -1.38762 -1.00375 -0.539239
internal_count=51198 49476 22826 1722 833 486 889 20696 292 153 2130 5892 1687 817 72 139 14804 244 90
shrinkage=0.01


Tree=39
num_leaves=20
num_cat=0
split_feature=38 30 6 30 28 27 5 12 0 6 8 7 38 5 31 12 34 33 18
split_gain=269.941 83.9378 70.941 56.6464 26.0909 16.8916 15.1228 23.1848 14.5022 13.9991 13.1416 11.8661 10.6203 10.4678 10.0179 9.72698 8.50904 11.5961 8.34297
threshold=123.50000000000001 1.0769230769230769 0.88031500000000018 5991.3487265807971 -0.45382499999999998 -0.030189999999999998 1.0000000180025095e-35 0.33608500000000008 0.13749500000000003 1.0000000180025095e-35 -0.39827499999999993 -0.066134999999999985 75.500000000000014 -0.29473999999999995 342257.39035781764 2.6892000000000005 70.500000000000014 187062.50000000003 0.89210500000000015
decision_type=10 10 2 10 2 2 2 2 2 2 2 2 10 2 10 2 10 10 2
left_child=1 -1 9 4 -2 6 7 -6 15 16 14 -11 -12 -10 -4 -5 -3 -18 -7
right_child=3 2 10 8 5 18 -8 -9 13 11 12 -13 -14 -15 -16 -17 17 -19 -20
leaf_value=-0.014801720226500382 -0.0062879068770867472 -0.013859701537461933 -0.01350741751669143 -0.010772301522476171 -0.0058498078081982499 -0.0075649561826658497 0.0099580632963172985 0.00860657353521249 -0.0082224792789003798 -0.011845762894671558 -0.0092794299317781499 -0.013765252728128591 -0.0042180615859925743 0.0072905782181196567 -0.00073297328635984951 -0.001442281812135057 -0.00077686194541773943 -0.012177584799465822 0.00080629174328571823
leaf_count=26650 347 14578 415 768 103 103 109 80 37 3581 1494 2293 193 35 28 49 47 197 91
internal_value=0 -1.39935 -1.3068 -0.578769 -0.203194 0.0969188 0.402912 0.0486071 -0.941556 -1.34486 -0.950471 -1.25907 -0.868829 -0.0672873 -1.26934 -1.02 -1.37938 -0.996289 -0.363885
internal_count=51198 49476 22826 1722 833 486 292 183 889 20696 2130 5874 1687 72 443 817 14822 244 194
shrinkage=0.01


Tree=40
num_leaves=20
num_cat=0
split_feature=37 30 6 30 8 6 5 6 0 30 7 19 9 19 34 31 1 37 12
split_gain=250.069 88.0941 68.8871 41.5567 18.3751 17.9529 16.5214 16.1854 14.946 12.8314 12.8257 9.84467 9.67154 9.27877 9.19513 9.68973 11.0465 10.5892 8.48624
threshold=156.50000000000003 1.0769230769230769 0.88031500000000018 4414.9591567852449 -0.37392499999999995 0.20790500000000003 -0.29473999999999995 1.0000000180025095e-35 0.18939500000000001 6671.0429720972579 -0.081849999999999992 0.55991500000000005 1.4791200000000002 0.52876500000000004 70.500000000000014 40105.348299750396 1.0000000180025095e-35 116.50000000000001 3.6696600000000008
decision_type=10 10 2 10 2 2 2 2 2 10 2 2 2 2 10 10 2 8 2
left_child=1 -1 7 5 -4 -2 -5 14 9 11 -9 -8 -11 18 -3 16 -16 -18 -6
right_child=3 2 4 6 13 -7 8 10 -10 12 -12 -13 -14 -15 15 -17 17 -19 -20
leaf_value=-0.014706273869569098 -0.0028096874610884599 -0.01376683454312694 -0.012954896139302135 -0.010219650789174485 -0.0093460998351307736 0.0053984945068958389 0.00036847833933874254 -0.011589916736513269 0.011918472611772007 -0.012719360806010618 -0.013531548553194486 -0.013676998053866232 0.0026325687386394461 -0.0029915351136630304 -0.010907051649719375 -0.013194794578894465 0.0097369761715295697 -0.0078657334437876765 -0.0038034343389755304
leaf_count=26599 290 14747 514 408 1466 172 143 3503 22 105 2564 24 20 119 91 227 28 30 126
internal_value=0 -1.38691 -1.29379 -0.444591 -0.950421 0.0255205 -0.750658 -1.33129 -0.402544 -0.524891 -1.24055 -0.161766 -1.02147 -0.849328 -1.36828 -1.04899 -0.641382 0.0599065 -0.890725
internal_count=51198 50014 23415 1184 2225 462 722 21190 314 292 6067 167 125 1711 15123 376 149 58 1592
shrinkage=0.01


Tree=41
num_leaves=20
num_cat=0
split_feature=38 30 6 30 6 0 6 10 7 6 0 7 12 21 34 31 1 38 6
split_gain=247.791 88.0398 68.5194 40.8178 17.599 16.2886 16.1592 13.0508 12.7428 10.4548 16.475 15.5897 10.6102 9.95191 9.15459 9.57638 10.8722 10.3719 8.9405
threshold=156.50000000000003 1.0769230769230769 0.88031500000000018 4414.9591567852449 0.20790500000000003 -0.044154999999999993 1.0000000180025095e-35 -0.36315999999999993 -0.081849999999999992 2.2251450000000008 -0.17390499999999995 0.10159000000000003 3.0160200000000006 1.0000000180025095e-35 70.500000000000014 40105.348299750396 1.0000000180025095e-35 116.50000000000001 3.2337650000000004
decision_type=10 10 2 10 2 2 2 2 2 2 2 2 2 2 10 10 2 8 2
left_child=1 -1 6 4 -2 18 14 -4 -8 11 -11 -9 -12 -7 -3 16 -16 -18 -5
right_child=3 2 7 5 -6 13 8 9 -10 10 12 -13 -14 -15 15 -17 17 -19 -20
leaf_value=-0.014629864013511747 -0.0027820745879978187 -0.013687848535846533 -0.014163686242172581 -0.0095257553368694077 0.0053455617291262138 -0.013877179835234486 -0.01151103871301172 -0.0084256651120327378 -0.013449929603553228 -0.0096808814100773598 -0.0042614016335802392 -0.013183966769005856 0.010779499993582466 0.00058669828841347949 -0.01082743355542821 -0.013108912600168339 0.0096168818962690961 -0.0078011775989249464 0.0041976507643619338
leaf_count=26599 290 14747 227 551 172 23 3503 904 2564 370 270 433 21 128 91 227 28 30 20
internal_value=0 -1.37907 -1.28582 -0.440569 0.0252699 -0.744241 -1.32333 -0.943021 -1.23251 -0.890562 -0.680162 -0.995584 -0.316946 -0.158295 -1.36037 -1.04137 -0.63598 0.0592866 -0.903386
internal_count=51198 50014 23415 1184 462 722 21190 2225 6067 1998 661 1337 291 151 15123 376 149 58 571
shrinkage=0.01


Tree=42
num_leaves=20
num_cat=0
split_feature=37 33 6 30 6 8 5 0 6 19 34 30 7 0 19 22 30 1 34
split_gain=245.588 88.053 66.8467 40.0888 17.2522 16.5169 16.2151 14.5419 13.8827 16.5671 13.5683 12.6085 12.0443 11.1915 13.7293 11.0126 10.224 9.86363 10.0399
threshold=156.50000000000003 1224.5000000000002 0.54411000000000009 4414.9591567852449 0.20790500000000003 -0.37392499999999995 -0.29473999999999995 0.18939500000000001 2.2251450000000008 0.51670500000000008 31.500000000000004 6671.0429720972579 0.044685000000000009 -0.19985499999999998 0.27118000000000009 0.81617000000000017 8787.9396060749914 1.0000000180025095e-35 75.500000000000014
decision_type=10 10 2 10 2 2 2 2 2 2 10 10 2 2 2 2 10 2 10
left_child=1 -1 10 4 -2 -4 -5 11 12 13 -3 -8 -7 -10 15 -15 17 -12 -19
right_child=3 2 5 6 -6 8 7 -9 9 -11 16 -13 -14 14 -16 -17 -18 18 -20
leaf_value=-0.014464040408601902 -0.0027547388415007285 -0.013418505286875927 -0.012415029908522992 -0.010071987890437189 0.0052932117888421218 -0.0085717411222800324 -0.0015380896024967214 0.01179471892934596 -0.0097671233864226169 0.006038070742776497 -0.01158341450851235 -0.010071446246544467 -0.012432193174164377 0.0016956455111252246 -0.011695849813321309 -0.013080777121438718 -0.012442552317668587 -0.0087888339624796266 0.00099507788322441789
leaf_count=29417 290 14765 753 408 172 1048 167 22 291 43 318 125 516 138 64 25 2422 150 64
internal_value=0 -1.37137 -1.26661 -0.436571 0.0250219 -0.9752 -0.73784 -0.392723 -0.883143 -0.607851 -1.31568 -0.51369 -0.983866 -0.709802 -0.370854 -0.0554535 -1.18611 -0.92461 -0.579588
internal_count=51198 50014 20597 1184 462 2878 722 314 2125 561 17719 292 1564 518 227 163 2954 532 214
shrinkage=0.01


Tree=43
num_leaves=20
num_cat=0
split_feature=37 30 6 30 8 6 6 5 0 7 30 33 33 19 9 24 34 31 1
split_gain=243.431 88.0952 67.904 39.3745 17.9718 16.9124 16.2581 15.9544 14.2568 12.746 12.4006 10.1016 12.0907 9.65563 9.52635 9.31294 9.07674 9.40699 10.5489
threshold=156.50000000000003 1.0769230769230769 0.88031500000000018 4414.9591567852449 -0.37392499999999995 0.20790500000000003 1.0000000180025095e-35 -0.29473999999999995 0.18939500000000001 -0.081849999999999992 6671.0429720972579 643105.00000000012 602525.50000000012 0.55991500000000005 1.4791200000000002 -0.231185 70.500000000000014 40105.348299750396 1.0000000180025095e-35
decision_type=10 10 2 10 2 2 2 2 2 2 10 10 10 2 2 2 10 10 2
left_child=1 -1 6 5 -4 -2 16 -5 10 -8 13 12 -6 -9 -12 -14 -3 18 -18
right_child=3 2 4 7 11 -7 9 8 -10 -11 14 -13 15 -15 -16 -17 17 -19 -20
leaf_value=-0.014481747328141486 -0.0027276768759997515 -0.013534830617394808 -0.012713593933135699 -0.0099903657114387163 -0.0074897344644796748 0.0052414357027982892 -0.011346303137176422 0.00044182556059348837 0.011671659975377516 -0.013292804493027331 -0.012489725287895173 -0.0098892263777320549 0.0084156782104766042 -0.013494502232185216 0.0027662739202263492 -0.0057972488830789117 -0.010664011784786423 -0.012948536637914789 0.00059848048115299925
leaf_count=26599 290 14747 514 408 793 172 3503 143 22 2564 105 840 37 24 20 41 91 227 58
internal_value=0 -1.36378 -1.27017 -0.432617 -0.928174 0.0247766 -1.30773 -0.731517 -0.389124 -1.21631 -0.509031 -0.828067 -0.673002 -0.152294 -0.999083 0.0987963 -1.34506 -1.02654 -0.624301
internal_count=51198 50014 23415 1184 2225 462 21190 722 314 6067 292 1711 871 167 125 78 15123 376 149
shrinkage=0.01


Tree=44
num_leaves=20
num_cat=0
split_feature=37 30 6 30 8 6 6 0 7 33 33 21 34 30 6 10 3 29 1
split_gain=241.305 88.0965 67.5741 38.6787 17.8005 16.5795 16.2393 15.7658 12.6708 9.95887 11.885 9.68027 9.09384 9.11129 8.75093 8.2941 8.04885 7.79452 7.24526
threshold=156.50000000000003 1.0769230769230769 0.88031500000000018 4414.9591567852449 -0.37392499999999995 0.20790500000000003 1.0000000180025095e-35 -0.044154999999999993 -0.081849999999999992 643105.00000000012 602525.50000000012 1.0000000180025095e-35 26.500000000000004 8570.3821753747052 3.2337650000000004 -0.36883499999999997 1.0000000180025095e-35 1.4930500000000004 1.0000000180025095e-35
decision_type=10 10 2 10 2 2 2 2 2 10 10 2 10 10 2 2 2 2 2
left_child=1 -1 6 5 -4 16 12 14 15 10 -6 -9 -3 18 17 -8 -2 -5 -14
right_child=3 2 4 7 9 -7 8 11 -10 -11 -12 -13 13 -15 -16 -17 -18 -19 -20
leaf_value=-0.014409498853654414 0.0075436411589939276 -0.013620698150703261 -0.012632534677132854 -0.0099697881508119361 -0.0074275598929936914 0.0051902246514794435 -0.01412094146149463 -0.013645842539158242 -0.013214885883962626 -0.0098128950234378422 0.00097791336183726736 0.00065045482759851063 -0.011645914999200894 -0.012827318854751914 0.0042703510564070643 -0.010906289108269076 -0.00380261648095149 -0.00028960009449547795 -0.0062266539234606504
leaf_count=26599 28 12386 514 514 793 172 399 23 2564 840 78 128 287 2276 20 3104 262 37 174
internal_value=0 -1.35632 -1.26254 -0.428726 -0.921019 0.0245337 -1.30012 -0.725319 -1.2086 -0.821362 -0.667307 -0.148654 -1.33752 -1.22752 -0.882521 -1.12704 -0.270089 -0.931418 -0.958932
internal_count=51198 50014 23415 1184 2225 462 21190 722 6067 1711 871 151 15123 2737 571 3503 290 551 461
shrinkage=0.01


Tree=45
num_leaves=20
num_cat=0
split_feature=37 33 6 37 6 12 8 3 7 8 24 0 27 35 30 17 7 9 37
split_gain=290.207 90.2829 69.8896 37.0675 21.2209 17.8126 16.7306 15.125 12.3228 11.5792 11.8361 11.0716 12.8266 10.6337 9.92421 17.5685 9.8039 9.68071 9.55294
threshold=140.50000000000003 2254967.0000000005 1.2165250000000003 307.50000000000006 1.0000000180025095e-35 0.20536000000000001 -0.39827499999999993 1.0000000180025095e-35 -0.067254999999999995 5.519095000000001 -0.16809499999999997 1.0000000180025095e-35 -0.53632999999999986 27.500000000000004 6671.0429720972579 -0.57000499999999987 -0.16270499999999996 0.51543500000000009 226.50000000000003
decision_type=10 8 2 10 2 2 2 2 2 2 2 2 2 10 10 2 2 2 10
left_child=1 2 4 5 -1 11 -4 -5 -6 10 13 12 14 -8 15 -2 17 -7 -18
right_child=3 -3 6 7 8 16 9 -9 -10 -11 -12 -13 -14 -15 -16 -17 18 -19 -20
leaf_value=-0.013280161251480771 -0.0088273778818303075 -0.014332148292295786 -0.013091198093798412 0.011106073935531436 -0.011089311337389553 0.0025317723437697083 -0.0072677377248030594 -0.00020347522557844503 -0.012932104809444928 0.00550898772102262 -0.0097961012477761709 -0.0016793817653692051 -0.01065769991394268 -0.0013114026361430444 -0.010589344550517372 0.0054570107327715708 -0.002273318685725632 -0.0081232559435494706 0.0076127639827120201
leaf_count=15002 70 26584 265 60 3878 47 509 244 2740 29 578 108 451 166 78 73 114 141 61
internal_value=0 -1.34752 -1.25164 -0.421545 -1.28348 -0.591873 -0.828357 0.201624 -1.18469 -0.732433 -0.762266 -0.767351 -0.866629 -0.578019 -0.463096 -0.147293 -0.221751 -0.545382 0.121681
internal_count=51198 49751 23167 1447 21620 1143 1547 304 6618 1282 1253 780 672 675 221 143 363 188 175
shrinkage=0.01


Tree=46
num_leaves=20
num_cat=0
split_feature=37 33 6 37 6 12 8 3 7 29 8 24 0 27 34 7 9 37 33
split_gain=287.695 90.2977 69.4597 36.3889 21.2026 17.5194 16.5596 14.8479 12.2471 11.9071 11.3748 11.6708 10.8987 12.6301 10.4588 9.61801 9.50413 9.36125 8.44637
threshold=140.50000000000003 2254967.0000000005 1.2165250000000003 307.50000000000006 1.0000000180025095e-35 0.20536000000000001 -0.39827499999999993 1.0000000180025095e-35 -0.067254999999999995 0.28142500000000004 5.519095000000001 -0.16809499999999997 1.0000000180025095e-35 -0.53632999999999986 27.500000000000004 -0.16270499999999996 0.51543500000000009 226.50000000000003 165378.00000000003
decision_type=10 8 2 10 2 2 2 2 2 2 2 2 2 2 10 2 2 10 10
left_child=1 2 4 5 -1 12 -4 -5 -6 18 11 14 13 -2 -8 16 -7 -17 -9
right_child=3 -3 6 7 8 15 10 9 -10 -11 -12 -13 -14 -15 -16 17 -18 -19 -20
leaf_value=-0.013207116304823185 -0.0045904219308164698 -0.014262479876886518 -0.013011702615513068 0.011010221574263035 -0.011015311714628098 0.0025055587009166357 -0.0072075885916225504 0.0030205309479746896 -0.01285593083622226 0.0082306580806547121 0.005447111963529051 -0.0097218538976035079 -0.001662871914496873 -0.010575573552711621 -0.0012986131539883237 -0.0022513659782949463 -0.0080520824587686762 0.0075348928977178225 -0.0057641712023245185
leaf_count=15002 221 26584 265 60 3878 47 509 70 2740 53 29 578 108 451 166 114 141 61 121
internal_value=0 -1.3403 -1.24424 -0.41779 -1.27608 -0.586732 -0.821841 0.199664 -1.17717 -0.0201441 -0.726409 -0.75605 -0.760978 -0.859649 -0.573023 -0.219646 -0.540388 0.120481 -0.254523
internal_count=51198 49751 23167 1447 21620 1143 1547 304 6618 244 1282 1253 780 672 675 363 188 175 191
shrinkage=0.01


Tree=47
num_leaves=20
num_cat=0
split_feature=38 33 6 38 6 12 8 3 7 29 8 24 0 27 34 7 9 38 38
split_gain=285.235 90.3301 69.0412 35.7181 21.1877 17.2276 16.3925 14.5759 12.1745 11.6731 11.1742 11.5086 10.7265 12.4468 10.287 9.43581 9.33099 9.17365 8.3961
threshold=140.50000000000003 2254967.0000000005 1.2165250000000003 307.50000000000006 1.0000000180025095e-35 0.20536000000000001 -0.39827499999999993 1.0000000180025095e-35 -0.067254999999999995 0.28142500000000004 5.519095000000001 -0.16809499999999997 1.0000000180025095e-35 -0.53632999999999986 27.500000000000004 -0.16270499999999996 0.51543500000000009 226.50000000000003 169.50000000000003
decision_type=10 8 2 10 2 2 2 2 2 2 2 2 2 2 10 2 2 10 10
left_child=1 2 4 5 -1 12 -4 -5 -6 -9 11 14 13 -2 -8 16 -7 18 -17
right_child=3 -3 6 7 8 15 10 9 -10 -11 -12 -13 -14 -15 -16 17 -18 -19 -20
leaf_value=-0.013135162975758594 -0.0045487401872732662 -0.014194057508916469 -0.012933379832651706 0.010915714827042566 -0.010942168018101288 0.0024796329665171877 -0.0071480105606749403 -0.0025205853055322225 -0.012780846622892255 0.0081502885448993083 0.0053860832452572874 -0.0096484206531483839 -0.0016465238175661248 -0.010494446373582569 -0.0012859464377949052 0.0039237566750802821 -0.0079816917162117244 0.0074580446620135009 -0.0071612670552941562
leaf_count=15002 221 26584 265 60 3878 47 509 191 2740 53 29 578 108 451 166 51 141 61 63
internal_value=0 -1.33319 -1.23694 -0.414075 -1.26879 -0.581609 -0.815393 0.197771 -1.16974 -0.0199489 -0.720446 -0.749896 -0.754603 -0.852655 -0.568074 -0.217564 -0.535447 0.119294 -0.222962
internal_count=51198 49751 23167 1447 21620 1143 1547 304 6618 244 1282 1253 780 672 675 363 188 175 114
shrinkage=0.01


Tree=48
num_leaves=20
num_cat=0
split_feature=37 30 7 37 8 12 29 12 0 27 28 18 9 30 17 7 9 37 34
split_gain=282.847 90.3859 53.2168 35.0617 24.6771 16.9416 13.6089 11.0329 10.5575 12.2675 10.2536 16.1721 9.80999 9.79388 17.2685 9.25723 9.16122 8.99003 8.36977
threshold=140.50000000000003 1.0769230769230769 -0.18760499999999997 307.50000000000006 -0.37392499999999995 0.20536000000000001 0.28142500000000004 2.3623800000000004 1.0000000180025095e-35 -0.53632999999999986 -0.27010999999999991 0.12223500000000002 0.39791500000000007 6671.0429720972579 -0.57000499999999987 -0.16270499999999996 0.51543500000000009 226.50000000000003 92.500000000000014
decision_type=10 10 2 10 2 2 2 2 2 2 2 2 2 10 2 2 2 10 10
left_child=1 -1 -3 5 -4 8 10 -6 9 13 -5 -12 -8 14 -2 16 18 -17 -7
right_child=3 2 4 6 7 15 12 -9 -10 -11 11 -13 -14 -15 -16 17 -18 -19 -20
leaf_value=-0.014125297144637663 -0.0086807964658577683 -0.013062045046639664 -0.012494440041283993 -0.004208725379588274 -0.010412853534371385 -0.0071927609508351913 -0.0016719981368580725 -0.0073054357873364034 -0.0016303357418240452 -0.010414293487198752 0.010300357923516665 -0.0064748151117284304 0.014407705291069224 -0.0104441923144474 0.0054966859676852222 -0.0022079671280492447 -0.0079120682785587954 0.0073821974962402582 0.010071837054384849
leaf_count=26631 70 14950 2945 129 4666 21 22 559 108 451 66 36 51 78 73 114 141 61 26
internal_value=0 -1.3262 -1.22956 -0.410384 -1.09374 -0.576536 0.195869 -1.0078 -0.748296 -0.845736 -0.0437956 0.434147 0.954249 -0.450744 -0.136986 -0.215501 -0.530561 0.118113 0.245399
internal_count=51198 49751 23120 1447 8170 1143 304 5225 780 672 231 102 73 221 143 363 188 175 47
shrinkage=0.01


Tree=49
num_leaves=20
num_cat=0
split_feature=37 30 6 37 6 8 0 3 6 7 7 29 8 24 35 27 37 35 4
split_gain=280.449 90.4737 69.7076 34.4203 20.7903 16.4232 14.4206 14.1864 13.462 14.0479 12.2382 11.2204 10.9018 11.5767 9.92472 9.55929 8.81633 8.38797 8.32197
threshold=140.50000000000003 1.0769230769230769 1.2165250000000003 307.50000000000006 1.0000000180025095e-35 -0.39827499999999993 -0.018204999999999999 1.0000000180025095e-35 0.20790500000000003 0.10159000000000003 -0.067254999999999995 0.28142500000000004 5.519095000000001 -0.16809499999999997 27.500000000000004 -0.41075999999999996 223.50000000000003 26.500000000000004 1.0000000180025095e-35
decision_type=10 10 2 10 2 2 2 2 2 2 2 2 2 2 10 2 10 10 2
left_child=1 -1 4 6 17 -4 8 -5 15 16 -6 -9 13 14 -7 -2 -10 -3 -8
right_child=3 2 5 7 10 12 18 11 9 -11 -12 -13 -14 -15 -16 -17 -18 -19 -20
leaf_value=-0.014059272816763146 -0.0059409552353446816 -0.013226874228801038 -0.012782254466992828 0.010771141288360583 -0.010800343973390376 -0.0069388458256714296 0.00082877796780605421 -0.0024820480019635757 -0.0022886648121745461 -0.0093002045774403137 -0.012653520007489412 0.0079843529571682163 0.0054123761001549954 -0.0094863224422139531 -0.0011745029353755431 -0.010950925132015628 0.0082015830981207235 -0.011894340584694289 -0.010470131292083039
leaf_count=26631 317 12363 265 60 3867 510 174 191 147 102 2731 53 29 576 166 329 42 2613 32
internal_value=0 -1.31929 -1.22244 -0.406774 -1.25468 -0.797786 -0.571567 0.19402 -0.681138 -0.317989 -1.15608 -0.0206502 -0.70264 -0.731866 -0.549593 -0.847877 0.0101041 -1.29925 -0.0891703
internal_count=51198 49751 23120 1447 21574 1546 1143 304 937 291 6598 244 1281 1252 676 646 189 14976 206
shrinkage=0.01


Tree=50
num_leaves=20
num_cat=0
split_feature=37 33 6 30 28 0 6 7 34 37 34 27 29 37 8 6 17 30 21
split_gain=273.036 87.3061 55.2707 30.4867 21.4008 17.2 14.0424 13.7561 13.4499 13.3548 9.93981 9.39048 8.55844 9.88964 15.7163 8.44316 8.32954 8.24419 8.00767
threshold=163.50000000000003 1224.5000000000002 0.20790500000000003 5739.6340493031012 -0.21049999999999996 -0.56315499999999996 1.8889400000000005 -0.070534999999999987 65.500000000000014 76.500000000000014 67.500000000000014 0.064960000000000018 0.28142500000000004 115.50000000000001 0.52707500000000007 1.8889400000000005 1.6650750000000001 8346.4894003998943 1.0000000180025095e-35
decision_type=10 10 2 10 2 2 2 2 10 10 8 2 2 10 2 2 2 10 2
left_child=1 -1 8 4 10 -6 7 9 18 -4 -2 -7 13 -8 -15 -5 -13 -10 -3
right_child=3 2 6 15 5 11 12 -9 17 -11 -12 16 -14 14 -16 -17 -18 -19 -20
leaf_value=-0.0139155228129172 -0.011081282609012229 -0.013511286624137102 -0.010059693299685325 -0.0083598879369602679 -0.01120440975486217 0.009250209655113065 -0.0069638061181249667 -0.011933949570974338 -0.0062865219109794999 -0.0048126735386639684 -0.0020003319520635146 -0.0035277795487729385 -0.010397080063168898 -0.0089485327100321029 0.015676103100686928 0.0023486706288717344 0.0077078258767011177 -0.011429993344345087 -0.012473566788489286
leaf_count=29518 58 5106 1569 366 27 136 510 1824 210 243 368 62 322 22 21 33 47 393 10363
internal_value=0 -1.31533 -1.20937 -0.289447 -0.0376429 0.403015 -1.00477 -1.06339 -1.2691 -0.933957 -0.321353 0.57141 -0.770365 -0.614945 0.321805 -0.744929 0.131539 -0.961229 -1.28158
internal_count=51198 50101 20583 1097 698 272 4511 3636 16072 1812 426 245 875 553 43 399 109 603 15469
shrinkage=0.01


Tree=51
num_leaves=20
num_cat=0
split_feature=37 37 6 30 28 0 34 37 0 34 21 30 27 30 6 17 3 14 26
split_gain=270.626 87.4369 54.758 29.9482 20.9831 16.8617 14.2231 10.1567 10.9724 9.77431 9.49083 9.28968 9.21239 9.11538 8.29931 8.1652 7.96375 7.96152 7.86686
threshold=163.50000000000003 1.0000000180025095e-35 0.54411000000000009 5739.6340493031012 -0.21049999999999996 -0.56315499999999996 64.500000000000014 68.500000000000014 -0.19985499999999998 67.500000000000014 1.0000000180025095e-35 1.0769230769230769 0.064960000000000018 8346.4894003998943 1.8889400000000005 1.6650750000000001 1.0000000180025095e-35 -0.22531499999999996 -0.13448499999999997
decision_type=10 10 2 10 2 2 10 10 2 8 2 10 2 10 2 2 2 2 2
left_child=1 11 6 4 9 -6 10 18 -9 -2 -3 -1 -7 -8 -5 -14 -11 -12 -4
right_child=3 2 7 14 5 12 13 8 -10 16 17 -13 15 -15 -16 -17 -18 -19 -20
leaf_value=-0.013967540745480803 -0.01099420455658244 -0.013339453741268726 -0.008871228510103156 -0.0082917547526018195 -0.011092887431325003 0.0091628752926165794 -0.0061880647279466666 -0.0087264290194765635 -0.0024152499221466398 0.0072776763264334448 -0.012757651098177858 -0.012876354630127873 -0.0034927486914406239 -0.01123012671831258 0.0023243970716720582 0.0076322650260261891 -0.00293422186204035 -0.011600400426714936 -0.011506712796370996
leaf_count=26472 58 5067 1337 366 27 136 237 362 173 34 5862 4179 62 473 33 47 334 5141 798
internal_value=0 -1.30863 -1.19715 -0.286799 -0.0372818 0.39912 -1.24355 -0.919728 -0.665501 -0.31828 -1.25694 -1.38154 0.565905 -0.95199 -0.73872 0.13024 -0.198067 -1.22157 -0.985271
internal_count=51198 50101 19450 1097 698 272 16780 2670 535 426 16070 30651 245 710 399 109 368 11003 2135
shrinkage=0.01


Tree=52
num_leaves=20
num_cat=0
split_feature=37 33 6 30 28 6 7 34 30 18 34 29 37 8 30 6 27 6 30
split_gain=268.241 87.5609 55.1229 29.4187 20.5752 13.9262 13.7129 13.3471 13.2866 13.2814 9.61144 8.44843 9.66849 15.3692 8.16612 10.7146 10.4941 8.15811 8.07475
threshold=163.50000000000003 1224.5000000000002 0.20790500000000003 5739.6340493031012 -0.21049999999999996 1.8889400000000005 -0.070534999999999987 65.500000000000014 11458.866486068113 0.016195000000000005 67.500000000000014 0.28142500000000004 115.50000000000001 0.52707500000000007 3369.4302779490413 0.20790500000000003 -0.44500499999999993 1.8889400000000005 8346.4894003998943
decision_type=10 10 2 10 2 2 2 10 10 2 8 2 10 2 10 2 2 2 10
left_child=1 -1 7 4 10 6 8 -3 -4 14 -2 12 -7 -14 -6 16 -16 -5 -9
right_child=3 2 5 17 9 11 -8 18 -10 -11 -12 -13 13 -15 15 -17 -18 -19 -20
leaf_value=-0.013788209530501099 -0.010908258107745426 -0.01267997637346931 -0.0053138558317800963 -0.0082243188574962801 0.014639526424770025 -0.0068284079674224172 -0.011795387073505595 -0.0061839206932493684 -0.010036863202070669 -0.00032984436399193483 -0.0019614631943028443 -0.01025087909762626 -0.0088214609906400315 0.015540410864088521 0.0068203305070246335 0.013063286240853846 -0.012907043619041427 0.0023003889888086348 -0.011286724516668036
leaf_count=29518 58 15469 318 366 54 510 1824 210 1494 141 368 322 22 21 24 33 20 33 393
internal_value=0 -1.30202 -1.1955 -0.284192 -0.0369273 -0.990577 -1.04921 -1.25549 -0.91961 0.395274 -0.315274 -0.756679 -0.602028 0.324494 0.858158 0.439493 -0.209714 -0.732575 -0.947898
internal_count=51198 50101 20583 1097 698 4511 3636 16072 1812 272 426 875 553 43 131 77 44 399 603
shrinkage=0.01


Tree=53
num_leaves=20
num_cat=0
split_feature=37 37 6 30 28 0 34 37 0 34 14 30 30 27 6 1 6 17 26
split_gain=265.904 87.7242 54.5098 28.8992 20.1761 16.4795 14.1165 10.0133 10.7747 9.51586 9.49187 9.39505 8.93832 8.87532 8.80628 8.34664 8.0195 8.00437 7.79526
threshold=163.50000000000003 1.0000000180025095e-35 0.54411000000000009 5739.6340493031012 -0.21049999999999996 -0.56315499999999996 64.500000000000014 68.500000000000014 -0.19985499999999998 112.50000000000001 -0.22531499999999996 1.0769230769230769 8346.4894003998943 0.064960000000000018 1.2165250000000003 1.0000000180025095e-35 1.8889400000000005 1.6650750000000001 -0.13448499999999997
decision_type=10 10 2 10 2 2 10 10 2 8 2 10 10 2 2 2 2 2 2
left_child=1 11 6 4 9 -6 10 18 -9 -2 -3 -1 15 -7 -11 -8 -5 -15 -4
right_child=3 2 7 16 5 13 12 8 -10 14 -12 -13 -14 17 -16 -17 -18 -19 -20
leaf_value=-0.013843865280032735 -0.0072993969231062439 -0.012886374402614127 -0.0087329051602861828 -0.0081575664921281384 -0.010998348795076619 0.0090086437298023802 -0.0095213797993916032 -0.0085896791744543254 -0.0023258307404323952 -0.002368527848068235 -0.011826120902961207 -0.012741186565699045 -0.011088426996025934 -0.0034581767128533053 0.0080539624202857363 -0.0015926198879805289 0.0022766421811352446 0.0075581525460242964 -0.01136484793427554
leaf_count=26472 148 9235 1337 366 27 136 135 362 173 240 6835 4179 473 62 38 102 33 47 798
internal_value=0 -1.29551 -1.18342 -0.281611 -0.0365757 0.391539 -1.22999 -0.9059 -0.653022 -0.312262 -1.24341 -1.36899 -0.938655 0.556557 -0.0931655 -0.608322 -0.726492 0.129007 -0.971235
internal_count=51198 50101 19450 1097 698 272 16780 2670 535 426 16070 30651 710 245 278 237 399 109 2135
shrinkage=0.01


Tree=54
num_leaves=20
num_cat=0
split_feature=39 33 6 30 28 6 7 34 30 18 25 34 29 39 8 30 6 27 21
split_gain=263.613 87.8651 55.0059 28.3894 19.7841 13.8108 13.6757 13.2492 13.1518 12.9099 10.071 9.37068 8.34161 9.45201 15.0305 8.04111 10.4863 10.2388 8.01232
threshold=163.50000000000003 1224.5000000000002 0.20790500000000003 5739.6340493031012 -0.21049999999999996 1.8889400000000005 -0.070534999999999987 65.500000000000014 13105.323595004464 0.016195000000000005 3.5635700000000003 67.500000000000014 0.28142500000000004 115.50000000000001 0.52707500000000007 3369.4302779490413 0.20790500000000003 -0.44500499999999993 1.0000000180025095e-35
decision_type=10 10 2 10 2 2 2 10 10 2 2 8 2 10 2 10 2 2 2
left_child=1 -1 7 4 11 6 8 18 -4 15 -11 -2 13 -7 -15 -6 17 -17 -3
right_child=3 2 5 -5 9 12 -8 -9 -10 10 -12 -13 -14 14 -16 16 -18 -19 -20
leaf_value=-0.013665088288311459 -0.010766872774435911 -0.013250509476547418 -0.0056664037508191191 -0.0072046935640362212 0.014471057065604436 -0.0066955484522047597 -0.011660032620487995 -0.0093487316109411751 -0.010014760231251229 0.0020308083356854688 -0.012535590522011298 -0.0019181226175706168 -0.010107867472183306 -0.0086970398889191797 0.015406286971750241 0.0066790034478514176 0.012876846833281169 -0.012810977333479086 -0.012202536447584945
leaf_count=29518 58 5106 394 399 54 510 1824 603 1418 118 23 368 322 22 21 24 33 20 10363
internal_value=0 -1.28909 -1.18198 -0.279056 -0.036228 -0.976666 -1.03532 -1.24225 -0.905511 0.387782 -0.0343272 -0.309309 -0.743262 -0.589359 0.327061 0.844711 0.429406 -0.212784 -1.25479
internal_count=51198 50101 20583 1097 698 4511 3636 16072 1812 272 141 426 875 553 43 131 77 44 15469
shrinkage=0.01


Tree=55
num_leaves=20
num_cat=0
split_feature=37 33 6 30 0 37 34 2 6 20 21 33 30 24 5 24 17 7 26
split_gain=264.48 94.8904 70.0216 36.2741 16.6069 15.6251 14.4491 13.1802 11.5641 9.67819 9.02653 8.49793 11.7749 11.8129 8.07415 7.77802 9.34346 7.75824 7.74855
threshold=171.50000000000003 1224.5000000000002 0.54411000000000009 4626.0303952991462 -0.044154999999999993 68.500000000000014 33.500000000000007 -0.46715000000000001 0.88031500000000018 -0.20977999999999997 1.0000000180025095e-35 181189.00000000003 3900.5839601677249 -0.55511499999999991 -0.56358499999999989 -0.41618499999999997 -0.45822999999999992 -0.18760499999999997 -0.13448499999999997
decision_type=10 10 2 10 2 10 10 2 2 2 2 10 8 2 2 2 2 2 2
left_child=1 -1 6 8 14 18 10 9 11 -7 -3 12 13 -2 -5 16 -6 -12 -4
right_child=3 2 5 4 15 7 -8 -9 -10 -11 17 -13 -14 -15 -16 -17 -18 -19 -20
leaf_value=-0.013612048289143657 -0.0012454323483255248 -0.013267687791022742 -0.0084957287383786179 -0.011294224923828575 -0.0014945416508285576 0.004662637156417934 -0.010807840000002841 -0.0073532001744443997 0.007028124953964935 -0.0068376525817238709 -0.012502113764425307 -0.0032438128562600533 -0.0084779053968026593 0.0095922440414078474 -0.0055199612912742958 -0.004679632160151972 0.015207618562918617 -0.011179191356863563 -0.010972962277996497
leaf_count=29460 73 4765 1440 187 30 79 2816 437 116 52 7335 193 32 94 228 53 25 2858 925
internal_value=0 -1.28022 -1.16926 -0.237878 -0.619465 -0.869468 -1.22168 -0.561514 0.143627 0.0131066 -1.24872 -0.0223452 0.270482 0.48632 -0.809573 0.0817658 0.614286 -1.21237 -0.945982
internal_count=51198 50167 20707 1031 523 2933 17774 568 508 131 14958 392 199 167 415 108 55 10193 2365
shrinkage=0.01


Tree=56
num_leaves=20
num_cat=0
split_feature=37 30 6 30 37 0 34 3 2 8 20 21 28 18 12 28 5 7 11
split_gain=262.128 95.172 70.6727 35.6099 17.3762 16.3251 15.7374 14.1206 12.9604 10.1519 9.49125 9.46961 9.44284 9.63273 12.2994 14.5375 7.96784 7.63327 7.27137
